1000 64
0.134615384615 0.0 0.557692307692 0.0 0.230769230769 0.0 0.442307692308 0.115384615385 0.0961538461538 0.0 0.634615384615 0.0192307692308 0.0961538461538 0.0384615384615 0.5 0.0769230769231 0.230769230769 0.0 0.384615384615 0.134615384615 0.269230769231 0.0 0.307692307692 0.192307692308 0.269230769231 0.0 0.346153846154 0.0576923076923 0.25 0.0 0.326923076923 0.0576923076923 0.365384615385 0.0 0.346153846154 0.115384615385 0.326923076923 0.0192307692308 0.307692307692 0.134615384615 0.346153846154 0.0 0.384615384615 0.153846153846 0.326923076923 0.0 0.365384615385 0.153846153846 0.0384615384615 0.134615384615 0.461538461538 0.0192307692308 0.134615384615 0.0192307692308 0.519230769231 0.0384615384615 0.25 0.0 0.384615384615 0.173076923077 0.0769230769231 0.0 0.538461538462 0.0 0
0.192307692308 0.0 0.557692307692 0.0 0.230769230769 0.0 0.5 0.0576923076923 0.211538461538 0.0 0.5 0.0192307692308 0.211538461538 0.0384615384615 0.365384615385 0.0769230769231 0.192307692308 0.0 0.384615384615 0.0769230769231 0.25 0.0 0.288461538462 0.153846153846 0.403846153846 0.0 0.346153846154 0.134615384615 0.326923076923 0.0 0.384615384615 0.0961538461538 0.365384615385 0.0 0.326923076923 0.115384615385 0.269230769231 0.0 0.384615384615 0.0576923076923 0.326923076923 0.0 0.346153846154 0.0961538461538 0.384615384615 0.0 0.25 0.173076923077 0.115384615385 0.0961538461538 0.5 0.0 0.211538461538 0.0384615384615 0.461538461538 0.0769230769231 0.25 0.0 0.384615384615 0.192307692308 0.0576923076923 0.0 0.538461538462 0.0 0
0.115384615385 0.0 0.557692307692 0.0 0.230769230769 0.0 0.423076923077 0.134615384615 0.230769230769 0.0384615384615 0.461538461538 0.0576923076923 0.173076923077 0.0769230769231 0.384615384615 0.0576923076923 0.25 0.0 0.288461538462 0.173076923077 0.230769230769 0.0 0.269230769231 0.173076923077 0.403846153846 0.0 0.288461538462 0.0576923076923 0.307692307692 0.0 0.346153846154 0.0 0.442307692308 0.0 0.326923076923 0.0769230769231 0.403846153846 0.0 0.326923076923 0.0576923076923 0.307692307692 0.0 0.346153846154 0.115384615385 0.365384615385 0.0 0.25 0.192307692308 0.0576923076923 0.115384615385 0.442307692308 0.0 0.134615384615 0.0384615384615 0.480769230769 0.0384615384615 0.25 0.0 0.307692307692 0.25 0.0 0.0 0.538461538462 0.0 0
0.173076923077 0.0 0.557692307692 0.0 0.230769230769 0.0 0.480769230769 0.0769230769231 0.0769230769231 0.0192307692308 0.403846153846 0.0961538461538 0.0384615384615 0.0 0.442307692308 0.0769230769231 0.230769230769 0.0 0.403846153846 0.0384615384615 0.326923076923 0.0 0.269230769231 0.173076923077 0.269230769231 0.0 0.365384615385 0.134615384615 0.269230769231 0.0 0.326923076923 0.153846153846 0.307692307692 0.0 0.288461538462 0.134615384615 0.211538461538 0.0 0.346153846154 0.0769230769231 0.307692307692 0.0 0.346153846154 0.192307692308 0.230769230769 0.0 0.384615384615 0.134615384615 0.173076923077 0.0961538461538 0.538461538462 0.0961538461538 0.211538461538 0.0192307692308 0.596153846154 0.0961538461538 0.25 0.0 0.461538461538 0.0961538461538 0.134615384615 0.0 0.557692307692 0.0 0
0.0576923076923 0.0 0.557692307692 0.0 0.230769230769 0.0 0.365384615385 0.192307692308 0.25 0.0 0.365384615385 0.0 0.115384615385 0.115384615385 0.211538461538 0.0 0.153846153846 0.0 0.25 0.0384615384615 0.192307692308 0.0 0.173076923077 0.115384615385 0.153846153846 0.0192307692308 0.192307692308 0.0576923076923 0.134615384615 0.0 0.230769230769 0.0384615384615 0.288461538462 0.115384615385 0.173076923077 0.0769230769231 0.230769230769 0.0576923076923 0.288461538462 0.0 0.365384615385 0.0 0.192307692308 0.0961538461538 0.365384615385 0.0 0.153846153846 0.134615384615 0.0769230769231 0.173076923077 0.25 0.0 0.230769230769 0.0 0.423076923077 0.0 0.25 0.0 0.173076923077 0.134615384615 0.0961538461538 0.0 0.307692307692 0.0 0
0.115384615385 0.0 0.557692307692 0.0 0.230769230769 0.0 0.423076923077 0.134615384615 0.153846153846 0.0 0.403846153846 0.0 0.0576923076923 0.0961538461538 0.25 0.0192307692308 0.288461538462 0.0 0.269230769231 0.0961538461538 0.269230769231 0.0 0.25 0.0961538461538 0.192307692308 0.0 0.307692307692 0.0576923076923 0.192307692308 0.0 0.269230769231 0.0961538461538 0.365384615385 0.0 0.230769230769 0.0961538461538 0.25 0.0 0.288461538462 0.0384615384615 0.326923076923 0.0 0.230769230769 0.192307692308 0.230769230769 0.0 0.288461538462 0.115384615385 0.0384615384615 0.0769230769231 0.5 0.0192307692308 0.0769230769231 0.0192307692308 0.519230769231 0.0384615384615 0.25 0.0 0.403846153846 0.153846153846 0.0769230769231 0.0 0.557692307692 0.0 0
0.0961538461538 0.0 0.634615384615 0.0576923076923 0.230769230769 0.0 0.461538461538 0.211538461538 0.269230769231 0.0384615384615 0.615384615385 0.0 0.0769230769231 0.211538461538 0.403846153846 0.0 0.307692307692 0.0 0.269230769231 0.134615384615 0.0961538461538 0.0384615384615 0.365384615385 0.0 0.269230769231 0.0384615384615 0.365384615385 0.0 0.269230769231 0.0 0.403846153846 0.0 0.384615384615 0.115384615385 0.346153846154 0.0 0.346153846154 0.115384615385 0.346153846154 0.0 0.346153846154 0.0 0.423076923077 0.0384615384615 0.384615384615 0.0 0.346153846154 0.0961538461538 0.0769230769231 0.211538461538 0.442307692308 0.0 0.230769230769 0.0192307692308 0.615384615385 0.0 0.25 0.0 0.346153846154 0.192307692308 0.0961538461538 0.0769230769231 0.307692307692 0.134615384615 0
0.0769230769231 0.0 0.519230769231 0.0 0.230769230769 0.0 0.346153846154 0.173076923077 0.25 0.0 0.461538461538 0.0 0.115384615385 0.115384615385 0.307692307692 0.0 0.346153846154 0.0 0.25 0.0769230769231 0.288461538462 0.0 0.269230769231 0.0576923076923 0.153846153846 0.0769230769231 0.346153846154 0.0 0.230769230769 0.0 0.403846153846 0.0192307692308 0.307692307692 0.0576923076923 0.288461538462 0.0192307692308 0.230769230769 0.0769230769231 0.288461538462 0.0 0.307692307692 0.0 0.365384615385 0.0576923076923 0.365384615385 0.0 0.269230769231 0.153846153846 0.115384615385 0.134615384615 0.230769230769 0.0 0.230769230769 0.0 0.365384615385 0.0 0.25 0.0 0.346153846154 0.192307692308 0.0576923076923 0.0 0.519230769231 0.0 0
0.0961538461538 0.0 0.557692307692 0.0 0.230769230769 0.0 0.403846153846 0.153846153846 0.211538461538 0.0 0.192307692308 0.0 0.115384615385 0.0961538461538 0.0576923076923 0.0384615384615 0.0961538461538 0.0 0.346153846154 0.0 0.230769230769 0.0 0.192307692308 0.153846153846 0.269230769231 0.0 0.0961538461538 0.153846153846 0.0961538461538 0.0 0.230769230769 0.0 0.346153846154 0.0 0.153846153846 0.153846153846 0.230769230769 0.0 0.230769230769 0.0769230769231 0.423076923077 0.0 0.211538461538 0.0961538461538 0.365384615385 0.0 0.230769230769 0.0769230769231 0.0192307692308 0.0961538461538 0.134615384615 0.0 0.0961538461538 0.0 0.211538461538 0.0192307692308 0.25 0.0 0.115384615385 0.192307692308 0.0576923076923 0.0 0.288461538462 0.0 0
0.0769230769231 0.0 0.269230769231 0.0 0.230769230769 0.0 0.0961538461538 0.173076923077 0.269230769231 0.0 0.557692307692 0.0 0.153846153846 0.115384615385 0.423076923077 0.0192307692308 0.230769230769 0.0 0.25 0.0961538461538 0.192307692308 0.0 0.25 0.0769230769231 0.307692307692 0.0961538461538 0.230769230769 0.0576923076923 0.326923076923 0.0 0.346153846154 0.0384615384615 0.423076923077 0.0769230769231 0.269230769231 0.0384615384615 0.346153846154 0.0769230769231 0.307692307692 0.0 0.384615384615 0.0 0.326923076923 0.115384615385 0.346153846154 0.0 0.326923076923 0.115384615385 0.115384615385 0.173076923077 0.442307692308 0.0 0.230769230769 0.0192307692308 0.576923076923 0.0 0.269230769231 0.0 0.307692307692 0.173076923077 0.0961538461538 0.0 0.442307692308 0.0192307692308 0
0.0769230769231 0.0 0.480769230769 0.0769230769231 0.211538461538 0.0 0.307692307692 0.230769230769 0.25 0.0 0.75 0.0 0.134615384615 0.115384615385 0.596153846154 0.0 0.211538461538 0.0 0.211538461538 0.192307692308 0.0192307692308 0.0 0.365384615385 0.0192307692308 0.192307692308 0.0384615384615 0.346153846154 0.0 0.230769230769 0.0 0.365384615385 0.0192307692308 0.346153846154 0.0576923076923 0.365384615385 0.0192307692308 0.269230769231 0.0769230769231 0.365384615385 0.0 0.326923076923 0.0 0.384615384615 0.0961538461538 0.346153846154 0.0 0.326923076923 0.134615384615 0.134615384615 0.173076923077 0.576923076923 0.0 0.230769230769 0.0576923076923 0.653846153846 0.0 0.269230769231 0.0 0.423076923077 0.192307692308 0.0961538461538 0.0 0.557692307692 0.0384615384615 0
0.134615384615 0.0 0.480769230769 0.0 0.269230769231 0.0192307692308 0.288461538462 0.173076923077 0.25 0.0 0.442307692308 0.0 0.115384615385 0.115384615385 0.326923076923 0.0 0.403846153846 0.0 0.307692307692 0.0961538461538 0.326923076923 0.0 0.346153846154 0.0576923076923 0.403846153846 0.0576923076923 0.211538461538 0.0192307692308 0.403846153846 0.0192307692308 0.211538461538 0.0384615384615 0.25 0.0 0.365384615385 0.0384615384615 0.153846153846 0.0384615384615 0.365384615385 0.0 0.403846153846 0.0 0.192307692308 0.0961538461538 0.365384615385 0.0 0.192307692308 0.0961538461538 0.153846153846 0.134615384615 0.75 0.0 0.269230769231 0.0192307692308 0.807692307692 0.0384615384615 0.25 0.0 0.307692307692 0.134615384615 0.0961538461538 0.0 0.442307692308 0.0 0
0.0769230769231 0.0 0.557692307692 0.0 0.230769230769 0.0 0.384615384615 0.173076923077 0.288461538462 0.0 0.442307692308 0.0192307692308 0.115384615385 0.134615384615 0.288461538462 0.0 0.326923076923 0.0 0.326923076923 0.153846153846 0.326923076923 0.0 0.288461538462 0.173076923077 0.25 0.0 0.365384615385 0.0 0.230769230769 0.0 0.365384615385 0.0 0.25 0.0192307692308 0.288461538462 0.115384615385 0.211538461538 0.0192307692308 0.288461538462 0.115384615385 0.384615384615 0.0 0.346153846154 0.115384615385 0.288461538462 0.0576923076923 0.288461538462 0.115384615385 0.153846153846 0.0961538461538 0.403846153846 0.0961538461538 0.0769230769231 0.0769230769231 0.461538461538 0.0384615384615 0.288461538462 0.0576923076923 0.326923076923 0.173076923077 0.153846153846 0.0 0.557692307692 0.0 0
0.134615384615 0.0 0.673076923077 0.0576923076923 0.25 0.0 0.519230769231 0.192307692308 0.25 0.0769230769231 0.538461538462 0.0 0.0961538461538 0.211538461538 0.384615384615 0.0 0.423076923077 0.0192307692308 0.384615384615 0.0192307692308 0.307692307692 0.0961538461538 0.307692307692 0.0192307692308 0.269230769231 0.0769230769231 0.346153846154 0.0 0.288461538462 0.0192307692308 0.403846153846 0.0 0.403846153846 0.173076923077 0.288461538462 0.0384615384615 0.365384615385 0.134615384615 0.365384615385 0.0 0.288461538462 0.0 0.403846153846 0.0576923076923 0.346153846154 0.0 0.307692307692 0.134615384615 0.0961538461538 0.230769230769 0.403846153846 0.0 0.269230769231 0.0192307692308 0.596153846154 0.0 0.269230769231 0.0 0.423076923077 0.173076923077 0.134615384615 0.0 0.519230769231 0.0576923076923 0
0.0576923076923 0.0 0.653846153846 0.0192307692308 0.230769230769 0.0 0.442307692308 0.211538461538 0.211538461538 0.0769230769231 0.557692307692 0.0 0.0961538461538 0.153846153846 0.461538461538 0.0 0.384615384615 0.0 0.365384615385 0.0769230769231 0.365384615385 0.0192307692308 0.307692307692 0.0961538461538 0.211538461538 0.0192307692308 0.423076923077 0.0 0.230769230769 0.0 0.423076923077 0.0192307692308 0.346153846154 0.0769230769231 0.288461538462 0.0384615384615 0.346153846154 0.0 0.403846153846 0.0 0.307692307692 0.0 0.423076923077 0.0769230769231 0.326923076923 0.0 0.365384615385 0.134615384615 0.211538461538 0.173076923077 0.538461538462 0.0 0.230769230769 0.115384615385 0.596153846154 0.0 0.269230769231 0.0 0.519230769231 0.192307692308 0.173076923077 0.0 0.576923076923 0.115384615385 0
0.115384615385 0.0 0.461538461538 0.0 0.230769230769 0.0 0.326923076923 0.134615384615 0.288461538462 0.0 0.442307692308 0.0 0.0769230769231 0.192307692308 0.230769230769 0.0 0.346153846154 0.0 0.25 0.173076923077 0.288461538462 0.0 0.269230769231 0.134615384615 0.288461538462 0.0961538461538 0.230769230769 0.0192307692308 0.346153846154 0.0 0.307692307692 0.0384615384615 0.269230769231 0.0 0.269230769231 0.0384615384615 0.153846153846 0.0384615384615 0.269230769231 0.0 0.403846153846 0.0 0.307692307692 0.0961538461538 0.365384615385 0.0 0.307692307692 0.0961538461538 0.0576923076923 0.230769230769 0.326923076923 0.0 0.25 0.0192307692308 0.519230769231 0.0 0.346153846154 0.0192307692308 0.423076923077 0.192307692308 0.115384615385 0.0576923076923 0.538461538462 0.0192307692308 0
0.134615384615 0.0769230769231 0.519230769231 0.0769230769231 0.230769230769 0.0 0.538461538462 0.134615384615 0.269230769231 0.0961538461538 0.576923076923 0.0 0.173076923077 0.173076923077 0.480769230769 0.0 0.365384615385 0.0 0.269230769231 0.0192307692308 0.307692307692 0.0769230769231 0.134615384615 0.0769230769231 0.403846153846 0.0384615384615 0.288461538462 0.0 0.384615384615 0.0192307692308 0.307692307692 0.0 0.307692307692 0.153846153846 0.0961538461538 0.0961538461538 0.365384615385 0.0192307692308 0.269230769231 0.0384615384615 0.211538461538 0.0192307692308 0.307692307692 0.0192307692308 0.288461538462 0.0 0.230769230769 0.0961538461538 0.211538461538 0.134615384615 0.5 0.0 0.230769230769 0.0769230769231 0.557692307692 0.0 0.288461538462 0.0 0.403846153846 0.134615384615 0.211538461538 0.0 0.442307692308 0.0769230769231 0
0.0769230769231 0.0 0.596153846154 0.0 0.230769230769 0.0 0.403846153846 0.173076923077 0.192307692308 0.0576923076923 0.461538461538 0.0576923076923 0.0769230769231 0.115384615385 0.403846153846 0.0 0.365384615385 0.0769230769231 0.403846153846 0.0769230769231 0.384615384615 0.0384615384615 0.442307692308 0.0769230769231 0.173076923077 0.0 0.326923076923 0.0192307692308 0.230769230769 0.0 0.230769230769 0.0961538461538 0.307692307692 0.0192307692308 0.384615384615 0.0 0.192307692308 0.0961538461538 0.307692307692 0.0 0.423076923077 0.0 0.25 0.115384615385 0.365384615385 0.0 0.269230769231 0.0769230769231 0.211538461538 0.134615384615 0.423076923077 0.0 0.25 0.0769230769231 0.461538461538 0.0 0.269230769231 0.0 0.346153846154 0.192307692308 0.134615384615 0.0 0.442307692308 0.0769230769231 0
0.115384615385 0.0 0.557692307692 0.0 0.230769230769 0.0 0.423076923077 0.134615384615 0.230769230769 0.0384615384615 0.442307692308 0.0384615384615 0.192307692308 0.0576923076923 0.365384615385 0.0576923076923 0.346153846154 0.0 0.365384615385 0.115384615385 0.307692307692 0.0 0.365384615385 0.115384615385 0.230769230769 0.0192307692308 0.384615384615 0.0192307692308 0.211538461538 0.0 0.403846153846 0.0192307692308 0.288461538462 0.0384615384615 0.365384615385 0.0 0.211538461538 0.0769230769231 0.307692307692 0.0 0.326923076923 0.0384615384615 0.403846153846 0.0192307692308 0.423076923077 0.0 0.346153846154 0.115384615385 0.0576923076923 0.230769230769 0.365384615385 0.0192307692308 0.25 0.0 0.596153846154 0.0 0.288461538462 0.0 0.442307692308 0.192307692308 0.0961538461538 0.0576923076923 0.480769230769 0.0769230769231 0
0.173076923077 0.0 0.557692307692 0.0 0.230769230769 0.0 0.480769230769 0.0769230769231 0.211538461538 0.0192307692308 0.423076923077 0.0384615384615 0.230769230769 0.0576923076923 0.269230769231 0.115384615385 0.153846153846 0.0 0.423076923077 0.0576923076923 0.25 0.0 0.288461538462 0.173076923077 0.5 0.0 0.25 0.0769230769231 0.384615384615 0.0 0.326923076923 0.0 0.384615384615 0.0 0.326923076923 0.134615384615 0.288461538462 0.0192307692308 0.346153846154 0.0961538461538 0.423076923077 0.0 0.346153846154 0.0576923076923 0.423076923077 0.0 0.307692307692 0.0769230769231 0.230769230769 0.115384615385 0.538461538462 0.0192307692308 0.269230769231 0.0192307692308 0.653846153846 0.0 0.288461538462 0.0 0.461538461538 0.0961538461538 0.25 0.0 0.461538461538 0.0769230769231 0
0.115384615385 0.0 0.557692307692 0.0 0.230769230769 0.0 0.423076923077 0.134615384615 0.153846153846 0.0 0.288461538462 0.0769230769231 0.0576923076923 0.0192307692308 0.288461538462 0.0384615384615 0.269230769231 0.0 0.307692307692 0.153846153846 0.25 0.0 0.288461538462 0.153846153846 0.288461538462 0.0192307692308 0.346153846154 0.0192307692308 0.326923076923 0.0 0.307692307692 0.0769230769231 0.423076923077 0.0 0.288461538462 0.0576923076923 0.384615384615 0.0 0.288461538462 0.0576923076923 0.403846153846 0.0 0.307692307692 0.115384615385 0.365384615385 0.0 0.307692307692 0.0961538461538 0.0769230769231 0.115384615385 0.307692307692 0.0 0.192307692308 0.0384615384615 0.288461538462 0.0769230769231 0.25 0.0 0.384615384615 0.173076923077 0.0576923076923 0.0 0.557692307692 0.0 0
0.0769230769231 0.0 0.576923076923 0.0 0.230769230769 0.0 0.384615384615 0.173076923077 0.153846153846 0.0384615384615 0.826923076923 0.0192307692308 0.0961538461538 0.0961538461538 0.711538461538 0.0384615384615 0.346153846154 0.0 0.365384615385 0.134615384615 0.326923076923 0.0 0.346153846154 0.153846153846 0.211538461538 0.0 0.423076923077 0.0 0.230769230769 0.0 0.384615384615 0.0384615384615 0.326923076923 0.0 0.326923076923 0.0576923076923 0.25 0.0 0.346153846154 0.0192307692308 0.346153846154 0.0 0.423076923077 0.115384615385 0.346153846154 0.0 0.384615384615 0.153846153846 0.153846153846 0.0961538461538 0.442307692308 0.0 0.230769230769 0.0 0.519230769231 0.0192307692308 0.25 0.0 0.5 0.173076923077 0.115384615385 0.0 0.596153846154 0.0576923076923 0
0.192307692308 0.0 0.557692307692 0.0 0.230769230769 0.0 0.5 0.0576923076923 0.0769230769231 0.0192307692308 0.403846153846 0.0384615384615 0.0961538461538 0.0192307692308 0.307692307692 0.0961538461538 0.211538461538 0.0 0.384615384615 0.0961538461538 0.25 0.0 0.307692307692 0.173076923077 0.173076923077 0.0 0.326923076923 0.115384615385 0.134615384615 0.0 0.326923076923 0.0961538461538 0.288461538462 0.0 0.307692307692 0.173076923077 0.192307692308 0.0 0.365384615385 0.0961538461538 0.307692307692 0.0 0.346153846154 0.134615384615 0.346153846154 0.0 0.269230769231 0.192307692308 0.0769230769231 0.115384615385 0.288461538462 0.0 0.192307692308 0.0192307692308 0.326923076923 0.0384615384615 0.25 0.0 0.384615384615 0.173076923077 0.0769230769231 0.0 0.538461538462 0.0 0
0.0384615384615 0.0 0.538461538462 0.0 0.230769230769 0.0 0.326923076923 0.211538461538 0.25 0.0 0.326923076923 0.0 0.0576923076923 0.192307692308 0.115384615385 0.0 0.326923076923 0.0 0.288461538462 0.192307692308 0.173076923077 0.0 0.403846153846 0.0769230769231 0.192307692308 0.115384615385 0.288461538462 0.0 0.25 0.0192307692308 0.384615384615 0.0 0.269230769231 0.0384615384615 0.384615384615 0.0192307692308 0.115384615385 0.134615384615 0.307692307692 0.0 0.173076923077 0.0 0.384615384615 0.0192307692308 0.25 0.0 0.269230769231 0.134615384615 0.0576923076923 0.192307692308 0.326923076923 0.0 0.230769230769 0.0 0.519230769231 0.0 0.25 0.0 0.384615384615 0.192307692308 0.0576923076923 0.0 0.538461538462 0.0192307692308 0
0.153846153846 0.0 0.557692307692 0.0 0.230769230769 0.0 0.461538461538 0.0961538461538 0.192307692308 0.0769230769231 0.423076923077 0.0961538461538 0.0961538461538 0.0961538461538 0.403846153846 0.0576923076923 0.0961538461538 0.0 0.365384615385 0.0 0.230769230769 0.0 0.211538461538 0.153846153846 0.134615384615 0.0 0.326923076923 0.115384615385 0.0192307692308 0.0 0.384615384615 0.0384615384615 0.384615384615 0.0 0.211538461538 0.134615384615 0.230769230769 0.0 0.288461538462 0.0576923076923 0.365384615385 0.0 0.403846153846 0.0769230769231 0.403846153846 0.0 0.326923076923 0.134615384615 0.269230769231 0.0769230769231 0.403846153846 0.0 0.288461538462 0.0576923076923 0.384615384615 0.0384615384615 0.25 0.0 0.403846153846 0.192307692308 0.134615384615 0.0 0.480769230769 0.0961538461538 0
0.173076923077 0.0 0.557692307692 0.0 0.230769230769 0.0 0.480769230769 0.0769230769231 0.115384615385 0.0 0.384615384615 0.0 0.0769230769231 0.0769230769231 0.230769230769 0.0576923076923 0.173076923077 0.0 0.403846153846 0.0576923076923 0.25 0.0 0.288461538462 0.153846153846 0.230769230769 0.0192307692308 0.269230769231 0.134615384615 0.192307692308 0.0 0.307692307692 0.0961538461538 0.461538461538 0.0192307692308 0.307692307692 0.0961538461538 0.365384615385 0.0 0.403846153846 0.0192307692308 0.326923076923 0.0 0.326923076923 0.134615384615 0.346153846154 0.0 0.269230769231 0.173076923077 0.0576923076923 0.0576923076923 0.576923076923 0.0 0.0769230769231 0.0 0.615384615385 0.0 0.25 0.0 0.365384615385 0.115384615385 0.115384615385 0.0 0.480769230769 0.0 0
0.134615384615 0.0 0.557692307692 0.0 0.230769230769 0.0 0.442307692308 0.115384615385 0.192307692308 0.0 0.442307692308 0.0 0.173076923077 0.0769230769231 0.25 0.0961538461538 0.326923076923 0.0 0.346153846154 0.0961538461538 0.307692307692 0.0 0.326923076923 0.115384615385 0.307692307692 0.0 0.346153846154 0.0961538461538 0.25 0.0 0.365384615385 0.0769230769231 0.403846153846 0.0 0.365384615385 0.0769230769231 0.384615384615 0.0 0.346153846154 0.0961538461538 0.346153846154 0.0 0.384615384615 0.115384615385 0.365384615385 0.0 0.326923076923 0.153846153846 0.0961538461538 0.0769230769231 0.423076923077 0.0384615384615 0.192307692308 0.0 0.403846153846 0.115384615385 0.25 0.0 0.384615384615 0.173076923077 0.0576923076923 0.0 0.557692307692 0.0 0
0.115384615385 0.0 0.557692307692 0.0 0.230769230769 0.0 0.423076923077 0.134615384615 0.25 0.0 0.288461538462 0.0 0.192307692308 0.0961538461538 0.0961538461538 0.0769230769231 0.25 0.0 0.346153846154 0.0961538461538 0.269230769231 0.0 0.288461538462 0.153846153846 0.365384615385 0.0 0.288461538462 0.0384615384615 0.326923076923 0.0 0.288461538462 0.0384615384615 0.288461538462 0.0 0.230769230769 0.0961538461538 0.192307692308 0.0 0.288461538462 0.0384615384615 0.346153846154 0.0961538461538 0.365384615385 0.134615384615 0.326923076923 0.134615384615 0.25 0.192307692308 0.134615384615 0.0769230769231 0.403846153846 0.0384615384615 0.153846153846 0.0192307692308 0.442307692308 0.0384615384615 0.25 0.0 0.403846153846 0.153846153846 0.0769230769231 0.0 0.557692307692 0.0 0
0.0576923076923 0.0 0.634615384615 0.0 0.230769230769 0.0 0.423076923077 0.211538461538 0.346153846154 0.0384615384615 0.538461538462 0.0576923076923 0.173076923077 0.134615384615 0.461538461538 0.0192307692308 0.326923076923 0.0 0.346153846154 0.192307692308 0.269230769231 0.0 0.365384615385 0.173076923077 0.346153846154 0.0 0.403846153846 0.0 0.288461538462 0.0 0.403846153846 0.0 0.365384615385 0.0192307692308 0.384615384615 0.0384615384615 0.25 0.0384615384615 0.403846153846 0.0 0.403846153846 0.0 0.403846153846 0.0769230769231 0.403846153846 0.0 0.365384615385 0.0961538461538 0.211538461538 0.153846153846 0.673076923077 0.0 0.307692307692 0.0384615384615 0.75 0.0192307692308 0.25 0.0 0.480769230769 0.230769230769 0.0769230769231 0.0 0.615384615385 0.0769230769231 0
0.0576923076923 0.0 0.557692307692 0.0 0.230769230769 0.0 0.365384615385 0.192307692308 0.269230769231 0.0192307692308 0.615384615385 0.0384615384615 0.134615384615 0.115384615385 0.5 0.0192307692308 0.403846153846 0.0 0.346153846154 0.211538461538 0.230769230769 0.0 0.480769230769 0.0576923076923 0.230769230769 0.0192307692308 0.384615384615 0.0 0.230769230769 0.0 0.403846153846 0.0 0.403846153846 0.0192307692308 0.480769230769 0.0 0.211538461538 0.230769230769 0.211538461538 0.0384615384615 0.403846153846 0.0 0.423076923077 0.0384615384615 0.423076923077 0.0 0.365384615385 0.0961538461538 0.0769230769231 0.173076923077 0.365384615385 0.0 0.230769230769 0.0 0.538461538462 0.0 0.25 0.0 0.269230769231 0.153846153846 0.0961538461538 0.0 0.365384615385 0.0 0
0.0769230769231 0.0 0.557692307692 0.0 0.230769230769 0.0 0.384615384615 0.173076923077 0.288461538462 0.0384615384615 0.423076923077 0.0384615384615 0.153846153846 0.115384615385 0.346153846154 0.0 0.384615384615 0.0 0.307692307692 0.173076923077 0.307692307692 0.0 0.346153846154 0.115384615385 0.307692307692 0.0 0.403846153846 0.0 0.269230769231 0.0 0.403846153846 0.0 0.365384615385 0.0769230769231 0.346153846154 0.0961538461538 0.25 0.0769230769231 0.403846153846 0.0384615384615 0.346153846154 0.0 0.403846153846 0.0576923076923 0.365384615385 0.0 0.346153846154 0.115384615385 0.211538461538 0.0961538461538 0.423076923077 0.0 0.230769230769 0.0384615384615 0.461538461538 0.0 0.288461538462 0.0 0.442307692308 0.153846153846 0.153846153846 0.0 0.519230769231 0.0384615384615 0
0.153846153846 0.0 0.557692307692 0.0 0.230769230769 0.0 0.461538461538 0.0961538461538 0.115384615385 0.0 0.538461538462 0.0 0.0769230769231 0.0576923076923 0.403846153846 0.0384615384615 0.211538461538 0.0 0.384615384615 0.115384615385 0.269230769231 0.0 0.288461538462 0.211538461538 0.25 0.0 0.365384615385 0.0 0.230769230769 0.0 0.365384615385 0.0 0.307692307692 0.0 0.269230769231 0.0769230769231 0.25 0.0 0.288461538462 0.0576923076923 0.403846153846 0.0 0.384615384615 0.115384615385 0.365384615385 0.0 0.384615384615 0.0961538461538 0.173076923077 0.115384615385 0.403846153846 0.0 0.230769230769 0.0192307692308 0.480769230769 0.0 0.25 0.0 0.461538461538 0.192307692308 0.0576923076923 0.0 0.615384615385 0.0 0
0.25 0.0 0.557692307692 0.0 0.230769230769 0.0 0.557692307692 0.0 0.365384615385 0.0192307692308 0.365384615385 0.0961538461538 0.288461538462 0.0576923076923 0.288461538462 0.0961538461538 0.134615384615 0.0 0.557692307692 0.0 0.230769230769 0.0 0.442307692308 0.115384615385 0.326923076923 0.0 0.269230769231 0.211538461538 0.134615384615 0.0 0.384615384615 0.0769230769231 0.346153846154 0.0769230769231 0.326923076923 0.153846153846 0.326923076923 0.0 0.461538461538 0.0769230769231 0.346153846154 0.0192307692308 0.384615384615 0.0961538461538 0.384615384615 0.0 0.346153846154 0.134615384615 0.211538461538 0.134615384615 0.769230769231 0.0192307692308 0.25 0.0769230769231 0.788461538462 0.0384615384615 0.269230769231 0.0 0.423076923077 0.192307692308 0.0576923076923 0.0 0.596153846154 0.0192307692308 0
0.0961538461538 0.0 0.557692307692 0.0 0.230769230769 0.0 0.403846153846 0.153846153846 0.211538461538 0.0576923076923 0.461538461538 0.0769230769231 0.115384615385 0.0769230769231 0.461538461538 0.0192307692308 0.307692307692 0.0 0.307692307692 0.0769230769231 0.269230769231 0.0769230769231 0.153846153846 0.153846153846 0.153846153846 0.0769230769231 0.365384615385 0.0 0.230769230769 0.0 0.423076923077 0.0192307692308 0.288461538462 0.0961538461538 0.115384615385 0.0961538461538 0.25 0.0 0.307692307692 0.0 0.403846153846 0.0 0.403846153846 0.0576923076923 0.403846153846 0.0 0.365384615385 0.0769230769231 0.173076923077 0.153846153846 0.480769230769 0.0 0.230769230769 0.0769230769231 0.538461538462 0.0 0.269230769231 0.0 0.461538461538 0.173076923077 0.134615384615 0.0 0.557692307692 0.0576923076923 0
0.173076923077 0.0 0.557692307692 0.0 0.230769230769 0.0192307692308 0.423076923077 0.115384615385 0.326923076923 0.0961538461538 0.692307692308 0.0961538461538 0.173076923077 0.153846153846 0.673076923077 0.0384615384615 0.326923076923 0.0769230769231 0.365384615385 0.134615384615 0.326923076923 0.0769230769231 0.326923076923 0.173076923077 0.153846153846 0.0384615384615 0.423076923077 0.0 0.230769230769 0.0 0.403846153846 0.0576923076923 0.25 0.0 0.403846153846 0.0384615384615 0.153846153846 0.0384615384615 0.403846153846 0.0 0.326923076923 0.0 0.538461538462 0.0961538461538 0.365384615385 0.0192307692308 0.423076923077 0.173076923077 0.153846153846 0.211538461538 0.538461538462 0.0 0.269230769231 0.0769230769231 0.634615384615 0.0192307692308 0.269230769231 0.0 0.5 0.192307692308 0.153846153846 0.0 0.576923076923 0.0961538461538 0
0.115384615385 0.0576923076923 0.576923076923 0.0384615384615 0.153846153846 0.0384615384615 0.5 0.115384615385 0.25 0.0 0.557692307692 0.0 0.0961538461538 0.134615384615 0.423076923077 0.0 0.326923076923 0.0 0.442307692308 0.0 0.211538461538 0.0769230769231 0.365384615385 0.0 0.192307692308 0.211538461538 0.307692307692 0.0 0.25 0.115384615385 0.384615384615 0.0 0.365384615385 0.134615384615 0.384615384615 0.0 0.326923076923 0.134615384615 0.384615384615 0.0 0.25 0.0 0.403846153846 0.0 0.25 0.0 0.365384615385 0.0384615384615 0.115384615385 0.173076923077 0.442307692308 0.0 0.230769230769 0.0192307692308 0.596153846154 0.0 0.269230769231 0.0 0.365384615385 0.192307692308 0.134615384615 0.0192307692308 0.423076923077 0.0961538461538 0
0.134615384615 0.0 0.557692307692 0.0 0.230769230769 0.0 0.442307692308 0.115384615385 0.288461538462 0.0384615384615 0.519230769231 0.0576923076923 0.134615384615 0.153846153846 0.384615384615 0.0384615384615 0.288461538462 0.0 0.403846153846 0.115384615385 0.326923076923 0.0 0.326923076923 0.173076923077 0.269230769231 0.0 0.365384615385 0.0192307692308 0.269230769231 0.0 0.326923076923 0.0384615384615 0.269230769231 0.0192307692308 0.384615384615 0.0384615384615 0.134615384615 0.0769230769231 0.365384615385 0.0 0.384615384615 0.0 0.365384615385 0.173076923077 0.288461538462 0.0 0.423076923077 0.115384615385 0.134615384615 0.153846153846 0.653846153846 0.0 0.288461538462 0.0192307692308 0.711538461538 0.0384615384615 0.25 0.0 0.384615384615 0.173076923077 0.0576923076923 0.0 0.557692307692 0.0 0
0.115384615385 0.0 0.653846153846 0.0192307692308 0.173076923077 0.0384615384615 0.480769230769 0.134615384615 0.192307692308 0.0384615384615 0.673076923077 0.0 0.0576923076923 0.153846153846 0.519230769231 0.0 0.269230769231 0.0576923076923 0.288461538462 0.0576923076923 0.230769230769 0.0192307692308 0.384615384615 0.0 0.230769230769 0.0192307692308 0.384615384615 0.0 0.230769230769 0.0 0.403846153846 0.0 0.346153846154 0.0961538461538 0.384615384615 0.0 0.269230769231 0.134615384615 0.326923076923 0.0 0.269230769231 0.0 0.403846153846 0.0384615384615 0.288461538462 0.0 0.346153846154 0.0961538461538 0.0961538461538 0.230769230769 0.346153846154 0.0 0.25 0.0384615384615 0.538461538462 0.0 0.25 0.0 0.365384615385 0.192307692308 0.115384615385 0.0384615384615 0.384615384615 0.115384615385 0
0.153846153846 0.0 0.557692307692 0.0192307692308 0.230769230769 0.0 0.442307692308 0.115384615385 0.288461538462 0.115384615385 0.461538461538 0.0576923076923 0.192307692308 0.134615384615 0.442307692308 0.0 0.365384615385 0.0 0.288461538462 0.134615384615 0.346153846154 0.0 0.269230769231 0.134615384615 0.192307692308 0.0576923076923 0.326923076923 0.0 0.230769230769 0.0 0.384615384615 0.0 0.25 0.0 0.25 0.115384615385 0.115384615385 0.0 0.346153846154 0.0 0.461538461538 0.0 0.384615384615 0.0576923076923 0.403846153846 0.0 0.403846153846 0.0384615384615 0.211538461538 0.153846153846 0.653846153846 0.0 0.269230769231 0.115384615385 0.634615384615 0.0384615384615 0.346153846154 0.0 0.557692307692 0.211538461538 0.173076923077 0.0192307692308 0.653846153846 0.0769230769231 0
0.230769230769 0.0 0.557692307692 0.0 0.230769230769 0.0 0.538461538462 0.0192307692308 0.134615384615 0.0 0.326923076923 0.0961538461538 0.134615384615 0.0 0.269230769231 0.134615384615 0.346153846154 0.0 0.269230769231 0.192307692308 0.326923076923 0.0 0.230769230769 0.230769230769 0.461538461538 0.0 0.288461538462 0.153846153846 0.307692307692 0.0 0.403846153846 0.0384615384615 0.403846153846 0.0192307692308 0.307692307692 0.0961538461538 0.307692307692 0.0 0.403846153846 0.0192307692308 0.346153846154 0.0 0.384615384615 0.0961538461538 0.365384615385 0.0 0.326923076923 0.153846153846 0.115384615385 0.153846153846 0.596153846154 0.0192307692308 0.230769230769 0.0384615384615 0.653846153846 0.0576923076923 0.25 0.0 0.365384615385 0.192307692308 0.0384615384615 0.0 0.557692307692 0.0 0
0.192307692308 0.0 0.557692307692 0.0 0.230769230769 0.0 0.5 0.0576923076923 0.0384615384615 0.0 0.307692307692 0.0 0.0961538461538 0.0 0.173076923077 0.0961538461538 0.115384615385 0.0 0.461538461538 0.0384615384615 0.230769230769 0.0 0.307692307692 0.173076923077 0.384615384615 0.0 0.211538461538 0.25 0.211538461538 0.0 0.346153846154 0.115384615385 0.365384615385 0.0 0.25 0.0192307692308 0.423076923077 0.0192307692308 0.115384615385 0.134615384615 0.307692307692 0.0 0.326923076923 0.0961538461538 0.326923076923 0.0 0.269230769231 0.153846153846 0.0576923076923 0.115384615385 0.211538461538 0.0 0.153846153846 0.0 0.307692307692 0.0 0.25 0.0 0.384615384615 0.173076923077 0.0769230769231 0.0 0.538461538462 0.0 0
0.173076923077 0.0 0.557692307692 0.0 0.230769230769 0.0 0.480769230769 0.0769230769231 0.173076923077 0.0192307692308 0.423076923077 0.0961538461538 0.173076923077 0.0 0.403846153846 0.134615384615 0.384615384615 0.0576923076923 0.596153846154 0.269230769231 0.230769230769 0.0769230769231 0.692307692308 0.153846153846 0.346153846154 0.0 0.403846153846 0.115384615385 0.307692307692 0.0 0.403846153846 0.0961538461538 0.269230769231 0.0 0.480769230769 0.0 0.173076923077 0.0576923076923 0.423076923077 0.0 0.384615384615 0.0 0.461538461538 0.0769230769231 0.384615384615 0.0 0.423076923077 0.115384615385 0.192307692308 0.173076923077 0.480769230769 0.0 0.269230769231 0.0769230769231 0.538461538462 0.0192307692308 0.288461538462 0.0 0.461538461538 0.173076923077 0.115384615385 0.0 0.596153846154 0.0384615384615 0
0.115384615385 0.0 0.480769230769 0.0576923076923 0.230769230769 0.0 0.326923076923 0.192307692308 0.269230769231 0.0384615384615 0.519230769231 0.0 0.134615384615 0.153846153846 0.384615384615 0.0 0.25 0.0 0.25 0.0769230769231 0.115384615385 0.0576923076923 0.25 0.0 0.461538461538 0.0384615384615 0.211538461538 0.0 0.461538461538 0.0 0.25 0.0 0.442307692308 0.0 0.211538461538 0.0192307692308 0.365384615385 0.0192307692308 0.211538461538 0.0 0.442307692308 0.0 0.269230769231 0.0576923076923 0.403846153846 0.0 0.269230769231 0.0576923076923 0.115384615385 0.192307692308 0.384615384615 0.0 0.230769230769 0.0384615384615 0.519230769231 0.0 0.269230769231 0.0 0.442307692308 0.192307692308 0.0961538461538 0.0 0.576923076923 0.0384615384615 0
0.230769230769 0.0192307692308 0.423076923077 0.0961538461538 0.230769230769 0.0576923076923 0.307692307692 0.173076923077 0.25 0.134615384615 0.538461538462 0.0 0.153846153846 0.211538461538 0.442307692308 0.0 0.365384615385 0.0 0.326923076923 0.0769230769231 0.269230769231 0.0 0.384615384615 0.0192307692308 0.211538461538 0.0192307692308 0.384615384615 0.0 0.230769230769 0.0 0.384615384615 0.0192307692308 0.25 0.0 0.423076923077 0.0192307692308 0.153846153846 0.0576923076923 0.384615384615 0.0 0.423076923077 0.0 0.423076923077 0.0769230769231 0.403846153846 0.0 0.403846153846 0.0769230769231 0.192307692308 0.211538461538 0.538461538462 0.0 0.288461538462 0.0961538461538 0.634615384615 0.0 0.269230769231 0.0 0.461538461538 0.211538461538 0.173076923077 0.0 0.519230769231 0.134615384615 0
0.153846153846 0.0 0.557692307692 0.0 0.230769230769 0.0 0.461538461538 0.0961538461538 0.269230769231 0.0 0.634615384615 0.0 0.115384615385 0.173076923077 0.384615384615 0.0384615384615 0.211538461538 0.0384615384615 0.423076923077 0.0769230769231 0.25 0.0 0.423076923077 0.0961538461538 0.307692307692 0.0384615384615 0.25 0.0769230769231 0.25 0.0 0.326923076923 0.0384615384615 0.307692307692 0.0192307692308 0.538461538462 0.134615384615 0.211538461538 0.0192307692308 0.596153846154 0.0769230769231 0.384615384615 0.0 0.326923076923 0.0961538461538 0.365384615385 0.0 0.307692307692 0.115384615385 0.115384615385 0.134615384615 0.403846153846 0.0 0.230769230769 0.0 0.519230769231 0.0 0.25 0.0 0.519230769231 0.134615384615 0.115384615385 0.0 0.615384615385 0.0 0
0.0576923076923 0.0 0.326923076923 0.0192307692308 0.230769230769 0.0 0.115384615385 0.211538461538 0.25 0.0192307692308 0.384615384615 0.0 0.115384615385 0.115384615385 0.269230769231 0.0 0.307692307692 0.0 0.288461538462 0.134615384615 0.173076923077 0.0 0.384615384615 0.0384615384615 0.153846153846 0.0576923076923 0.326923076923 0.0 0.230769230769 0.0 0.346153846154 0.0384615384615 0.365384615385 0.0192307692308 0.25 0.0769230769231 0.25 0.0192307692308 0.326923076923 0.0 0.211538461538 0.0 0.326923076923 0.0384615384615 0.326923076923 0.0 0.173076923077 0.173076923077 0.173076923077 0.115384615385 0.576923076923 0.0 0.230769230769 0.0192307692308 0.653846153846 0.0 0.269230769231 0.0 0.403846153846 0.230769230769 0.0769230769231 0.0 0.557692307692 0.0576923076923 0
0.0769230769231 0.0 0.557692307692 0.0 0.230769230769 0.0 0.384615384615 0.173076923077 0.269230769231 0.0192307692308 0.442307692308 0.0384615384615 0.192307692308 0.0769230769231 0.346153846154 0.0192307692308 0.346153846154 0.0 0.269230769231 0.153846153846 0.269230769231 0.0 0.307692307692 0.0961538461538 0.307692307692 0.0192307692308 0.326923076923 0.0192307692308 0.288461538462 0.0192307692308 0.307692307692 0.0384615384615 0.307692307692 0.0384615384615 0.288461538462 0.0576923076923 0.173076923077 0.0769230769231 0.288461538462 0.0192307692308 0.288461538462 0.0 0.307692307692 0.0192307692308 0.365384615385 0.0 0.192307692308 0.134615384615 0.0961538461538 0.173076923077 0.442307692308 0.0192307692308 0.230769230769 0.0 0.615384615385 0.0 0.25 0.0 0.288461538462 0.211538461538 0.0384615384615 0.0 0.480769230769 0.0 0
0.230769230769 0.0 0.557692307692 0.0 0.230769230769 0.0 0.538461538462 0.0192307692308 0.307692307692 0.0 0.480769230769 0.0769230769231 0.25 0.115384615385 0.25 0.153846153846 0.173076923077 0.0 0.461538461538 0.0384615384615 0.25 0.0 0.346153846154 0.134615384615 0.442307692308 0.0 0.25 0.153846153846 0.307692307692 0.0 0.346153846154 0.0576923076923 0.346153846154 0.0 0.346153846154 0.153846153846 0.326923076923 0.0 0.326923076923 0.153846153846 0.269230769231 0.0 0.442307692308 0.173076923077 0.211538461538 0.0 0.461538461538 0.153846153846 0.192307692308 0.0576923076923 0.480769230769 0.211538461538 0.0192307692308 0.0 0.673076923077 0.0576923076923 0.25 0.0 0.480769230769 0.0769230769231 0.153846153846 0.0 0.557692307692 0.0 0
0.0576923076923 0.0 0.557692307692 0.0 0.230769230769 0.0 0.365384615385 0.192307692308 0.230769230769 0.0384615384615 0.134615384615 0.0 0.0961538461538 0.134615384615 0.0192307692308 0.0 0.384615384615 0.0384615384615 0.173076923077 0.192307692308 0.269230769231 0.0 0.326923076923 0.0576923076923 0.346153846154 0.0769230769231 0.269230769231 0.0769230769231 0.326923076923 0.0 0.403846153846 0.0192307692308 0.326923076923 0.0 0.326923076923 0.115384615385 0.211538461538 0.0 0.403846153846 0.0384615384615 0.346153846154 0.0 0.423076923077 0.0961538461538 0.384615384615 0.0 0.346153846154 0.153846153846 0.173076923077 0.153846153846 0.461538461538 0.0 0.230769230769 0.0961538461538 0.461538461538 0.0384615384615 0.25 0.0 0.442307692308 0.211538461538 0.0769230769231 0.0 0.576923076923 0.0769230769231 0
0.0961538461538 0.0 0.557692307692 0.0 0.230769230769 0.0 0.403846153846 0.153846153846 0.25 0.0 0.307692307692 0.0 0.115384615385 0.153846153846 0.0961538461538 0.0384615384615 0.288461538462 0.0 0.288461538462 0.0961538461538 0.269230769231 0.0 0.269230769231 0.115384615385 0.269230769231 0.0 0.230769230769 0.0576923076923 0.173076923077 0.0 0.288461538462 0.0 0.384615384615 0.0 0.211538461538 0.0769230769231 0.230769230769 0.0576923076923 0.192307692308 0.0384615384615 0.365384615385 0.0 0.307692307692 0.0576923076923 0.403846153846 0.0 0.230769230769 0.134615384615 0.0961538461538 0.211538461538 0.173076923077 0.0576923076923 0.230769230769 0.0 0.423076923077 0.0 0.25 0.0384615384615 0.365384615385 0.153846153846 0.115384615385 0.0 0.557692307692 0.0 0
0.0576923076923 0.0 0.557692307692 0.0 0.230769230769 0.0 0.365384615385 0.192307692308 0.25 0.0192307692308 0.615384615385 0.0192307692308 0.0769230769231 0.173076923077 0.423076923077 0.0192307692308 0.230769230769 0.0 0.326923076923 0.115384615385 0.115384615385 0.0 0.403846153846 0.0384615384615 0.230769230769 0.0192307692308 0.365384615385 0.0192307692308 0.211538461538 0.0 0.403846153846 0.0 0.307692307692 0.134615384615 0.423076923077 0.0192307692308 0.269230769231 0.115384615385 0.442307692308 0.0 0.288461538462 0.0 0.403846153846 0.0576923076923 0.288461538462 0.0 0.365384615385 0.0769230769231 0.0961538461538 0.153846153846 0.403846153846 0.0 0.230769230769 0.0 0.557692307692 0.0 0.288461538462 0.0192307692308 0.365384615385 0.115384615385 0.153846153846 0.0384615384615 0.403846153846 0.0384615384615 0
0.115384615385 0.0 0.557692307692 0.0 0.230769230769 0.0 0.423076923077 0.134615384615 0.192307692308 0.0192307692308 0.461538461538 0.0 0.0769230769231 0.115384615385 0.326923076923 0.0192307692308 0.346153846154 0.0 0.269230769231 0.134615384615 0.326923076923 0.0 0.25 0.153846153846 0.288461538462 0.0 0.403846153846 0.0192307692308 0.269230769231 0.0 0.384615384615 0.0384615384615 0.269230769231 0.0192307692308 0.365384615385 0.0576923076923 0.134615384615 0.0769230769231 0.365384615385 0.0 0.365384615385 0.0 0.365384615385 0.134615384615 0.346153846154 0.0 0.346153846154 0.134615384615 0.115384615385 0.192307692308 0.5 0.0 0.230769230769 0.0384615384615 0.615384615385 0.0 0.269230769231 0.0 0.442307692308 0.211538461538 0.0576923076923 0.0 0.615384615385 0.0192307692308 0
0.0192307692308 0.0 0.557692307692 0.0 0.230769230769 0.0 0.326923076923 0.230769230769 0.153846153846 0.0384615384615 0.461538461538 0.0384615384615 0.0769230769231 0.0769230769231 0.403846153846 0.0192307692308 0.384615384615 0.0 0.192307692308 0.0961538461538 0.326923076923 0.0384615384615 0.134615384615 0.115384615385 0.192307692308 0.0384615384615 0.365384615385 0.0 0.230769230769 0.0 0.365384615385 0.0384615384615 0.326923076923 0.0 0.134615384615 0.153846153846 0.153846153846 0.0 0.269230769231 0.0 0.307692307692 0.0 0.365384615385 0.0961538461538 0.365384615385 0.0 0.269230769231 0.192307692308 0.153846153846 0.115384615385 0.576923076923 0.0 0.230769230769 0.0192307692308 0.615384615385 0.0192307692308 0.25 0.0 0.365384615385 0.192307692308 0.0576923076923 0.0 0.538461538462 0.0 0
0.115384615385 0.0 0.480769230769 0.0384615384615 0.230769230769 0.0 0.326923076923 0.173076923077 0.288461538462 0.0384615384615 0.519230769231 0.0384615384615 0.0769230769231 0.192307692308 0.384615384615 0.0 0.326923076923 0.0 0.173076923077 0.0769230769231 0.230769230769 0.0192307692308 0.173076923077 0.0384615384615 0.461538461538 0.0384615384615 0.288461538462 0.0 0.442307692308 0.0192307692308 0.307692307692 0.0 0.5 0.0 0.25 0.0192307692308 0.423076923077 0.0192307692308 0.25 0.0 0.403846153846 0.0 0.307692307692 0.0192307692308 0.403846153846 0.0 0.269230769231 0.0576923076923 0.230769230769 0.153846153846 0.346153846154 0.0 0.230769230769 0.115384615385 0.365384615385 0.0 0.25 0.0 0.442307692308 0.192307692308 0.173076923077 0.0 0.480769230769 0.134615384615 0
0.0769230769231 0.0 0.557692307692 0.0 0.230769230769 0.0 0.384615384615 0.173076923077 0.288461538462 0.0192307692308 0.576923076923 0.0384615384615 0.0961538461538 0.153846153846 0.423076923077 0.0192307692308 0.326923076923 0.0 0.192307692308 0.134615384615 0.230769230769 0.0 0.25 0.0769230769231 0.25 0.0 0.326923076923 0.0 0.25 0.0 0.288461538462 0.0384615384615 0.326923076923 0.0384615384615 0.25 0.0384615384615 0.25 0.0384615384615 0.288461538462 0.0 0.365384615385 0.0 0.25 0.115384615385 0.365384615385 0.0 0.211538461538 0.134615384615 0.0961538461538 0.153846153846 0.538461538462 0.0 0.230769230769 0.0 0.673076923077 0.0 0.25 0.0 0.192307692308 0.115384615385 0.134615384615 0.0 0.269230769231 0.0 0
0.173076923077 0.0 0.557692307692 0.0 0.230769230769 0.0 0.480769230769 0.0769230769231 0.269230769231 0.0192307692308 0.480769230769 0.0192307692308 0.230769230769 0.0769230769231 0.326923076923 0.0769230769231 0.269230769231 0.0 0.384615384615 0.134615384615 0.269230769231 0.0 0.346153846154 0.173076923077 0.346153846154 0.0 0.346153846154 0.0961538461538 0.269230769231 0.0 0.384615384615 0.0384615384615 0.307692307692 0.0576923076923 0.326923076923 0.0769230769231 0.153846153846 0.0961538461538 0.346153846154 0.0192307692308 0.442307692308 0.0 0.384615384615 0.0961538461538 0.384615384615 0.0 0.403846153846 0.0576923076923 0.0961538461538 0.173076923077 0.442307692308 0.0 0.230769230769 0.0 0.596153846154 0.0 0.307692307692 0.0192307692308 0.576923076923 0.173076923077 0.192307692308 0.0192307692308 0.673076923077 0.0769230769231 0
0.173076923077 0.0 0.557692307692 0.0 0.230769230769 0.0 0.480769230769 0.0769230769231 0.153846153846 0.0384615384615 0.365384615385 0.0384615384615 0.173076923077 0.0576923076923 0.230769230769 0.115384615385 0.134615384615 0.0 0.461538461538 0.0769230769231 0.25 0.0 0.307692307692 0.230769230769 0.230769230769 0.0 0.307692307692 0.0961538461538 0.153846153846 0.0 0.346153846154 0.0576923076923 0.326923076923 0.0 0.25 0.153846153846 0.192307692308 0.0 0.326923076923 0.0576923076923 0.307692307692 0.0 0.365384615385 0.134615384615 0.346153846154 0.0 0.288461538462 0.192307692308 0.0961538461538 0.134615384615 0.480769230769 0.0384615384615 0.173076923077 0.0384615384615 0.538461538462 0.0576923076923 0.25 0.0 0.346153846154 0.211538461538 0.0192307692308 0.0 0.557692307692 0.0 0
0.173076923077 0.0 0.557692307692 0.0 0.230769230769 0.0 0.480769230769 0.0769230769231 0.153846153846 0.0 0.557692307692 0.0 0.173076923077 0.0384615384615 0.403846153846 0.0769230769231 0.230769230769 0.0 0.384615384615 0.0576923076923 0.269230769231 0.0 0.307692307692 0.115384615385 0.288461538462 0.0 0.288461538462 0.0769230769231 0.230769230769 0.0 0.307692307692 0.0576923076923 0.423076923077 0.0 0.25 0.0769230769231 0.365384615385 0.0384615384615 0.192307692308 0.0769230769231 0.307692307692 0.0 0.307692307692 0.115384615385 0.346153846154 0.0 0.230769230769 0.192307692308 0.115384615385 0.0384615384615 0.423076923077 0.0 0.115384615385 0.0 0.423076923077 0.0 0.25 0.0 0.423076923077 0.134615384615 0.115384615385 0.0 0.538461538462 0.0 0
0.173076923077 0.0 0.557692307692 0.0 0.230769230769 0.0 0.480769230769 0.0769230769231 0.25 0.0576923076923 0.557692307692 0.0769230769231 0.134615384615 0.153846153846 0.423076923077 0.0769230769231 0.307692307692 0.0 0.423076923077 0.115384615385 0.288461538462 0.0 0.403846153846 0.134615384615 0.211538461538 0.0192307692308 0.423076923077 0.0192307692308 0.230769230769 0.0 0.403846153846 0.0384615384615 0.384615384615 0.0 0.384615384615 0.115384615385 0.307692307692 0.0192307692308 0.384615384615 0.0961538461538 0.365384615385 0.0 0.423076923077 0.115384615385 0.365384615385 0.0 0.384615384615 0.134615384615 0.115384615385 0.211538461538 0.403846153846 0.0 0.230769230769 0.115384615385 0.442307692308 0.0576923076923 0.269230769231 0.0 0.461538461538 0.192307692308 0.0961538461538 0.0 0.596153846154 0.0384615384615 0
0.115384615385 0.0 0.557692307692 0.0 0.230769230769 0.0 0.423076923077 0.134615384615 0.25 0.0 0.615384615385 0.0192307692308 0.115384615385 0.134615384615 0.423076923077 0.0384615384615 0.269230769231 0.0 0.384615384615 0.115384615385 0.25 0.0 0.365384615385 0.115384615385 0.211538461538 0.0192307692308 0.423076923077 0.0192307692308 0.230769230769 0.0 0.403846153846 0.0384615384615 0.25 0.0192307692308 0.307692307692 0.134615384615 0.0769230769231 0.0192307692308 0.442307692308 0.0 0.307692307692 0.0 0.442307692308 0.134615384615 0.346153846154 0.0 0.365384615385 0.192307692308 0.173076923077 0.153846153846 0.634615384615 0.0384615384615 0.25 0.0384615384615 0.711538461538 0.0384615384615 0.25 0.0 0.403846153846 0.173076923077 0.0576923076923 0.0 0.557692307692 0.0192307692308 0
0.192307692308 0.0 0.557692307692 0.0 0.230769230769 0.0 0.5 0.0576923076923 0.0769230769231 0.0 0.288461538462 0.0 0.134615384615 0.0192307692308 0.134615384615 0.115384615385 0.0961538461538 0.0 0.384615384615 0.0 0.230769230769 0.0 0.230769230769 0.153846153846 0.25 0.0 0.211538461538 0.134615384615 0.115384615385 0.0 0.307692307692 0.0384615384615 0.384615384615 0.0 0.230769230769 0.192307692308 0.211538461538 0.0 0.365384615385 0.0576923076923 0.346153846154 0.0 0.307692307692 0.153846153846 0.307692307692 0.0 0.307692307692 0.153846153846 0.0384615384615 0.134615384615 0.384615384615 0.0 0.134615384615 0.0 0.5 0.0 0.25 0.0 0.346153846154 0.211538461538 0.0384615384615 0.0 0.538461538462 0.0 0
0.115384615385 0.0 0.557692307692 0.0 0.230769230769 0.0 0.423076923077 0.134615384615 0.211538461538 0.0576923076923 0.442307692308 0.0769230769231 0.0769230769231 0.134615384615 0.346153846154 0.0576923076923 0.25 0.0 0.326923076923 0.134615384615 0.288461538462 0.0 0.25 0.192307692308 0.173076923077 0.0 0.403846153846 0.0384615384615 0.230769230769 0.0 0.307692307692 0.115384615385 0.25 0.0 0.25 0.153846153846 0.0769230769231 0.0 0.403846153846 0.0 0.288461538462 0.0 0.365384615385 0.134615384615 0.288461538462 0.0 0.326923076923 0.173076923077 0.153846153846 0.115384615385 0.326923076923 0.0576923076923 0.230769230769 0.0 0.423076923077 0.0576923076923 0.25 0.0 0.403846153846 0.153846153846 0.0769230769231 0.0 0.557692307692 0.0 0
0.115384615385 0.0 0.557692307692 0.0 0.230769230769 0.0 0.423076923077 0.134615384615 0.173076923077 0.0769230769231 0.461538461538 0.0769230769231 0.0961538461538 0.0769230769231 0.461538461538 0.0384615384615 0.346153846154 0.0 0.346153846154 0.173076923077 0.288461538462 0.0 0.365384615385 0.153846153846 0.269230769231 0.0 0.442307692308 0.0 0.230769230769 0.0 0.442307692308 0.0 0.269230769231 0.0384615384615 0.25 0.0384615384615 0.153846153846 0.0769230769231 0.25 0.0 0.423076923077 0.0 0.442307692308 0.0576923076923 0.403846153846 0.0 0.423076923077 0.0576923076923 0.0961538461538 0.173076923077 0.403846153846 0.0 0.230769230769 0.0 0.557692307692 0.0 0.25 0.0192307692308 0.653846153846 0.134615384615 0.0961538461538 0.0576923076923 0.673076923077 0.0576923076923 0
0.0384615384615 0.0 0.557692307692 0.0 0.230769230769 0.0 0.346153846154 0.211538461538 0.192307692308 0.0576923076923 0.576923076923 0.0192307692308 0.0384615384615 0.173076923077 0.442307692308 0.0192307692308 0.384615384615 0.0192307692308 0.192307692308 0.230769230769 0.269230769231 0.0 0.307692307692 0.134615384615 0.192307692308 0.0384615384615 0.365384615385 0.0 0.230769230769 0.0 0.384615384615 0.0192307692308 0.25 0.0 0.346153846154 0.0384615384615 0.153846153846 0.0769230769231 0.25 0.0576923076923 0.25 0.0 0.423076923077 0.115384615385 0.307692307692 0.0 0.326923076923 0.211538461538 0.0576923076923 0.173076923077 0.403846153846 0.0 0.173076923077 0.0384615384615 0.480769230769 0.0192307692308 0.25 0.0 0.442307692308 0.153846153846 0.0961538461538 0.0 0.557692307692 0.0 0
0.192307692308 0.0 0.557692307692 0.0 0.230769230769 0.0 0.5 0.0576923076923 0.0961538461538 0.0 0.326923076923 0.0 0.115384615385 0.0769230769231 0.115384615385 0.115384615385 0.153846153846 0.0 0.403846153846 0.0192307692308 0.230769230769 0.0 0.288461538462 0.115384615385 0.403846153846 0.0 0.153846153846 0.134615384615 0.230769230769 0.0 0.288461538462 0.0 0.403846153846 0.0 0.211538461538 0.153846153846 0.307692307692 0.0 0.269230769231 0.0961538461538 0.326923076923 0.0 0.269230769231 0.134615384615 0.326923076923 0.0 0.230769230769 0.173076923077 0.0961538461538 0.115384615385 0.326923076923 0.0 0.173076923077 0.0 0.423076923077 0.0192307692308 0.25 0.0 0.365384615385 0.192307692308 0.0576923076923 0.0 0.538461538462 0.0 0
0.115384615385 0.0 0.557692307692 0.0384615384615 0.230769230769 0.0 0.403846153846 0.173076923077 0.25 0.0384615384615 0.576923076923 0.0 0.115384615385 0.153846153846 0.442307692308 0.0 0.403846153846 0.0 0.269230769231 0.153846153846 0.326923076923 0.0 0.307692307692 0.0961538461538 0.173076923077 0.0576923076923 0.346153846154 0.0 0.230769230769 0.0 0.384615384615 0.0192307692308 0.403846153846 0.0 0.307692307692 0.0 0.230769230769 0.115384615385 0.192307692308 0.0 0.288461538462 0.0 0.365384615385 0.115384615385 0.307692307692 0.0 0.307692307692 0.173076923077 0.153846153846 0.211538461538 0.326923076923 0.0384615384615 0.25 0.0384615384615 0.519230769231 0.0 0.269230769231 0.0 0.442307692308 0.173076923077 0.134615384615 0.0 0.538461538462 0.0576923076923 0
0.0192307692308 0.0 0.557692307692 0.0 0.230769230769 0.0 0.326923076923 0.230769230769 0.134615384615 0.0576923076923 0.519230769231 0.0961538461538 0.0576923076923 0.0384615384615 0.576923076923 0.0192307692308 0.423076923077 0.0769230769231 0.346153846154 0.153846153846 0.365384615385 0.0192307692308 0.5 0.0576923076923 0.288461538462 0.0 0.384615384615 0.115384615385 0.307692307692 0.0 0.326923076923 0.173076923077 0.365384615385 0.0 0.461538461538 0.0 0.307692307692 0.0192307692308 0.423076923077 0.0192307692308 0.326923076923 0.0 0.346153846154 0.173076923077 0.25 0.0 0.384615384615 0.115384615385 0.173076923077 0.134615384615 0.442307692308 0.0576923076923 0.269230769231 0.0769230769231 0.403846153846 0.134615384615 0.25 0.0 0.442307692308 0.115384615385 0.115384615385 0.0 0.557692307692 0.0 0
0.0384615384615 0.0 0.557692307692 0.0 0.230769230769 0.0 0.346153846154 0.211538461538 0.25 0.0 0.557692307692 0.0 0.0961538461538 0.153846153846 0.346153846154 0.0 0.269230769231 0.0 0.25 0.192307692308 0.153846153846 0.0 0.326923076923 0.0961538461538 0.173076923077 0.0384615384615 0.269230769231 0.0 0.230769230769 0.0 0.269230769231 0.0384615384615 0.365384615385 0.134615384615 0.346153846154 0.0192307692308 0.288461538462 0.153846153846 0.346153846154 0.0 0.25 0.0 0.269230769231 0.0192307692308 0.288461538462 0.0 0.192307692308 0.0769230769231 0.0 0.25 0.384615384615 0.0 0.230769230769 0.0 0.615384615385 0.0 0.25 0.0 0.442307692308 0.134615384615 0.115384615385 0.0 0.519230769231 0.0 0
0.115384615385 0.0 0.557692307692 0.0 0.230769230769 0.0 0.423076923077 0.134615384615 0.173076923077 0.0576923076923 0.75 0.0576923076923 0.115384615385 0.0576923076923 0.75 0.0384615384615 0.326923076923 0.0 0.384615384615 0.0961538461538 0.365384615385 0.0 0.307692307692 0.173076923077 0.192307692308 0.0192307692308 0.423076923077 0.0 0.230769230769 0.0 0.403846153846 0.0384615384615 0.346153846154 0.0 0.346153846154 0.0769230769231 0.307692307692 0.0 0.346153846154 0.0769230769231 0.346153846154 0.0 0.384615384615 0.134615384615 0.307692307692 0.0 0.384615384615 0.134615384615 0.153846153846 0.0961538461538 0.5 0.0192307692308 0.134615384615 0.0576923076923 0.557692307692 0.0 0.288461538462 0.0 0.480769230769 0.192307692308 0.192307692308 0.0 0.519230769231 0.115384615385 0
0.230769230769 0.0 0.557692307692 0.0 0.230769230769 0.0 0.538461538462 0.0192307692308 0.115384615385 0.0192307692308 0.576923076923 0.0769230769231 0.134615384615 0.0 0.557692307692 0.0961538461538 0.153846153846 0.0 0.326923076923 0.0384615384615 0.288461538462 0.0 0.153846153846 0.192307692308 0.211538461538 0.0 0.442307692308 0.115384615385 0.115384615385 0.0 0.519230769231 0.0384615384615 0.326923076923 0.0576923076923 0.25 0.153846153846 0.173076923077 0.0384615384615 0.403846153846 0.0192307692308 0.153846153846 0.0 0.5 0.0576923076923 0.230769230769 0.0 0.384615384615 0.153846153846 0.153846153846 0.173076923077 0.576923076923 0.0 0.230769230769 0.0961538461538 0.596153846154 0.0192307692308 0.25 0.0 0.519230769231 0.192307692308 0.0961538461538 0.0 0.634615384615 0.0576923076923 0
0.134615384615 0.0 0.557692307692 0.0 0.230769230769 0.0 0.442307692308 0.115384615385 0.153846153846 0.0384615384615 0.75 0.0384615384615 0.0961538461538 0.0576923076923 0.692307692308 0.0192307692308 0.346153846154 0.0 0.423076923077 0.115384615385 0.192307692308 0.0384615384615 0.442307692308 0.0576923076923 0.230769230769 0.0 0.442307692308 0.0 0.230769230769 0.0 0.423076923077 0.0192307692308 0.365384615385 0.134615384615 0.461538461538 0.0 0.307692307692 0.153846153846 0.442307692308 0.0 0.423076923077 0.0 0.423076923077 0.0961538461538 0.384615384615 0.0 0.423076923077 0.0769230769231 0.211538461538 0.0961538461538 0.519230769231 0.0 0.25 0.0192307692308 0.576923076923 0.0 0.307692307692 0.0384615384615 0.596153846154 0.115384615385 0.25 0.0384615384615 0.596153846154 0.0961538461538 0
0.153846153846 0.0 0.557692307692 0.0 0.230769230769 0.0 0.461538461538 0.0961538461538 0.192307692308 0.0576923076923 0.596153846154 0.0576923076923 0.153846153846 0.0576923076923 0.557692307692 0.0769230769231 0.346153846154 0.0384615384615 0.403846153846 0.115384615385 0.288461538462 0.0 0.480769230769 0.0576923076923 0.346153846154 0.0384615384615 0.365384615385 0.0769230769231 0.326923076923 0.0192307692308 0.384615384615 0.0769230769231 0.403846153846 0.0192307692308 0.5 0.153846153846 0.326923076923 0.0 0.576923076923 0.0769230769231 0.365384615385 0.0 0.442307692308 0.0769230769231 0.403846153846 0.0 0.346153846154 0.153846153846 0.0769230769231 0.0384615384615 0.557692307692 0.0192307692308 0.0576923076923 0.0384615384615 0.519230769231 0.0576923076923 0.269230769231 0.0 0.365384615385 0.211538461538 0.0384615384615 0.0 0.557692307692 0.0 0
0.25 0.0 0.557692307692 0.0 0.230769230769 0.0 0.557692307692 0.0 0.134615384615 0.0384615384615 0.5 0.115384615385 0.173076923077 0.0192307692308 0.423076923077 0.173076923077 0.153846153846 0.0 0.596153846154 0.0769230769231 0.25 0.0 0.461538461538 0.192307692308 0.269230769231 0.0 0.403846153846 0.0769230769231 0.230769230769 0.0 0.403846153846 0.0769230769231 0.326923076923 0.0 0.403846153846 0.115384615385 0.326923076923 0.0192307692308 0.326923076923 0.173076923077 0.365384615385 0.0 0.403846153846 0.134615384615 0.346153846154 0.0 0.384615384615 0.134615384615 0.0961538461538 0.153846153846 0.326923076923 0.0384615384615 0.134615384615 0.0576923076923 0.442307692308 0.0192307692308 0.269230769231 0.0 0.480769230769 0.192307692308 0.0961538461538 0.0 0.615384615385 0.0576923076923 0
0.0576923076923 0.0 0.557692307692 0.0 0.230769230769 0.0 0.365384615385 0.192307692308 0.230769230769 0.0769230769231 0.480769230769 0.0769230769231 0.115384615385 0.0961538461538 0.480769230769 0.0384615384615 0.384615384615 0.0 0.326923076923 0.211538461538 0.25 0.0 0.423076923077 0.115384615385 0.173076923077 0.0384615384615 0.384615384615 0.0 0.230769230769 0.0 0.384615384615 0.0384615384615 0.25 0.0 0.403846153846 0.0384615384615 0.173076923077 0.0192307692308 0.423076923077 0.0 0.384615384615 0.0 0.365384615385 0.0961538461538 0.365384615385 0.0 0.346153846154 0.115384615385 0.115384615385 0.211538461538 0.461538461538 0.0 0.211538461538 0.0769230769231 0.576923076923 0.0 0.25 0.0 0.480769230769 0.211538461538 0.115384615385 0.0 0.576923076923 0.0961538461538 0
0.115384615385 0.0 0.615384615385 0.0961538461538 0.230769230769 0.0 0.461538461538 0.230769230769 0.288461538462 0.115384615385 0.519230769231 0.0384615384615 0.153846153846 0.192307692308 0.461538461538 0.0 0.384615384615 0.0 0.423076923077 0.153846153846 0.307692307692 0.0 0.461538461538 0.115384615385 0.230769230769 0.0 0.461538461538 0.0 0.230769230769 0.0 0.423076923077 0.0384615384615 0.25 0.134615384615 0.519230769231 0.0192307692308 0.230769230769 0.134615384615 0.5 0.0384615384615 0.461538461538 0.0 0.442307692308 0.0192307692308 0.442307692308 0.0 0.423076923077 0.0384615384615 0.269230769231 0.115384615385 0.403846153846 0.0 0.288461538462 0.0769230769231 0.423076923077 0.0 0.288461538462 0.0 0.461538461538 0.173076923077 0.192307692308 0.0 0.519230769231 0.0961538461538 0
0.0769230769231 0.0 0.615384615385 0.0384615384615 0.230769230769 0.0 0.423076923077 0.211538461538 0.192307692308 0.0576923076923 0.461538461538 0.0384615384615 0.0769230769231 0.0961538461538 0.461538461538 0.0 0.384615384615 0.0384615384615 0.346153846154 0.0961538461538 0.365384615385 0.0192307692308 0.365384615385 0.0769230769231 0.269230769231 0.0 0.423076923077 0.0192307692308 0.288461538462 0.0 0.365384615385 0.0576923076923 0.288461538462 0.0 0.384615384615 0.0576923076923 0.211538461538 0.0 0.423076923077 0.0192307692308 0.326923076923 0.0 0.403846153846 0.115384615385 0.365384615385 0.0 0.326923076923 0.173076923077 0.0961538461538 0.192307692308 0.480769230769 0.0 0.211538461538 0.0576923076923 0.576923076923 0.0192307692308 0.269230769231 0.0 0.423076923077 0.211538461538 0.0961538461538 0.0 0.557692307692 0.0576923076923 0
0.153846153846 0.0 0.557692307692 0.0 0.230769230769 0.0 0.461538461538 0.0961538461538 0.269230769231 0.0192307692308 0.346153846154 0.0769230769231 0.173076923077 0.0384615384615 0.346153846154 0.0192307692308 0.326923076923 0.0 0.307692307692 0.134615384615 0.326923076923 0.0 0.269230769231 0.153846153846 0.365384615385 0.0 0.307692307692 0.0 0.326923076923 0.0 0.307692307692 0.0 0.442307692308 0.0 0.211538461538 0.0961538461538 0.307692307692 0.0 0.307692307692 0.0 0.403846153846 0.0 0.346153846154 0.0576923076923 0.403846153846 0.0192307692308 0.269230769231 0.0961538461538 0.192307692308 0.134615384615 0.461538461538 0.0 0.25 0.0384615384615 0.557692307692 0.0 0.307692307692 0.0 0.442307692308 0.211538461538 0.0961538461538 0.0 0.615384615385 0.0192307692308 0
0.0961538461538 0.0 0.557692307692 0.0 0.230769230769 0.0 0.403846153846 0.153846153846 0.153846153846 0.0576923076923 0.173076923077 0.0769230769231 0.0576923076923 0.0384615384615 0.269230769231 0.0 0.269230769231 0.0 0.269230769231 0.173076923077 0.153846153846 0.0 0.346153846154 0.0769230769231 0.25 0.0 0.365384615385 0.0 0.230769230769 0.0 0.365384615385 0.0 0.461538461538 0.0384615384615 0.442307692308 0.0 0.288461538462 0.173076923077 0.288461538462 0.0 0.326923076923 0.0 0.365384615385 0.0384615384615 0.403846153846 0.0 0.25 0.134615384615 0.0961538461538 0.153846153846 0.25 0.0 0.230769230769 0.0 0.403846153846 0.0 0.25 0.0 0.307692307692 0.115384615385 0.115384615385 0.0 0.423076923077 0.0 0
0.153846153846 0.0 0.557692307692 0.0 0.230769230769 0.0 0.461538461538 0.0961538461538 0.0961538461538 0.0576923076923 0.230769230769 0.0576923076923 0.0961538461538 0.0384615384615 0.211538461538 0.0769230769231 0.173076923077 0.0 0.365384615385 0.0576923076923 0.269230769231 0.0 0.230769230769 0.173076923077 0.25 0.0 0.269230769231 0.0961538461538 0.134615384615 0.0 0.346153846154 0.0192307692308 0.365384615385 0.0 0.25 0.134615384615 0.307692307692 0.0 0.269230769231 0.0961538461538 0.384615384615 0.0 0.346153846154 0.0576923076923 0.403846153846 0.0 0.288461538462 0.115384615385 0.192307692308 0.115384615385 0.615384615385 0.0 0.230769230769 0.0384615384615 0.653846153846 0.0 0.269230769231 0.0 0.519230769231 0.211538461538 0.0769230769231 0.0 0.673076923077 0.0384615384615 0
0.0769230769231 0.0 0.557692307692 0.0 0.230769230769 0.0 0.384615384615 0.173076923077 0.134615384615 0.0192307692308 0.538461538462 0.0192307692308 0.0961538461538 0.0576923076923 0.442307692308 0.0384615384615 0.326923076923 0.0 0.307692307692 0.153846153846 0.307692307692 0.0 0.288461538462 0.153846153846 0.326923076923 0.0 0.365384615385 0.0576923076923 0.326923076923 0.0 0.326923076923 0.0769230769231 0.423076923077 0.0 0.307692307692 0.0576923076923 0.346153846154 0.0576923076923 0.230769230769 0.0769230769231 0.326923076923 0.0 0.365384615385 0.192307692308 0.269230769231 0.0 0.384615384615 0.153846153846 0.173076923077 0.0769230769231 0.423076923077 0.0576923076923 0.153846153846 0.0 0.519230769231 0.0 0.25 0.0 0.403846153846 0.153846153846 0.0769230769231 0.0 0.557692307692 0.0 0
0.211538461538 0.0 0.557692307692 0.0 0.230769230769 0.0 0.519230769231 0.0384615384615 0.288461538462 0.0 0.307692307692 0.0 0.307692307692 0.0769230769231 0.0769230769231 0.134615384615 0.115384615385 0.0 0.442307692308 0.0192307692308 0.230769230769 0.0 0.288461538462 0.153846153846 0.230769230769 0.0 0.153846153846 0.153846153846 0.0769230769231 0.0 0.269230769231 0.0384615384615 0.326923076923 0.0 0.269230769231 0.153846153846 0.307692307692 0.0 0.25 0.173076923077 0.307692307692 0.0 0.25 0.192307692308 0.25 0.0 0.269230769231 0.153846153846 0.0961538461538 0.0 0.423076923077 0.0192307692308 0.115384615385 0.0 0.307692307692 0.0769230769231 0.25 0.0 0.423076923077 0.134615384615 0.0961538461538 0.0 0.557692307692 0.0 0
0.115384615385 0.0 0.596153846154 0.0384615384615 0.230769230769 0.0 0.442307692308 0.173076923077 0.25 0.0384615384615 0.576923076923 0.0 0.0576923076923 0.211538461538 0.384615384615 0.0 0.326923076923 0.0384615384615 0.25 0.0961538461538 0.230769230769 0.0 0.384615384615 0.0 0.211538461538 0.0961538461538 0.326923076923 0.0 0.269230769231 0.0 0.403846153846 0.0 0.423076923077 0.0576923076923 0.403846153846 0.0 0.384615384615 0.0769230769231 0.365384615385 0.0192307692308 0.192307692308 0.0 0.442307692308 0.0 0.230769230769 0.0 0.384615384615 0.0576923076923 0.153846153846 0.173076923077 0.461538461538 0.0 0.25 0.0576923076923 0.557692307692 0.0 0.25 0.0 0.5 0.173076923077 0.134615384615 0.0 0.576923076923 0.0769230769231 0
0.134615384615 0.0 0.557692307692 0.0 0.230769230769 0.0 0.442307692308 0.115384615385 0.173076923077 0.0 0.557692307692 0.0961538461538 0.115384615385 0.0192307692308 0.5 0.0961538461538 0.346153846154 0.0 0.461538461538 0.153846153846 0.307692307692 0.0 0.442307692308 0.153846153846 0.365384615385 0.0 0.423076923077 0.0576923076923 0.326923076923 0.0 0.423076923077 0.0576923076923 0.365384615385 0.0769230769231 0.365384615385 0.0576923076923 0.288461538462 0.0576923076923 0.403846153846 0.0192307692308 0.384615384615 0.0 0.442307692308 0.115384615385 0.346153846154 0.0 0.442307692308 0.115384615385 0.192307692308 0.173076923077 0.461538461538 0.0 0.25 0.0769230769231 0.538461538462 0.0 0.269230769231 0.0 0.480769230769 0.192307692308 0.153846153846 0.0 0.557692307692 0.0961538461538 0
0.0192307692308 0.0 0.538461538462 0.0 0.230769230769 0.0 0.307692307692 0.230769230769 0.25 0.0 0.403846153846 0.0 0.115384615385 0.134615384615 0.25 0.0 0.346153846154 0.0 0.134615384615 0.192307692308 0.153846153846 0.0 0.288461538462 0.0192307692308 0.423076923077 0.0384615384615 0.230769230769 0.0 0.403846153846 0.0192307692308 0.230769230769 0.0 0.346153846154 0.0576923076923 0.326923076923 0.0384615384615 0.365384615385 0.0384615384615 0.307692307692 0.0769230769231 0.384615384615 0.0384615384615 0.269230769231 0.0192307692308 0.442307692308 0.0 0.25 0.0769230769231 0.0384615384615 0.134615384615 0.269230769231 0.0 0.153846153846 0.0 0.403846153846 0.0 0.25 0.0 0.365384615385 0.211538461538 0.0 0.0384615384615 0.519230769231 0.0 0
0.173076923077 0.0 0.557692307692 0.0 0.230769230769 0.0 0.480769230769 0.0769230769231 0.153846153846 0.0 0.173076923077 0.0 0.115384615385 0.0769230769231 0.0192307692308 0.0769230769231 0.0384615384615 0.0 0.365384615385 0.0 0.230769230769 0.0 0.153846153846 0.211538461538 0.192307692308 0.0192307692308 0.153846153846 0.134615384615 0.0961538461538 0.0 0.25 0.0576923076923 0.288461538462 0.0 0.192307692308 0.0769230769231 0.25 0.0192307692308 0.153846153846 0.0961538461538 0.288461538462 0.0 0.25 0.134615384615 0.269230769231 0.0 0.211538461538 0.134615384615 0.0576923076923 0.0769230769231 0.384615384615 0.0 0.115384615385 0.0 0.461538461538 0.0 0.307692307692 0.0384615384615 0.384615384615 0.173076923077 0.192307692308 0.0 0.557692307692 0.0192307692308 0
0.0961538461538 0.0 0.557692307692 0.0 0.230769230769 0.0 0.403846153846 0.153846153846 0.0 0.0 0.192307692308 0.0 0.0384615384615 0.0 0.134615384615 0.0576923076923 0.230769230769 0.0 0.307692307692 0.0576923076923 0.269230769231 0.0 0.230769230769 0.115384615385 0.346153846154 0.0192307692308 0.153846153846 0.173076923077 0.230769230769 0.0 0.269230769231 0.0769230769231 0.346153846154 0.0 0.288461538462 0.0576923076923 0.365384615385 0.0384615384615 0.153846153846 0.153846153846 0.25 0.0 0.269230769231 0.134615384615 0.192307692308 0.0 0.288461538462 0.0961538461538 0.0576923076923 0.0961538461538 0.192307692308 0.0576923076923 0.0769230769231 0.0 0.326923076923 0.0 0.25 0.0 0.365384615385 0.192307692308 0.0384615384615 0.0 0.557692307692 0.0 0
0.25 0.0 0.557692307692 0.0 0.230769230769 0.0 0.557692307692 0.0 0.0769230769231 0.0192307692308 0.538461538462 0.0576923076923 0.230769230769 0.0 0.384615384615 0.211538461538 0.0576923076923 0.0 0.557692307692 0.0 0.230769230769 0.0 0.365384615385 0.192307692308 0.192307692308 0.0 0.365384615385 0.173076923077 0.0576923076923 0.0 0.480769230769 0.0576923076923 0.403846153846 0.0 0.230769230769 0.192307692308 0.288461538462 0.0 0.307692307692 0.0961538461538 0.230769230769 0.0 0.442307692308 0.0769230769231 0.25 0.0 0.384615384615 0.134615384615 0.153846153846 0.134615384615 0.423076923077 0.0 0.192307692308 0.0576923076923 0.5 0.0 0.25 0.0 0.538461538462 0.211538461538 0.115384615385 0.0 0.634615384615 0.115384615385 0
0.0961538461538 0.0 0.557692307692 0.0 0.230769230769 0.0 0.403846153846 0.153846153846 0.230769230769 0.0192307692308 0.442307692308 0.0192307692308 0.134615384615 0.115384615385 0.288461538462 0.0384615384615 0.346153846154 0.0 0.269230769231 0.153846153846 0.307692307692 0.0 0.269230769231 0.134615384615 0.269230769231 0.0 0.307692307692 0.0 0.288461538462 0.0 0.25 0.0576923076923 0.288461538462 0.0384615384615 0.326923076923 0.0961538461538 0.211538461538 0.0 0.442307692308 0.0 0.346153846154 0.0 0.288461538462 0.134615384615 0.346153846154 0.0 0.25 0.153846153846 0.134615384615 0.115384615385 0.403846153846 0.0 0.230769230769 0.0384615384615 0.403846153846 0.0576923076923 0.25 0.0 0.365384615385 0.173076923077 0.0769230769231 0.0 0.519230769231 0.0 0
0.173076923077 0.0 0.557692307692 0.0192307692308 0.230769230769 0.0 0.461538461538 0.115384615385 0.25 0.0 0.538461538462 0.0384615384615 0.173076923077 0.0192307692308 0.557692307692 0.0 0.269230769231 0.0384615384615 0.384615384615 0.115384615385 0.25 0.0 0.365384615385 0.153846153846 0.153846153846 0.0 0.942307692308 0.0 0.0576923076923 0.0769230769231 0.846153846154 0.0192307692308 0.25 0.0 0.423076923077 0.0384615384615 0.173076923077 0.0192307692308 0.423076923077 0.0 0.326923076923 0.0 0.365384615385 0.153846153846 0.307692307692 0.0 0.346153846154 0.153846153846 0.192307692308 0.192307692308 0.615384615385 0.0 0.25 0.0961538461538 0.692307692308 0.0 0.288461538462 0.0 0.423076923077 0.192307692308 0.134615384615 0.0 0.538461538462 0.0576923076923 0
0.0576923076923 0.0 0.557692307692 0.0 0.230769230769 0.0 0.365384615385 0.192307692308 0.173076923077 0.0576923076923 0.326923076923 0.0769230769231 0.0384615384615 0.0769230769231 0.365384615385 0.0 0.423076923077 0.0 0.307692307692 0.0961538461538 0.384615384615 0.0 0.307692307692 0.0769230769231 0.211538461538 0.0192307692308 0.346153846154 0.0 0.230769230769 0.0 0.346153846154 0.0192307692308 0.326923076923 0.0 0.192307692308 0.153846153846 0.153846153846 0.0 0.307692307692 0.0384615384615 0.326923076923 0.0 0.365384615385 0.0769230769231 0.346153846154 0.0 0.307692307692 0.115384615385 0.173076923077 0.153846153846 0.326923076923 0.0 0.25 0.0384615384615 0.442307692308 0.0 0.307692307692 0.0 0.384615384615 0.153846153846 0.153846153846 0.0 0.5 0.0192307692308 0
0.25 0.0 0.557692307692 0.0 0.230769230769 0.0 0.557692307692 0.0 0.192307692308 0.0 0.5 0.0 0.211538461538 0.0576923076923 0.326923076923 0.115384615385 0.211538461538 0.0384615384615 0.5 0.0 0.288461538462 0.0384615384615 0.384615384615 0.115384615385 0.307692307692 0.0 0.230769230769 0.0961538461538 0.173076923077 0.0384615384615 0.25 0.0384615384615 0.403846153846 0.0 0.307692307692 0.0769230769231 0.326923076923 0.0 0.326923076923 0.0576923076923 0.384615384615 0.0 0.211538461538 0.115384615385 0.346153846154 0.0 0.211538461538 0.115384615385 0.192307692308 0.0769230769231 0.423076923077 0.0 0.230769230769 0.0 0.480769230769 0.0192307692308 0.25 0.0 0.384615384615 0.173076923077 0.0576923076923 0.0 0.557692307692 0.0 0
0.115384615385 0.0 0.557692307692 0.0 0.230769230769 0.0 0.423076923077 0.134615384615 0.25 0.0384615384615 0.346153846154 0.0384615384615 0.115384615385 0.115384615385 0.269230769231 0.0 0.25 0.0 0.269230769231 0.173076923077 0.269230769231 0.0 0.211538461538 0.211538461538 0.230769230769 0.0384615384615 0.326923076923 0.0 0.230769230769 0.0 0.365384615385 0.0 0.25 0.0 0.230769230769 0.0961538461538 0.0961538461538 0.0384615384615 0.288461538462 0.0 0.288461538462 0.0 0.365384615385 0.0192307692308 0.346153846154 0.0 0.269230769231 0.0961538461538 0.0384615384615 0.134615384615 0.346153846154 0.0 0.153846153846 0.0 0.461538461538 0.0 0.25 0.0 0.307692307692 0.173076923077 0.0576923076923 0.0 0.461538461538 0.0 0
0.25 0.0 0.557692307692 0.0 0.230769230769 0.0 0.557692307692 0.0 0.192307692308 0.0192307692308 0.442307692308 0.0961538461538 0.25 0.0192307692308 0.307692307692 0.192307692308 0.153846153846 0.0 0.596153846154 0.0192307692308 0.269230769231 0.0 0.442307692308 0.153846153846 0.346153846154 0.0 0.307692307692 0.192307692308 0.25 0.0 0.365384615385 0.115384615385 0.346153846154 0.0 0.384615384615 0.211538461538 0.307692307692 0.0192307692308 0.346153846154 0.230769230769 0.307692307692 0.0 0.403846153846 0.153846153846 0.307692307692 0.0 0.365384615385 0.192307692308 0.0769230769231 0.115384615385 0.423076923077 0.0961538461538 0.115384615385 0.0384615384615 0.480769230769 0.0769230769231 0.25 0.0 0.423076923077 0.134615384615 0.0961538461538 0.0 0.557692307692 0.0 0
0.153846153846 0.0 0.557692307692 0.0 0.230769230769 0.0 0.461538461538 0.0961538461538 0.307692307692 0.0192307692308 0.653846153846 0.0192307692308 0.192307692308 0.134615384615 0.480769230769 0.0576923076923 0.269230769231 0.0 0.384615384615 0.153846153846 0.269230769231 0.0 0.346153846154 0.173076923077 0.192307692308 0.0384615384615 0.384615384615 0.0 0.230769230769 0.0 0.403846153846 0.0192307692308 0.307692307692 0.0 0.403846153846 0.0384615384615 0.25 0.0384615384615 0.346153846154 0.0576923076923 0.230769230769 0.0 0.403846153846 0.0384615384615 0.269230769231 0.0 0.326923076923 0.115384615385 0.0961538461538 0.115384615385 0.538461538462 0.0192307692308 0.134615384615 0.0384615384615 0.615384615385 0.0192307692308 0.269230769231 0.0 0.403846153846 0.211538461538 0.0769230769231 0.0 0.557692307692 0.0384615384615 0
0.153846153846 0.0 0.557692307692 0.0 0.230769230769 0.0 0.461538461538 0.0961538461538 0.134615384615 0.0 0.326923076923 0.0384615384615 0.134615384615 0.0192307692308 0.230769230769 0.0769230769231 0.288461538462 0.0 0.423076923077 0.0769230769231 0.288461538462 0.0192307692308 0.346153846154 0.115384615385 0.442307692308 0.0 0.192307692308 0.0961538461538 0.365384615385 0.0 0.230769230769 0.0576923076923 0.384615384615 0.0 0.25 0.173076923077 0.211538461538 0.0384615384615 0.307692307692 0.0769230769231 0.365384615385 0.0 0.269230769231 0.173076923077 0.288461538462 0.0 0.307692307692 0.115384615385 0.0384615384615 0.134615384615 0.423076923077 0.0 0.153846153846 0.0 0.538461538462 0.0 0.25 0.0 0.423076923077 0.153846153846 0.0769230769231 0.0192307692308 0.538461538462 0.0 0
0.230769230769 0.0 0.557692307692 0.0 0.230769230769 0.0 0.538461538462 0.0192307692308 0.307692307692 0.0 0.538461538462 0.0192307692308 0.326923076923 0.0961538461538 0.269230769231 0.153846153846 0.115384615385 0.0 0.480769230769 0.0 0.230769230769 0.0 0.346153846154 0.134615384615 0.173076923077 0.0384615384615 0.211538461538 0.173076923077 0.0576923076923 0.0 0.384615384615 0.0384615384615 0.365384615385 0.0 0.384615384615 0.115384615385 0.326923076923 0.0 0.384615384615 0.115384615385 0.346153846154 0.0 0.346153846154 0.0961538461538 0.384615384615 0.0 0.269230769231 0.153846153846 0.0769230769231 0.0769230769231 0.557692307692 0.115384615385 0.0769230769231 0.0 0.653846153846 0.0576923076923 0.25 0.0 0.288461538462 0.192307692308 0.0576923076923 0.0 0.461538461538 0.0 0
0.173076923077 0.0 0.557692307692 0.0 0.230769230769 0.0 0.480769230769 0.0769230769231 0.288461538462 0.0192307692308 0.365384615385 0.0576923076923 0.173076923077 0.0961538461538 0.269230769231 0.0384615384615 0.25 0.0 0.25 0.173076923077 0.230769230769 0.0 0.230769230769 0.173076923077 0.25 0.0 0.288461538462 0.0 0.230769230769 0.0 0.288461538462 0.0 0.25 0.0 0.230769230769 0.0576923076923 0.115384615385 0.0576923076923 0.211538461538 0.0 0.288461538462 0.0 0.288461538462 0.0384615384615 0.307692307692 0.0 0.230769230769 0.0769230769231 0.153846153846 0.153846153846 0.423076923077 0.0 0.230769230769 0.0384615384615 0.519230769231 0.0 0.25 0.0 0.461538461538 0.153846153846 0.134615384615 0.0 0.538461538462 0.0576923076923 0
0.0769230769231 0.0 0.5 0.0 0.230769230769 0.0 0.307692307692 0.192307692308 0.25 0.0576923076923 0.365384615385 0.0384615384615 0.0576923076923 0.173076923077 0.269230769231 0.0 0.269230769231 0.0 0.230769230769 0.134615384615 0.134615384615 0.0769230769231 0.173076923077 0.0961538461538 0.269230769231 0.0769230769231 0.288461538462 0.0 0.307692307692 0.0 0.365384615385 0.0 0.403846153846 0.0769230769231 0.211538461538 0.0384615384615 0.403846153846 0.0192307692308 0.288461538462 0.0192307692308 0.326923076923 0.0 0.365384615385 0.115384615385 0.307692307692 0.0 0.346153846154 0.134615384615 0.173076923077 0.153846153846 0.365384615385 0.0 0.230769230769 0.0576923076923 0.461538461538 0.0 0.288461538462 0.0 0.384615384615 0.192307692308 0.115384615385 0.0 0.519230769231 0.0384615384615 0
0.153846153846 0.0 0.557692307692 0.0 0.230769230769 0.0 0.461538461538 0.0961538461538 0.230769230769 0.0769230769231 0.538461538462 0.0769230769231 0.211538461538 0.0576923076923 0.519230769231 0.0961538461538 0.192307692308 0.0 0.480769230769 0.0961538461538 0.269230769231 0.0 0.365384615385 0.192307692308 0.346153846154 0.0 0.384615384615 0.0576923076923 0.346153846154 0.0 0.346153846154 0.0961538461538 0.384615384615 0.0 0.423076923077 0.153846153846 0.288461538462 0.0192307692308 0.442307692308 0.0961538461538 0.384615384615 0.0 0.365384615385 0.134615384615 0.346153846154 0.0 0.365384615385 0.115384615385 0.192307692308 0.0961538461538 0.538461538462 0.0 0.173076923077 0.115384615385 0.480769230769 0.0384615384615 0.269230769231 0.0 0.403846153846 0.173076923077 0.115384615385 0.0 0.519230769231 0.0384615384615 0
0.0576923076923 0.0 0.557692307692 0.0 0.230769230769 0.0 0.365384615385 0.192307692308 0.153846153846 0.0576923076923 0.423076923077 0.0961538461538 0.0576923076923 0.0384615384615 0.480769230769 0.0 0.307692307692 0.0 0.326923076923 0.0576923076923 0.173076923077 0.0576923076923 0.307692307692 0.0192307692308 0.192307692308 0.0 0.461538461538 0.0 0.230769230769 0.0 0.403846153846 0.0576923076923 0.346153846154 0.0576923076923 0.403846153846 0.0 0.25 0.115384615385 0.346153846154 0.0 0.365384615385 0.0 0.403846153846 0.115384615385 0.346153846154 0.0 0.384615384615 0.115384615385 0.192307692308 0.173076923077 0.423076923077 0.0384615384615 0.269230769231 0.0384615384615 0.538461538462 0.0 0.269230769231 0.0 0.596153846154 0.134615384615 0.134615384615 0.0 0.692307692308 0.0192307692308 0
0.25 0.0 0.557692307692 0.0 0.230769230769 0.0 0.557692307692 0.0 0.115384615385 0.0 0.384615384615 0.0 0.230769230769 0.0 0.25 0.134615384615 0.173076923077 0.0 0.557692307692 0.0 0.230769230769 0.0 0.480769230769 0.0769230769231 0.173076923077 0.0 0.115384615385 0.0384615384615 0.153846153846 0.0 0.0961538461538 0.0576923076923 0.134615384615 0.0 0.326923076923 0.0 0.230769230769 0.0 0.211538461538 0.115384615385 0.346153846154 0.0576923076923 0.173076923077 0.153846153846 0.230769230769 0.0 0.384615384615 0.0 0.115384615385 0.0576923076923 0.115384615385 0.0769230769231 0.0576923076923 0.0 0.25 0.0 0.25 0.0 0.519230769231 0.0384615384615 0.192307692308 0.0 0.557692307692 0.0 1
0.25 0.0 0.115384615385 0.0 0.25 0.0192307692308 0.0384615384615 0.0576923076923 0.25 0.0 0.557692307692 0.0 0.173076923077 0.0576923076923 0.5 0.0 0.0 0.0 0.0 0.0 0.0 0.0 0.0 0.0 0.153846153846 0.0 0.25 0.0 0.0961538461538 0.0576923076923 0.173076923077 0.0 0.153846153846 0.0961538461538 0.211538461538 0.0 0.230769230769 0.0 0.307692307692 0.0 0.0 0.0 0.0 0.0 0.0 0.0 0.0 0.0 0.230769230769 0.0192307692308 0.538461538462 0.0 0.230769230769 0.0 0.557692307692 0.0 0.211538461538 0.0576923076923 0.173076923077 0.0192307692308 0.211538461538 0.0 0.25 0.0 1
0.25 0.0 0.557692307692 0.0 0.230769230769 0.0 0.557692307692 0.0 0.0961538461538 0.0 0.461538461538 0.0 0.230769230769 0.0 0.307692307692 0.153846153846 0.211538461538 0.0 0.557692307692 0.0 0.230769230769 0.0 0.519230769231 0.0384615384615 0.288461538462 0.0 0.307692307692 0.134615384615 0.173076923077 0.0 0.384615384615 0.0576923076923 0.134615384615 0.0 0.461538461538 0.0384615384615 0.25 0.0 0.307692307692 0.173076923077 0.25 0.0 0.442307692308 0.115384615385 0.115384615385 0.0 0.557692307692 0.0 0.288461538462 0.0 0.384615384615 0.153846153846 0.153846153846 0.0 0.480769230769 0.0384615384615 0.25 0.0 0.557692307692 0.0 0.230769230769 0.0 0.557692307692 0.0 1
0.25 0.0 0.557692307692 0.0 0.230769230769 0.0 0.557692307692 0.0 0.153846153846 0.0 0.519230769231 0.134615384615 0.211538461538 0.0 0.403846153846 0.211538461538 0.0576923076923 0.0 0.557692307692 0.0 0.230769230769 0.0 0.365384615385 0.192307692308 0.25 0.0 0.307692307692 0.173076923077 0.0769230769231 0.0 0.461538461538 0.0 0.211538461538 0.0 0.346153846154 0.0961538461538 0.25 0.0 0.269230769231 0.173076923077 0.25 0.0 0.519230769231 0.0384615384615 0.192307692308 0.0 0.557692307692 0.0 0.346153846154 0.0 0.384615384615 0.173076923077 0.211538461538 0.0 0.480769230769 0.0576923076923 0.25 0.0 0.557692307692 0.0 0.230769230769 0.0 0.557692307692 0.0 1
0.25 0.0 0.557692307692 0.0 0.230769230769 0.0 0.557692307692 0.0 0.0769230769231 0.0 0.442307692308 0.0 0.230769230769 0.0 0.269230769231 0.173076923077 0.211538461538 0.0 0.557692307692 0.0 0.230769230769 0.0 0.519230769231 0.0384615384615 0.288461538462 0.0 0.307692307692 0.153846153846 0.153846153846 0.0 0.403846153846 0.0576923076923 0.211538461538 0.0 0.442307692308 0.0769230769231 0.269230769231 0.0384615384615 0.269230769231 0.192307692308 0.25 0.0 0.480769230769 0.0769230769231 0.153846153846 0.0 0.557692307692 0.0 0.269230769231 0.0 0.25 0.192307692308 0.0961538461538 0.0 0.384615384615 0.0384615384615 0.25 0.0 0.557692307692 0.0 0.230769230769 0.0 0.557692307692 0.0 1
0.25 0.0 0.557692307692 0.0 0.230769230769 0.0 0.557692307692 0.0 0.134615384615 0.0 0.423076923077 0.0576923076923 0.269230769231 0.0 0.25 0.211538461538 0.153846153846 0.0 0.557692307692 0.0 0.230769230769 0.0 0.461538461538 0.0961538461538 0.25 0.0 0.326923076923 0.211538461538 0.134615384615 0.0 0.403846153846 0.115384615385 0.173076923077 0.0 0.423076923077 0.0769230769231 0.269230769231 0.0 0.288461538462 0.211538461538 0.25 0.0 0.5 0.0576923076923 0.173076923077 0.0 0.557692307692 0.0 0.326923076923 0.0 0.346153846154 0.173076923077 0.211538461538 0.0 0.423076923077 0.0769230769231 0.25 0.0 0.557692307692 0.0 0.230769230769 0.0 0.557692307692 0.0 1
0.25 0.0 0.557692307692 0.0 0.230769230769 0.0 0.557692307692 0.0 0.230769230769 0.0 0.403846153846 0.0576923076923 0.288461538462 0.0 0.307692307692 0.134615384615 0.115384615385 0.0 0.557692307692 0.0 0.230769230769 0.0 0.423076923077 0.134615384615 0.269230769231 0.0 0.25 0.134615384615 0.115384615385 0.0 0.365384615385 0.0192307692308 0.115384615385 0.0 0.269230769231 0.0 0.230769230769 0.0 0.134615384615 0.134615384615 0.25 0.0 0.480769230769 0.0769230769231 0.153846153846 0.0 0.557692307692 0.0 0.25 0.0192307692308 0.346153846154 0.134615384615 0.115384615385 0.0 0.480769230769 0.0 0.25 0.0 0.557692307692 0.0 0.230769230769 0.0 0.557692307692 0.0 1
0.25 0.0 0.557692307692 0.0 0.230769230769 0.0 0.557692307692 0.0 0.0576923076923 0.0 0.442307692308 0.0 0.230769230769 0.0 0.230769230769 0.192307692308 0.173076923077 0.0 0.557692307692 0.0 0.230769230769 0.0 0.480769230769 0.0769230769231 0.269230769231 0.0 0.288461538462 0.192307692308 0.115384615385 0.0 0.403846153846 0.0576923076923 0.153846153846 0.0 0.403846153846 0.0576923076923 0.269230769231 0.0 0.25 0.192307692308 0.25 0.0 0.461538461538 0.0961538461538 0.134615384615 0.0 0.557692307692 0.0 0.288461538462 0.0 0.403846153846 0.173076923077 0.173076923077 0.0 0.461538461538 0.0769230769231 0.25 0.0 0.557692307692 0.0 0.230769230769 0.0 0.557692307692 0.0 1
0.25 0.0 0.557692307692 0.0 0.230769230769 0.0 0.557692307692 0.0 0.211538461538 0.0 0.346153846154 0.0192307692308 0.307692307692 0.0 0.192307692308 0.173076923077 0.0961538461538 0.0 0.557692307692 0.0 0.230769230769 0.0 0.403846153846 0.153846153846 0.25 0.0 0.365384615385 0.153846153846 0.0961538461538 0.0 0.5 0.0 0.269230769231 0.0 0.346153846154 0.115384615385 0.288461538462 0.0 0.288461538462 0.173076923077 0.25 0.0 0.557692307692 0.0 0.230769230769 0.0 0.557692307692 0.0 0.326923076923 0.0 0.365384615385 0.173076923077 0.153846153846 0.0 0.5 0.0192307692308 0.25 0.0 0.557692307692 0.0 0.230769230769 0.0 0.557692307692 0.0 1
0.25 0.0 0.557692307692 0.0 0.230769230769 0.0 0.557692307692 0.0 0.134615384615 0.0 0.403846153846 0.0 0.230769230769 0.0 0.288461538462 0.115384615385 0.25 0.0 0.557692307692 0.0 0.230769230769 0.0 0.557692307692 0.0 0.288461538462 0.0 0.288461538462 0.0961538461538 0.230769230769 0.0 0.307692307692 0.0769230769231 0.134615384615 0.0 0.461538461538 0.0 0.230769230769 0.0 0.346153846154 0.115384615385 0.25 0.0 0.403846153846 0.134615384615 0.115384615385 0.0 0.519230769231 0.0 0.230769230769 0.0 0.307692307692 0.0961538461538 0.134615384615 0.0 0.365384615385 0.0384615384615 0.25 0.0 0.557692307692 0.0 0.230769230769 0.0 0.557692307692 0.0 1
0.25 0.0 0.557692307692 0.0 0.230769230769 0.0 0.557692307692 0.0 0.192307692308 0.0 0.326923076923 0.0 0.25 0.0192307692308 0.192307692308 0.115384615385 0.134615384615 0.0 0.557692307692 0.0 0.230769230769 0.0 0.442307692308 0.115384615385 0.115384615385 0.0 0.0 0.0384615384615 0.0576923076923 0.0 0.0384615384615 0.0 0.0384615384615 0.0 0.0192307692308 0.0 0.0384615384615 0.0 0.0 0.0192307692308 0.25 0.0 0.269230769231 0.115384615385 0.134615384615 0.0 0.365384615385 0.0 0.211538461538 0.0192307692308 0.0961538461538 0.0769230769231 0.115384615385 0.0 0.192307692308 0.0 0.25 0.0 0.519230769231 0.0384615384615 0.192307692308 0.0 0.557692307692 0.0 1
0.25 0.0 0.557692307692 0.0 0.230769230769 0.0 0.557692307692 0.0 0.0961538461538 0.0 0.557692307692 0.0 0.230769230769 0.0 0.403846153846 0.153846153846 0.25 0.0 0.557692307692 0.0 0.230769230769 0.0 0.557692307692 0.0 0.326923076923 0.0 0.288461538462 0.153846153846 0.288461538462 0.0 0.288461538462 0.153846153846 0.0961538461538 0.0 0.538461538462 0.0 0.230769230769 0.0 0.384615384615 0.153846153846 0.25 0.0 0.384615384615 0.173076923077 0.0769230769231 0.0 0.538461538462 0.0 0.269230769231 0.0 0.365384615385 0.153846153846 0.0961538461538 0.0 0.480769230769 0.0192307692308 0.25 0.0 0.557692307692 0.0 0.230769230769 0.0 0.557692307692 0.0 1
0.230769230769 0.0 0.557692307692 0.0 0.230769230769 0.0 0.538461538462 0.0192307692308 0.230769230769 0.0 0.25 0.0 0.288461538462 0.0192307692308 0.115384615385 0.115384615385 0.173076923077 0.0 0.442307692308 0.0 0.230769230769 0.0 0.365384615385 0.0769230769231 0.134615384615 0.0192307692308 0.0576923076923 0.0384615384615 0.0961538461538 0.0 0.0769230769231 0.0 0.0 0.0 0.0 0.0 0.0 0.0 0.0 0.0 0.25 0.0 0.461538461538 0.0769230769231 0.153846153846 0.0 0.538461538462 0.0 0.192307692308 0.0769230769231 0.346153846154 0.0576923076923 0.173076923077 0.0 0.480769230769 0.0 0.25 0.0 0.538461538462 0.0192307692308 0.211538461538 0.0 0.557692307692 0.0 1
0.25 0.0 0.557692307692 0.0 0.230769230769 0.0 0.557692307692 0.0 0.153846153846 0.0 0.423076923077 0.0192307692308 0.269230769231 0.0 0.269230769231 0.153846153846 0.173076923077 0.0 0.557692307692 0.0 0.230769230769 0.0 0.480769230769 0.0769230769231 0.307692307692 0.0 0.25 0.134615384615 0.211538461538 0.0 0.307692307692 0.0576923076923 0.153846153846 0.0 0.480769230769 0.0192307692308 0.230769230769 0.0 0.365384615385 0.134615384615 0.25 0.0 0.461538461538 0.0961538461538 0.134615384615 0.0 0.557692307692 0.0 0.288461538462 0.0 0.307692307692 0.153846153846 0.134615384615 0.0 0.423076923077 0.0384615384615 0.25 0.0 0.557692307692 0.0 0.230769230769 0.0 0.557692307692 0.0 1
0.25 0.0 0.557692307692 0.0 0.230769230769 0.0 0.557692307692 0.0 0.134615384615 0.0 0.442307692308 0.0 0.230769230769 0.0 0.326923076923 0.115384615385 0.192307692308 0.0 0.557692307692 0.0 0.230769230769 0.0 0.5 0.0576923076923 0.307692307692 0.0 0.211538461538 0.115384615385 0.211538461538 0.0 0.269230769231 0.0384615384615 0.134615384615 0.0 0.269230769231 0.0 0.230769230769 0.0 0.153846153846 0.115384615385 0.25 0.0 0.346153846154 0.134615384615 0.115384615385 0.0 0.461538461538 0.0 0.307692307692 0.0192307692308 0.269230769231 0.134615384615 0.173076923077 0.0 0.403846153846 0.0 0.25 0.0 0.557692307692 0.0 0.230769230769 0.0 0.557692307692 0.0 1
0.230769230769 0.0 0.557692307692 0.0 0.230769230769 0.0 0.538461538462 0.0192307692308 0.288461538462 0.0 0.0769230769231 0.0 0.269230769231 0.0 0.0576923076923 0.0192307692308 0.153846153846 0.0 0.423076923077 0.0 0.230769230769 0.0 0.326923076923 0.0961538461538 0.0 0.0 0.0 0.0 0.0 0.0 0.0 0.0 0.115384615385 0.0 0.0384615384615 0.0 0.134615384615 0.0 0.0 0.0384615384615 0.288461538462 0.0192307692308 0.0192307692308 0.0576923076923 0.211538461538 0.0 0.0961538461538 0.0 0.307692307692 0.0 0.0576923076923 0.0192307692308 0.25 0.0 0.0769230769231 0.0 0.25 0.0192307692308 0.461538461538 0.0769230769231 0.173076923077 0.0 0.557692307692 0.0 1
0.25 0.0 0.557692307692 0.0 0.230769230769 0.0 0.557692307692 0.0 0.211538461538 0.0 0.423076923077 0.0 0.269230769231 0.0384615384615 0.25 0.134615384615 0.173076923077 0.0 0.557692307692 0.0 0.230769230769 0.0 0.480769230769 0.0769230769231 0.0961538461538 0.0 0.115384615385 0.0192307692308 0.0961538461538 0.0 0.0769230769231 0.0384615384615 0.115384615385 0.0 0.365384615385 0.0 0.230769230769 0.0 0.230769230769 0.134615384615 0.326923076923 0.0576923076923 0.307692307692 0.173076923077 0.211538461538 0.0 0.519230769231 0.0 0.307692307692 0.0 0.230769230769 0.0769230769231 0.173076923077 0.0 0.307692307692 0.0 0.25 0.0 0.557692307692 0.0 0.230769230769 0.0 0.557692307692 0.0 1
0.25 0.0 0.557692307692 0.0 0.230769230769 0.0 0.557692307692 0.0 0.134615384615 0.0 0.365384615385 0.0 0.230769230769 0.0 0.25 0.115384615385 0.134615384615 0.0 0.557692307692 0.0 0.230769230769 0.0 0.442307692308 0.115384615385 0.230769230769 0.0 0.288461538462 0.0769230769231 0.115384615385 0.0 0.365384615385 0.0 0.134615384615 0.0 0.384615384615 0.0 0.230769230769 0.0 0.269230769231 0.115384615385 0.25 0.0 0.423076923077 0.134615384615 0.0961538461538 0.0 0.557692307692 0.0 0.288461538462 0.0384615384615 0.307692307692 0.173076923077 0.115384615385 0.0 0.5 0.0 0.25 0.0 0.557692307692 0.0 0.230769230769 0.0 0.557692307692 0.0 1
0.25 0.0 0.557692307692 0.0 0.230769230769 0.0 0.557692307692 0.0 0.25 0.0 0.423076923077 0.0 0.269230769231 0.0576923076923 0.230769230769 0.115384615385 0.192307692308 0.0 0.557692307692 0.0 0.230769230769 0.0 0.5 0.0576923076923 0.230769230769 0.0192307692308 0.211538461538 0.134615384615 0.115384615385 0.0 0.326923076923 0.0384615384615 0.134615384615 0.0 0.365384615385 0.0192307692308 0.25 0.0192307692308 0.173076923077 0.173076923077 0.25 0.0 0.461538461538 0.0961538461538 0.134615384615 0.0 0.557692307692 0.0 0.346153846154 0.0769230769231 0.134615384615 0.173076923077 0.230769230769 0.0 0.326923076923 0.0192307692308 0.25 0.0 0.557692307692 0.0 0.230769230769 0.0 0.557692307692 0.0 1
0.25 0.0 0.557692307692 0.0 0.230769230769 0.0 0.557692307692 0.0 0.134615384615 0.0 0.326923076923 0.0 0.230769230769 0.0 0.192307692308 0.134615384615 0.134615384615 0.0 0.557692307692 0.0 0.230769230769 0.0 0.442307692308 0.115384615385 0.230769230769 0.0 0.115384615385 0.134615384615 0.0769230769231 0.0 0.25 0.0 0.115384615385 0.0 0.269230769231 0.0 0.230769230769 0.0 0.134615384615 0.134615384615 0.25 0.0 0.423076923077 0.134615384615 0.0961538461538 0.0 0.557692307692 0.0 0.307692307692 0.0769230769231 0.192307692308 0.192307692308 0.173076923077 0.0 0.442307692308 0.0 0.25 0.0 0.557692307692 0.0 0.230769230769 0.0 0.557692307692 0.0 1
0.25 0.0 0.557692307692 0.0 0.230769230769 0.0 0.557692307692 0.0 0.173076923077 0.0 0.269230769231 0.0 0.230769230769 0.0 0.192307692308 0.0769230769231 0.173076923077 0.0 0.480769230769 0.0 0.230769230769 0.0 0.403846153846 0.0769230769231 0.0 0.0 0.0 0.0 0.0 0.0 0.0 0.0 0.0 0.0 0.0 0.0 0.0 0.0 0.0 0.0 0.25 0.0 0.269230769231 0.0769230769231 0.153846153846 0.0 0.346153846154 0.0 0.326923076923 0.0 0.192307692308 0.0769230769231 0.192307692308 0.0 0.269230769231 0.0 0.25 0.0 0.557692307692 0.0 0.230769230769 0.0 0.557692307692 0.0 1
0.230769230769 0.0 0.403846153846 0.0 0.173076923077 0.0576923076923 0.326923076923 0.0192307692308 0.25 0.0 0.557692307692 0.0 0.230769230769 0.0 0.557692307692 0.0 0.134615384615 0.0769230769231 0.134615384615 0.0 0.192307692308 0.0 0.192307692308 0.0192307692308 0.173076923077 0.0 0.557692307692 0.0 0.134615384615 0.0576923076923 0.461538461538 0.0384615384615 0.269230769231 0.115384615385 0.384615384615 0.0576923076923 0.307692307692 0.0 0.557692307692 0.0 0.0 0.0 0.0 0.0 0.0 0.0 0.0 0.0 0.25 0.0 0.557692307692 0.0 0.230769230769 0.0 0.557692307692 0.0 0.442307692308 0.0576923076923 0.384615384615 0.0576923076923 0.403846153846 0.0 0.5 0.0 1
0.211538461538 0.0 0.557692307692 0.0 0.230769230769 0.0 0.519230769231 0.0384615384615 0.346153846154 0.0 0.0961538461538 0.0 0.288461538462 0.0384615384615 0.0384615384615 0.0192307692308 0.0 0.0 0.0 0.0 0.0 0.0 0.0 0.0 0.115384615385 0.0 0.0192307692308 0.0 0.0769230769231 0.0192307692308 0.0 0.0 0.173076923077 0.0769230769231 0.0 0.0 0.230769230769 0.0 0.0769230769231 0.0 0.0 0.0 0.0 0.0 0.0 0.0 0.0 0.0 0.173076923077 0.0769230769231 0.326923076923 0.0 0.230769230769 0.0 0.403846153846 0.0 0.25 0.0 0.384615384615 0.0769230769231 0.153846153846 0.0 0.461538461538 0.0 1
0.25 0.0 0.557692307692 0.0 0.230769230769 0.0 0.557692307692 0.0 0.115384615385 0.0 0.423076923077 0.0 0.230769230769 0.0192307692308 0.211538461538 0.173076923077 0.0769230769231 0.0 0.557692307692 0.0 0.230769230769 0.0 0.384615384615 0.173076923077 0.307692307692 0.0384615384615 0.211538461538 0.25 0.0961538461538 0.0 0.480769230769 0.0 0.288461538462 0.0 0.326923076923 0.115384615385 0.269230769231 0.0192307692308 0.269230769231 0.134615384615 0.25 0.0 0.538461538462 0.0192307692308 0.211538461538 0.0 0.557692307692 0.0 0.25 0.0 0.288461538462 0.173076923077 0.0769230769231 0.0 0.442307692308 0.0 0.25 0.0 0.557692307692 0.0 0.230769230769 0.0 0.557692307692 0.0 1
0.25 0.0 0.557692307692 0.0 0.230769230769 0.0 0.557692307692 0.0 0.134615384615 0.0 0.384615384615 0.0 0.230769230769 0.0 0.269230769231 0.115384615385 0.211538461538 0.0 0.557692307692 0.0 0.230769230769 0.0 0.519230769231 0.0384615384615 0.307692307692 0.0 0.173076923077 0.115384615385 0.25 0.0 0.192307692308 0.0769230769231 0.134615384615 0.0 0.461538461538 0.0 0.230769230769 0.0 0.346153846154 0.115384615385 0.25 0.0 0.326923076923 0.115384615385 0.134615384615 0.0 0.423076923077 0.0 0.269230769231 0.0192307692308 0.0769230769231 0.0961538461538 0.115384615385 0.0192307692308 0.173076923077 0.0 0.25 0.0 0.557692307692 0.0 0.230769230769 0.0 0.557692307692 0.0 1
0.25 0.0 0.557692307692 0.0 0.230769230769 0.0 0.557692307692 0.0 0.25 0.0 0.423076923077 0.0769230769231 0.288461538462 0.0 0.346153846154 0.134615384615 0.230769230769 0.0 0.557692307692 0.0 0.230769230769 0.0 0.538461538462 0.0192307692308 0.326923076923 0.0 0.326923076923 0.153846153846 0.211538461538 0.0 0.403846153846 0.0576923076923 0.134615384615 0.0 0.480769230769 0.0 0.25 0.0 0.326923076923 0.153846153846 0.25 0.0 0.480769230769 0.0769230769231 0.153846153846 0.0 0.557692307692 0.0 0.307692307692 0.0 0.384615384615 0.173076923077 0.192307692308 0.0 0.461538461538 0.0769230769231 0.25 0.0 0.557692307692 0.0 0.230769230769 0.0 0.557692307692 0.0 1
0.25 0.0 0.557692307692 0.0 0.230769230769 0.0 0.557692307692 0.0 0.173076923077 0.0 0.346153846154 0.0 0.25 0.0384615384615 0.134615384615 0.173076923077 0.192307692308 0.0 0.557692307692 0.0 0.230769230769 0.0 0.5 0.0576923076923 0.269230769231 0.0 0.230769230769 0.173076923077 0.134615384615 0.0 0.326923076923 0.0576923076923 0.0769230769231 0.0 0.346153846154 0.0 0.230769230769 0.0 0.173076923077 0.173076923077 0.25 0.0 0.403846153846 0.153846153846 0.0961538461538 0.0 0.538461538462 0.0 0.269230769231 0.0 0.230769230769 0.173076923077 0.153846153846 0.0 0.307692307692 0.0769230769231 0.25 0.0 0.557692307692 0.0 0.230769230769 0.0 0.557692307692 0.0 1
0.25 0.0 0.557692307692 0.0 0.230769230769 0.0 0.557692307692 0.0 0.230769230769 0.0 0.442307692308 0.0 0.288461538462 0.0192307692308 0.307692307692 0.115384615385 0.25 0.0 0.557692307692 0.0 0.230769230769 0.0 0.557692307692 0.0 0.384615384615 0.0192307692308 0.326923076923 0.0769230769231 0.403846153846 0.0 0.307692307692 0.0961538461538 0.153846153846 0.0 0.557692307692 0.0 0.230769230769 0.0 0.461538461538 0.0961538461538 0.25 0.0 0.326923076923 0.0961538461538 0.134615384615 0.0 0.423076923077 0.0 0.326923076923 0.0 0.269230769231 0.0961538461538 0.230769230769 0.0 0.326923076923 0.0384615384615 0.25 0.0 0.538461538462 0.0192307692308 0.211538461538 0.0 0.557692307692 0.0 1
0.25 0.0 0.557692307692 0.0 0.230769230769 0.0 0.557692307692 0.0 0.230769230769 0.0 0.346153846154 0.0 0.25 0.0192307692308 0.25 0.0769230769231 0.115384615385 0.0 0.557692307692 0.0 0.230769230769 0.0 0.423076923077 0.134615384615 0.173076923077 0.0 0.0 0.0576923076923 0.0961538461538 0.0 0.0576923076923 0.0 0.0769230769231 0.0 0.288461538462 0.0 0.153846153846 0.0 0.192307692308 0.0961538461538 0.25 0.0 0.288461538462 0.115384615385 0.115384615385 0.0 0.403846153846 0.0 0.288461538462 0.0 0.0961538461538 0.0769230769231 0.173076923077 0.0 0.173076923077 0.0 0.25 0.0 0.538461538462 0.0192307692308 0.211538461538 0.0 0.557692307692 0.0 1
0.25 0.0 0.557692307692 0.0 0.230769230769 0.0 0.557692307692 0.0 0.0961538461538 0.0 0.480769230769 0.0 0.230769230769 0.0 0.326923076923 0.153846153846 0.25 0.0 0.557692307692 0.0 0.230769230769 0.0 0.557692307692 0.0 0.384615384615 0.0 0.269230769231 0.115384615385 0.346153846154 0.0 0.269230769231 0.115384615385 0.0769230769231 0.0 0.538461538462 0.0 0.211538461538 0.0192307692308 0.346153846154 0.173076923077 0.25 0.0 0.307692307692 0.153846153846 0.0961538461538 0.0 0.442307692308 0.0 0.230769230769 0.0961538461538 0.173076923077 0.0961538461538 0.211538461538 0.0 0.346153846154 0.0 0.25 0.0 0.5 0.0576923076923 0.173076923077 0.0 0.557692307692 0.0 1
0.403846153846 0.0 0.557692307692 0.0 0.365384615385 0.0576923076923 0.461538461538 0.0384615384615 0.134615384615 0.0 0.403846153846 0.0384615384615 0.25 0.0 0.25 0.173076923077 0.173076923077 0.0 0.461538461538 0.0 0.230769230769 0.0 0.365384615385 0.0961538461538 0.25 0.0 0.384615384615 0.134615384615 0.115384615385 0.0 0.5 0.0 0.326923076923 0.0 0.403846153846 0.0961538461538 0.346153846154 0.0 0.346153846154 0.134615384615 0.25 0.0 0.557692307692 0.0 0.230769230769 0.0 0.557692307692 0.0 0.269230769231 0.0 0.307692307692 0.153846153846 0.0961538461538 0.0 0.442307692308 0.0 0.25 0.0 0.557692307692 0.0 0.230769230769 0.0 0.557692307692 0.0 1
0.25 0.0 0.557692307692 0.0 0.230769230769 0.0 0.557692307692 0.0 0.403846153846 0.0 0.461538461538 0.0 0.423076923077 0.0384615384615 0.326923076923 0.0961538461538 0.153846153846 0.0 0.557692307692 0.0 0.230769230769 0.0 0.461538461538 0.0961538461538 0.0192307692308 0.0 0.134615384615 0.0 0.0 0.0 0.134615384615 0.0 0.153846153846 0.0 0.0769230769231 0.0 0.192307692308 0.0 0.0192307692308 0.0576923076923 0.0192307692308 0.0 0.25 0.0192307692308 0.0 0.0 0.25 0.0 0.0 0.0 0.0 0.0 0.0 0.0 0.0 0.0 0.25 0.0 0.326923076923 0.0769230769231 0.153846153846 0.0 0.403846153846 0.0 1
0.25 0.0 0.557692307692 0.0 0.230769230769 0.0 0.557692307692 0.0 0.192307692308 0.0 0.480769230769 0.0 0.25 0.0192307692308 0.326923076923 0.115384615385 0.173076923077 0.0 0.557692307692 0.0 0.230769230769 0.0 0.480769230769 0.0769230769231 0.230769230769 0.0 0.173076923077 0.115384615385 0.115384615385 0.0 0.25 0.0384615384615 0.0769230769231 0.0 0.326923076923 0.0 0.211538461538 0.0 0.173076923077 0.153846153846 0.25 0.0 0.442307692308 0.115384615385 0.134615384615 0.0 0.538461538462 0.0 0.288461538462 0.0192307692308 0.307692307692 0.153846153846 0.115384615385 0.0 0.480769230769 0.0 0.25 0.0 0.557692307692 0.0 0.230769230769 0.0 0.557692307692 0.0 1
