1000 64
0.135106581319 0.19830961407 0.273693368964 0.334969858927 0.396184202349 0.500031073271 0.664408675657 0.711142874899 0.711205021441 0.669380398981 0.607482443602 0.57000807905 0.546889565596 0.506556460133 0.479647007644 0.459014355851 0.438133117892 0.433534273818 0.439935367597 0.460443726307 0.445528556336 0.433472127276 0.433472127276 0.414020259773 0.414020259773 0.432602075694 0.412093716985 0.403766080418 0.400969486048 0.380647566963 0.374060033559 0.369399042943 0.349014977317 0.344353986701 0.350879373563 0.37126343919 0.391709651358 0.403766080418 0.403766080418 0.423342241004 0.412963768566 0.375054378224 0.395376297309 0.403766080418 0.400969486048 0.380585420421 0.373997887018 0.378783170717 0.399105089802 0.435150083898 0.476228947859 0.517432104903 0.664035796408 0.74457771425 0.703498850289 0.701696600584 0.660431296998 0.580262258405 0.539245540986 0.474115965447 0.395376297309 0.333602635013 0.187496115841 0.0451805357032 0
0.0620222484619 0.0929712261513 0.138213908396 0.185818159219 0.232614505003 0.277795040706 0.288919271643 0.280094462743 0.204213535517 0.163880430054 0.163134671556 0.163134671556 0.175191100615 0.237896961034 0.283139643279 0.313840034802 0.345659064073 0.377415946803 0.408116338326 0.429059722826 0.444285625505 0.458020011186 0.456031321857 0.424087999503 0.392952582189 0.366167422783 0.397551426263 0.409234976074 0.394257659561 0.402336709962 0.414952457896 0.416754707601 0.401963830713 0.370641973774 0.379093903424 0.391336772109 0.393139021813 0.392890435647 0.391026039401 0.362749362998 0.341370952706 0.341433099248 0.351252252812 0.365918836617 0.350817227021 0.341370952706 0.341370952706 0.353303088683 0.369336896402 0.382698402834 0.404822571624 0.437946678267 0.505934994718 0.584736809397 0.677583742465 0.737306568889 0.766826176123 0.730284009695 0.680628923 0.617985209123 0.556087253744 0.49518364303 0.389285936238 0.315580137965 0
0.286371263439 0.296501149711 0.328382325524 0.360387794419 0.406624821329 0.453669753278 0.492138462495 0.524392517556 0.556460132994 0.588341308806 0.62028463116 0.624945621776 0.624137716736 0.623640544404 0.623640544404 0.625132061401 0.64079298987 0.656578211423 0.615375054378 0.553352805916 0.506742899758 0.490771238581 0.474488844696 0.473680939656 0.473121620782 0.483189360512 0.499471754397 0.508296563296 0.492511341744 0.476788266733 0.47467528432 0.474613137779 0.466409794295 0.449940960786 0.437822385184 0.454166925611 0.470387172954 0.4979802374 0.529053508172 0.548318936051 0.549126841091 0.550307625381 0.566527872724 0.582934559692 0.598098315829 0.612889192716 0.623702690945 0.624013423653 0.624262009819 0.667391709651 0.714498788142 0.745509912373 0.761605866634 0.767074762289 0.718662606426 0.670747622895 0.623702690945 0.577154931328 0.522963147101 0.459325088559 0.390901746318 0.248151140389 0.106457025667 0.0615250761295 0
0.0798583058853 0.112050214406 0.19308930458 0.29283450376 0.362935802623 0.399602262134 0.424336585669 0.443788453173 0.461686657138 0.478155490647 0.481697843515 0.402709589211 0.305885277484 0.26990242993 0.247591821515 0.274004101672 0.294326020757 0.289975762849 0.270088869554 0.250885588217 0.255670871916 0.274625567087 0.290100055932 0.252004225965 0.260331862532 0.268783792182 0.259523957492 0.223416816854 0.23932633149 0.257783854329 0.269156671431 0.266795102853 0.246535330309 0.228450686719 0.210055310422 0.208563793425 0.245478839103 0.20875023305 0.226089118141 0.245727425269 0.248959045429 0.265427878939 0.285749798024 0.316512336088 0.333975514263 0.315145112175 0.316139456839 0.301783605742 0.310608414642 0.338822944503 0.3403144615 0.35597538997 0.385494997203 0.415698216394 0.446585047542 0.576284879746 0.586352619477 0.547262444845 0.49959604748 0.482878627804 0.446522901001 0.330868187185 0.197315269405 0.102852526257 0
0.112609533279 0.188676900131 0.256665216581 0.294388167298 0.331489652601 0.341370952706 0.354918898763 0.391088185942 0.410726493071 0.441737617302 0.45174321049 0.395127711143 0.339195823752 0.2936424088 0.2679137406 0.286868435772 0.289851469766 0.290224349015 0.290721521347 0.289167857809 0.261326207197 0.253930768753 0.289354297433 0.271083214219 0.252439251756 0.23895345224 0.237399788702 0.257348828538 0.266173637437 0.265614318563 0.263314896526 0.264992853148 0.246473183767 0.215275619912 0.23491392704 0.25343359642 0.264122801566 0.262134112237 0.224224721894 0.214094835622 0.227829221304 0.264930706606 0.266173637437 0.265179292772 0.259586104033 0.241501460444 0.239388478031 0.249269778137 0.262071965695 0.243303710149 0.253868622211 0.263749922317 0.261823379529 0.244422347896 0.265241439314 0.302529364241 0.340935926916 0.378783170717 0.392828289106 0.377540239886 0.32017898204 0.26468212044 0.198558200236 0.137343856814 0
0.0838356845442 0.128519047915 0.22323037723 0.299297744081 0.347026287987 0.416133242185 0.527002672301 0.612205580759 0.627990802312 0.647131937108 0.678764526754 0.7103971164 0.74215399913 0.773786588776 0.805419178423 0.836306009571 0.820520788018 0.804673419924 0.743521223044 0.680380336834 0.5744204835 0.463737493009 0.430861972531 0.415014604437 0.42315580138 0.438941022932 0.432664222236 0.416754707601 0.410850786154 0.410664346529 0.392828289106 0.361257846001 0.353303088683 0.369088310236 0.378037412218 0.378037412218 0.384065626748 0.399975141383 0.41109937232 0.411161518861 0.411161518861 0.411223665403 0.411223665403 0.411223665403 0.409421415698 0.393636194146 0.379280343049 0.395065564601 0.410912932695 0.442421229259 0.474053818905 0.593499471754 0.719719097632 0.710956435274 0.679261699086 0.660244857374 0.644335342738 0.605493754273 0.558013796532 0.48952830775 0.410602199988 0.302715803866 0.176496177988 0.117084084271 0
0.0837113914611 0.0992480268473 0.142191287055 0.185569573053 0.229010005593 0.272201851967 0.290721521347 0.302591510782 0.335529177801 0.389161643155 0.436206575104 0.457957864645 0.479957740352 0.501584736809 0.523149586725 0.5446522901 0.56596855385 0.583493878566 0.594369523336 0.60580448698 0.627804362687 0.649617798769 0.620160338077 0.577092784787 0.533963084954 0.490957678205 0.450189546952 0.418184078056 0.386116462619 0.382946989 0.38213908396 0.374246473184 0.362749362998 0.359331303213 0.37089055994 0.380647566963 0.369088310236 0.35759120005 0.355229631471 0.355540364179 0.361319992542 0.372817102728 0.381890497794 0.382014790877 0.382325523585 0.402025977254 0.423466534087 0.465788328879 0.519545087316 0.562177614816 0.583866757815 0.600273444783 0.546827419054 0.493816419116 0.473929525822 0.463116027593 0.440370393388 0.405754769747 0.371760611522 0.341308806165 0.310359828476 0.237399788702 0.161643154558 0.134422969362 0
0.181902927102 0.222546765273 0.283077496737 0.362935802623 0.427008886955 0.466844820086 0.476601827108 0.481138524641 0.521036604313 0.541855695731 0.541979988814 0.508607296004 0.479957740352 0.499844633646 0.497793797775 0.477906904481 0.421726430924 0.383382014791 0.40345534771 0.410912932695 0.411161518861 0.411285811945 0.411223665403 0.411223665403 0.383071282083 0.345907650239 0.345907650239 0.354359579889 0.374308619725 0.37853458455 0.37853458455 0.378596731092 0.388478031198 0.408427071033 0.39419551302 0.387235100367 0.427381766205 0.444285625505 0.444285625505 0.444037039339 0.443974892797 0.443912746256 0.430986265614 0.410975079237 0.391088185942 0.385930022994 0.405816916289 0.425828102666 0.443850599714 0.443974892797 0.443974892797 0.443974892797 0.460070847057 0.476601827108 0.476291094401 0.54987259959 0.689205145734 0.652538686222 0.597663290038 0.557765210366 0.493878565658 0.414206699397 0.353800261015 0.313156422845 0
0.1021689143 0.156609284693 0.218755826238 0.269715990305 0.303150829656 0.348579951526 0.382511963209 0.423901559878 0.455285563358 0.453856192903 0.438568143683 0.448449443788 0.471257224535 0.490398359331 0.491516997079 0.508545149462 0.499161021689 0.500279659437 0.496613013486 0.452986141321 0.436144428563 0.420545646635 0.42278292213 0.439065316015 0.452364675906 0.436144428563 0.44409918588 0.435709402772 0.401590951464 0.35597538997 0.324777826114 0.326890808527 0.326952955068 0.317258094587 0.317568827295 0.334845565844 0.350444347772 0.349822882357 0.340252314959 0.357156174259 0.372195637313 0.375986576347 0.390466720527 0.409670001864 0.378596731092 0.389410229321 0.384127773289 0.383382014791 0.395749176558 0.395314150768 0.381455472003 0.38617860916 0.407805605618 0.447641538748 0.52656764651 0.532409421416 0.500901124852 0.466099061587 0.445652849419 0.400720899882 0.368653284445 0.318065999627 0.249083338512 0.179914237773 0
0.08085265055 0.122490833385 0.177925548443 0.197750295196 0.237461935243 0.296749735877 0.338325772171 0.37207134423 0.391833944441 0.4255795165 0.461189484805 0.461251631347 0.4810763781 0.520601578522 0.560188925486 0.593934497545 0.613697097757 0.633521844509 0.649369212603 0.629668758934 0.589894972345 0.530545025169 0.542415014604 0.544341557392 0.50481635697 0.479025542229 0.459200795476 0.439438195264 0.399726555217 0.340376608042 0.352184450935 0.366105276241 0.366105276241 0.352246597477 0.338387918712 0.378037412218 0.387918712324 0.368093965571 0.383941333665 0.403766080418 0.423528680629 0.443353427382 0.461189484805 0.461251631347 0.471195077994 0.490895531664 0.528432042757 0.562239761357 0.582002361569 0.685289913616 0.805854204214 0.766329003791 0.746442110497 0.746442110497 0.710832142191 0.677086570132 0.657323969921 0.609657572556 0.550307625381 0.491019824747 0.431421291405 0.37207134423 0.294885339631 0.23932633149 0
0.0803554782176 0.120377850973 0.143682804052 0.18059784973 0.22565409235 0.257348828538 0.295506805046 0.351935864769 0.390218134361 0.412653035859 0.435833695855 0.459014355851 0.419675595053 0.410042881114 0.440308246846 0.444285625505 0.444596358213 0.465601889255 0.485240196383 0.507675097881 0.526194767261 0.504940650053 0.460754459014 0.456777080355 0.457025666522 0.457025666522 0.457025666522 0.497855944317 0.560623951277 0.569697346343 0.531663662917 0.40830277795 0.366788888198 0.324032067615 0.352433037101 0.347088434529 0.339257970294 0.339320116835 0.329873842521 0.322478404077 0.340003728792 0.342427443913 0.362190044124 0.363060095706 0.344167547076 0.321049033621 0.330433161395 0.351376545895 0.339630849543 0.315082965633 0.3362749363 0.384376359456 0.363930147287 0.38655148841 0.407805605618 0.431110558697 0.466969113169 0.52414393139 0.527624137717 0.473680939656 0.409980734572 0.347647753403 0.280467341992 0.196383071282 0
0.0517059225654 0.0899881921571 0.148157355043 0.243987322106 0.330060282145 0.388229445031 0.458268597353 0.535827481201 0.542042135355 0.537629730905 0.518364303027 0.498974582065 0.479709154186 0.426573861165 0.37530296439 0.355726803803 0.336088496675 0.316636629172 0.312783543596 0.315269405258 0.334596979678 0.345348331365 0.345348331365 0.330495307936 0.314212914051 0.333602635013 0.345348331365 0.345348331365 0.345348331365 0.344851159033 0.325461438071 0.312721397054 0.312721397054 0.325461438071 0.344851159033 0.326455782736 0.307003915232 0.287676340812 0.280032316202 0.27997016966 0.297868373625 0.312659250513 0.312659250513 0.323348455658 0.342800323162 0.328506618607 0.316388043005 0.335964203592 0.35560251072 0.375178671307 0.394941271518 0.419427008887 0.477534025231 0.535951774284 0.593872351004 0.607979615934 0.603194332235 0.544838729725 0.486296687589 0.427692498912 0.355291778013 0.276862842583 0.160648809894 0.0838356845442 0
0.175936859114 0.236716176745 0.351065813187 0.41712758685 0.449816667702 0.482567895097 0.515256975949 0.536262506991 0.552607047418 0.556397986452 0.556397986452 0.556335839911 0.556397986452 0.541669256106 0.525449008763 0.524641103723 0.523895345224 0.474986017028 0.4296190417 0.429556895159 0.427443912746 0.411037225778 0.394630538811 0.378285998384 0.370517680691 0.386737928034 0.397924305512 0.397862158971 0.404076813125 0.420421353552 0.4296190417 0.429556895159 0.429556895159 0.429681188242 0.429556895159 0.4296190417 0.439686781431 0.45615561494 0.45012740041 0.433969299608 0.4296190417 0.429681188242 0.455907028774 0.488596109626 0.492946367535 0.493008514076 0.493008514076 0.493070660618 0.525013982972 0.558697408489 0.607482443602 0.651420048474 0.651482195016 0.645951152818 0.613324218507 0.576906345162 0.527934870424 0.474115965447 0.408862096824 0.343359642036 0.277981480331 0.199179665652 0.101236716177 0.0491579143621 0
0.0459884407433 0.0650674289976 0.0976943633087 0.117954135852 0.134174383196 0.180473556647 0.231122988006 0.296563296253 0.357466906967 0.406314088621 0.440743272637 0.456901373439 0.483127213971 0.51569200174 0.561431856317 0.610527624138 0.581691628861 0.546951712137 0.4979802374 0.453669753278 0.421229258592 0.380834006588 0.331551799142 0.324404946865 0.340625194208 0.356845441551 0.373189981978 0.373252128519 0.373376421602 0.373376421602 0.368031819029 0.352122304394 0.351935864769 0.367783232863 0.373314275061 0.37368715431 0.387670126157 0.403703933876 0.403766080418 0.409794294947 0.442296936176 0.451618917407 0.419116276179 0.395189857684 0.378783170717 0.408427071033 0.457522838854 0.477844757939 0.49437573799 0.526754086135 0.573426138835 0.671244795227 0.737928034305 0.754148281648 0.734137095271 0.685414206699 0.648499161022 0.615996519794 0.553539245541 0.48952830775 0.440618979554 0.375737990181 0.261699086446 0.194518675036 0
0.087813063203 0.127400410167 0.187309676217 0.304766639736 0.407681312535 0.468647069791 0.511093157666 0.54104779069 0.530358585545 0.516313467156 0.501522590268 0.502454788391 0.515878441365 0.491081971288 0.460940898639 0.432788515319 0.433409980735 0.462743148344 0.443602013548 0.417686905724 0.417686905724 0.424523025294 0.439748927972 0.420048474302 0.393139021813 0.407805605618 0.428748990119 0.4593872351 0.468522776707 0.468771362874 0.452861848238 0.442421229259 0.442421229259 0.442421229259 0.442359082717 0.441737617302 0.437076626686 0.42234789634 0.408116338326 0.394071219937 0.419302715804 0.437822385184 0.421726430924 0.43160773103 0.462245976011 0.466720527003 0.467217699335 0.467217699335 0.505562115468 0.581878068485 0.606488098937 0.617985209123 0.619103846871 0.599403393201 0.554222857498 0.531290783668 0.513143993537 0.469206388664 0.430302653657 0.399726555217 0.326766515443 0.236902616369 0.145920079548 0.0858243738736 0
0.0952085016469 0.201292648064 0.389969548195 0.471132931452 0.500341805978 0.529985706295 0.559629606612 0.58809272264 0.616182959418 0.631346715555 0.631346715555 0.543968678143 0.47908768877 0.478404076813 0.478652662979 0.479833447269 0.487477471879 0.501522590268 0.498042383941 0.483313653595 0.458206450811 0.429246162451 0.412280156609 0.397364986638 0.383071282083 0.372630663104 0.400907339507 0.417749052265 0.389285936238 0.365359517743 0.351190106271 0.356099683053 0.384873531788 0.397675719346 0.397551426263 0.387856565782 0.37368715431 0.404946864707 0.447641538748 0.452178236281 0.452426822447 0.437387359393 0.426449568082 0.440121807221 0.454353365235 0.470076440246 0.4851159033 0.49959604748 0.536076067367 0.593996644087 0.661239202038 0.733515629855 0.720402709589 0.6765893978 0.645391833944 0.616493692126 0.573674725002 0.529115654714 0.471816543409 0.416754707601 0.371760611522 0.327387980859 0.284569013734 0.26064259524 0
0.0709713504443 0.109253620036 0.190541296377 0.244795227146 0.258156733578 0.276552109875 0.304269467404 0.324591386489 0.324529239948 0.330122428687 0.357031881176 0.385930022994 0.427133180039 0.464048225716 0.450438133118 0.43726306631 0.45093530545 0.46460754459 0.452178236281 0.438505997141 0.448946616121 0.462308122553 0.453607606737 0.440308246846 0.415884656019 0.388602324281 0.370641973774 0.357404760425 0.369150456777 0.396059909266 0.384811385246 0.344353986701 0.330557454478 0.343546081661 0.345286184824 0.332546143807 0.324653533031 0.324902119197 0.333540488472 0.361071406376 0.378596731092 0.364116586912 0.354670312597 0.367099620906 0.380150394631 0.395065564601 0.410602199988 0.437822385184 0.465291156547 0.465912621963 0.466099061587 0.528494189298 0.595923186875 0.594307376794 0.580945870362 0.556087253744 0.528307749674 0.49114411783 0.450748865826 0.391833944441 0.324280653782 0.230936548381 0.120812876763 0.0690448076565 0
0.0568019389721 0.0939034242744 0.143434217886 0.193524330371 0.242060779318 0.29041078864 0.339071530669 0.387297246908 0.425517369958 0.441986203468 0.458144304269 0.463426760301 0.447392952582 0.416381828351 0.401155925673 0.418867690013 0.392952582189 0.379280343049 0.395438443851 0.396805667765 0.396867814306 0.397551426263 0.413025915108 0.401590951464 0.352930209434 0.379653222298 0.396059909266 0.394381952644 0.379156049966 0.37126343919 0.371822758064 0.388478031198 0.388478031198 0.371822758064 0.371884904605 0.380709713504 0.397489279722 0.413212354732 0.419427008887 0.417811198807 0.419737741595 0.410353613821 0.394071219937 0.396805667765 0.407929898701 0.424398732211 0.439624634889 0.496177987695 0.571623889131 0.6041886769 0.65608103909 0.709402771736 0.710894288733 0.688770119943 0.654838108259 0.622646199739 0.568081536263 0.506867192841 0.458890062768 0.398980796719 0.341308806165 0.307749673731 0.226897023181 0.153191224908 0
0.27997016966 0.27997016966 0.27997016966 0.295320365422 0.314647939842 0.351376545895 0.378037412218 0.378037412218 0.396370641974 0.433285687651 0.470200733329 0.507426511715 0.526878379218 0.539369834069 0.521036604313 0.516997079113 0.535330308868 0.531228637126 0.512833260829 0.525076129513 0.543471505811 0.561804735566 0.575104095457 0.575104095457 0.575041948916 0.575166241999 0.561804735566 0.543471505811 0.542415014604 0.539307687527 0.521036604313 0.509788080293 0.509788080293 0.532285128333 0.568951587844 0.575041948916 0.573053259586 0.536013920825 0.509290907961 0.509290907961 0.509290907961 0.509290907961 0.52252812131 0.540985644149 0.541979988814 0.548132496427 0.585109688646 0.614877882046 0.633211111802 0.674227829221 0.729351811572 0.769312037785 0.805916350755 0.842582810267 0.853893480828 0.798955938102 0.743707662669 0.688397240694 0.659747685041 0.641103722578 0.536138213908 0.425455223417 0.315020819091 0.24740538189 0
0.167422782922 0.226710583556 0.290783667889 0.355229631471 0.426511714623 0.508420856379 0.529488533963 0.495680815363 0.47908768877 0.469890000621 0.450562426201 0.428313964328 0.406065502455 0.382574109751 0.361257846001 0.340252314959 0.329935989062 0.373127835436 0.374308619725 0.357901932757 0.347585606861 0.347274874153 0.345969796781 0.324156360699 0.342800323162 0.331738238767 0.321546205954 0.307811820272 0.271704679635 0.271642533093 0.271704679635 0.286309116898 0.296749735877 0.296811882419 0.296749735877 0.296811882419 0.297806227083 0.313777888261 0.32620719657 0.331800385309 0.351438692437 0.328382325524 0.34193027158 0.349387856566 0.340252314959 0.318873904667 0.298614132124 0.320303275123 0.342862469704 0.337766453297 0.339320116835 0.37368715431 0.374370766267 0.397364986638 0.451991796657 0.528059163508 0.59853334162 0.629979491641 0.586849791809 0.543471505811 0.469268535206 0.383257721708 0.27754645454 0.14281275247 0
0.108570008079 0.12951339258 0.174072462867 0.230750108756 0.305077372444 0.364365173078 0.394319806103 0.428251817786 0.472997327699 0.520725871605 0.580137965322 0.633335404885 0.648126281772 0.665403020322 0.710086383693 0.753278230066 0.693617550183 0.634454042633 0.617425890249 0.60257286682 0.574296190417 0.544403703934 0.52694052576 0.512025355789 0.508420856379 0.508420856379 0.508545149462 0.508731589087 0.518177863402 0.533030886831 0.522776707476 0.493008514076 0.478217637188 0.477969051022 0.491081971288 0.520788018147 0.544963022808 0.559816046237 0.570256665217 0.570132372133 0.570194518675 0.570132372133 0.572742526878 0.587222671058 0.605431607731 0.649866384936 0.69106954198 0.661363495121 0.63153315518 0.631035982848 0.631035982848 0.617363743708 0.602510720278 0.587657696849 0.57280467342 0.546081660556 0.516437760239 0.486669566839 0.45696351998 0.437014480144 0.422161456715 0.380585420421 0.321297619787 0.293331676092 0
0.170032937667 0.17618544528 0.1955130197 0.215027033746 0.234478901249 0.25380647567 0.284506867193 0.323286309117 0.354235286806 0.354235286806 0.354235286806 0.370517680691 0.390093841278 0.400596606799 0.400845192965 0.402585296128 0.422223603256 0.441737617302 0.447206512958 0.447144366416 0.440246100305 0.420918525884 0.401342365297 0.420234913927 0.439562488348 0.45895220931 0.478466223355 0.497855944317 0.517369958362 0.536697532782 0.573053259586 0.611770554969 0.631346715555 0.631408862097 0.633894723759 0.653098005096 0.672425579516 0.706481884283 0.745261326207 0.76912559816 0.769001305077 0.769436330868 0.788888198372 0.8085265055 0.815300478528 0.815300478528 0.8044869803 0.765831831459 0.727052389535 0.705798272326 0.686532844447 0.68783792182 0.707289789323 0.716922503263 0.677956621714 0.639301472873 0.600335591324 0.561618295942 0.52252812131 0.48350009322 0.442296936176 0.364240879995 0.286619849605 0.262134112237 0
0.0877509166615 0.110682990492 0.159716611771 0.195450873159 0.211795413585 0.233546703126 0.266360077062 0.290286495557 0.290597228264 0.304580200112 0.369709775651 0.432602075694 0.481573550432 0.523957491766 0.491392703996 0.459511528183 0.476291094401 0.493008514076 0.493381393325 0.492884220993 0.492946367535 0.492884220993 0.492822074452 0.493008514076 0.480641352309 0.464172518799 0.447890124915 0.431669877571 0.425455223417 0.425206637251 0.415884656019 0.399975141383 0.391958237524 0.391833944441 0.384749238705 0.368528991362 0.352122304394 0.335839910509 0.334596979678 0.367223913989 0.387856565782 0.371636318439 0.361071406376 0.376980921012 0.39301472873 0.40948356224 0.424336585669 0.408240631409 0.392268970232 0.408054191784 0.424274439127 0.500776831769 0.582126654652 0.608414641725 0.625007768318 0.628612267727 0.628674414269 0.593002299422 0.543968678143 0.505499968927 0.472624448449 0.400348020633 0.302405071158 0.256168044248 0
0.112547386738 0.159219439438 0.232428065378 0.239450624573 0.243614442856 0.268348766391 0.281896712448 0.281896712448 0.282021005531 0.281958858989 0.329935989062 0.391274625567 0.48834752346 0.573550431918 0.647194083649 0.70113728171 0.749735877198 0.798334472687 0.80610279038 0.733639922938 0.674849294637 0.625753526816 0.598657634703 0.57802498291 0.577465664036 0.566714312349 0.542166428438 0.517991423777 0.493878565658 0.493008514076 0.498663849357 0.523211733267 0.547573177553 0.571561742589 0.558200236157 0.534522403828 0.534522403828 0.542166428438 0.566714312349 0.56317195948 0.539059101361 0.535641041576 0.538499782487 0.563109812939 0.56839226897 0.54384438506 0.551861288919 0.576471319371 0.600646324032 0.624510595985 0.648623454105 0.63836927475 0.589646386179 0.613883537381 0.66210925362 0.637312783544 0.619663165745 0.619663165745 0.565595674601 0.468522776707 0.410602199988 0.357031881176 0.259586104033 0.197688148655 0
0.141569821639 0.173823876701 0.234727487415 0.283015350196 0.322540550618 0.389161643155 0.469641414455 0.507177925548 0.527251258467 0.54744888447 0.567832950096 0.57118886334 0.571126716798 0.516624199863 0.456093468398 0.453296874029 0.453607606737 0.47424025853 0.493132807159 0.493194953701 0.49033621279 0.470138586788 0.445839289044 0.404884718165 0.374805792058 0.375613697098 0.382511963209 0.402336709962 0.422596482506 0.443353427382 0.455036977192 0.455099123734 0.444844944379 0.424647318377 0.426636007706 0.446025728668 0.44086756572 0.420856379342 0.400969486048 0.381206885837 0.390653160152 0.410167174197 0.414766018271 0.41551177677 0.449692374619 0.488968988876 0.47386737928 0.454353365235 0.533030886831 0.613697097757 0.6934932571 0.765272512585 0.765272512585 0.755266919396 0.695730532596 0.640233670996 0.599527686284 0.553228512833 0.492884220993 0.432602075694 0.37287924927 0.287987073519 0.168106394879 0.104095457088 0
0.141259088932 0.169908644584 0.214840594121 0.326704368902 0.441489031135 0.532471567957 0.589522093096 0.603753651109 0.619538872662 0.635821266547 0.680566776459 0.714312348518 0.714250201976 0.707041203157 0.693431110559 0.642284506867 0.585047542104 0.569635199801 0.549002548008 0.518861475359 0.507177925548 0.507426511715 0.481262817724 0.457895718103 0.4722515692 0.474488844696 0.4593872351 0.475607482444 0.505997141259 0.50643216705 0.509104468336 0.523025293642 0.530669318252 0.532036542166 0.543720091977 0.55913243428 0.589584239637 0.619787458828 0.648872040271 0.670436890187 0.686843577155 0.663600770617 0.642533093033 0.686905723696 0.725995898328 0.755888384811 0.786029457461 0.815859797402 0.803679075259 0.788639612206 0.774283761109 0.75222173886 0.72164564042 0.669504692064 0.610900503387 0.610900503387 0.602137841029 0.571375302964 0.515878441365 0.440743272637 0.378037412218 0.311043440433 0.17618544528 0.0899260456156 0
0.0531352930209 0.0714063762352 0.117208377354 0.160338077186 0.191038468709 0.22204959294 0.222484618731 0.222484618731 0.234416754708 0.249580510845 0.273631222422 0.303958734696 0.334721272761 0.365545957367 0.386800074576 0.356099683053 0.324964265739 0.352619476726 0.383382014791 0.391461065192 0.391709651358 0.408364924492 0.438816729849 0.464172518799 0.479522714561 0.498539556274 0.544092971226 0.590019265428 0.608414641725 0.623951277111 0.596047479958 0.550059039214 0.511590329998 0.480889938475 0.450313840035 0.419862034678 0.388043005407 0.342054564663 0.296376856628 0.29084581443 0.290970107514 0.29084581443 0.290721521347 0.297868373625 0.313032129762 0.320303275123 0.304642346653 0.29041078864 0.306258156734 0.321919085203 0.36324653533 0.408862096824 0.415822509477 0.400596606799 0.431421291405 0.522714560935 0.587036231434 0.556646572618 0.525573301846 0.464421104966 0.403517494251 0.329625256354 0.25299857063 0.222546765273 0
0.0531352930209 0.137778882605 0.259026785159 0.321049033621 0.366416008949 0.386924367659 0.438568143683 0.497669504692 0.538686222112 0.579827232615 0.620781803493 0.627742216146 0.619973898453 0.579330060282 0.538313342862 0.497669504692 0.474861723945 0.464856130756 0.485364489466 0.480082033435 0.459511528183 0.459262942017 0.45211608974 0.43160773103 0.454477658318 0.491641290162 0.471070784911 0.450562426201 0.430054067491 0.40948356224 0.391833944441 0.391958237524 0.391958237524 0.391833944441 0.391958237524 0.391958237524 0.391833944441 0.391958237524 0.391833944441 0.391833944441 0.397986452054 0.418432664222 0.4255795165 0.425828102666 0.446398607917 0.459262942017 0.4593872351 0.47424025853 0.493008514076 0.493008514076 0.51165247654 0.552917780126 0.560996830526 0.571561742589 0.632527499845 0.650674289976 0.629979491641 0.5913243428 0.54023988565 0.458330743894 0.400845192965 0.359766329004 0.179976384314 0.0531352930209 0
0.0374122180101 0.0969486048101 0.131999254242 0.14281275247 0.157852215524 0.222733204897 0.396992107389 0.488533963085 0.54142066994 0.558262382698 0.567087191598 0.557019451868 0.45453980486 0.430675532907 0.407805605618 0.356969734634 0.323845627991 0.322540550618 0.317755266919 0.274128394755 0.271704679635 0.28761419427 0.297557640917 0.298800571748 0.303150829656 0.323845627991 0.302964390032 0.299422037164 0.284444720651 0.272077558884 0.277857187248 0.296811882419 0.296811882419 0.277919333789 0.272015412342 0.272077558884 0.272450438133 0.273569075881 0.273569075881 0.292772357218 0.296749735877 0.270896774594 0.236654030203 0.213784102915 0.194021502703 0.194642968119 0.214094835622 0.221055248275 0.221055248275 0.227642781679 0.24578957181 0.24578957181 0.267230128643 0.272201851967 0.283947548319 0.323348455658 0.390839599776 0.456279908023 0.633459697968 0.607482443602 0.540923497607 0.464172518799 0.364116586912 0.246659623392 0
0.0471692250326 0.118140575477 0.219563731278 0.337766453297 0.397116400472 0.417562612641 0.45696351998 0.486856006463 0.506556460133 0.544217264309 0.583618171649 0.623019078988 0.599962712075 0.560499658194 0.521098750855 0.507861537505 0.505686408551 0.48592380834 0.488036790753 0.507923684047 0.48872040271 0.485861661799 0.505686408551 0.508296563296 0.508358709838 0.508234416755 0.49356783295 0.477534025231 0.477596171773 0.465353303089 0.447082219874 0.447020073333 0.437200919769 0.417500466099 0.453483313654 0.493008514076 0.532285128333 0.539494127152 0.534335964204 0.514697657075 0.481449257349 0.450003107327 0.469703560997 0.489341868125 0.50885588217 0.508793735629 0.517618544528 0.537318998198 0.539245540986 0.552109875085 0.591448635883 0.631035982848 0.661984960537 0.661860667454 0.661736374371 0.658380461127 0.619041700329 0.569324467093 0.510409545709 0.470325026412 0.415076750979 0.336523522466 0.257970293953 0.201230501523 0
0.0834006587533 0.13032129762 0.185942452303 0.234665340874 0.254055061836 0.27232614505 0.290659374806 0.312659250513 0.352184450935 0.389534522404 0.408116338326 0.414206699397 0.450748865826 0.486545273756 0.494935056864 0.476726120191 0.4593872351 0.455844882232 0.456217761482 0.451183891616 0.414020259773 0.376173015972 0.356907588093 0.356659001927 0.357031881176 0.356845441551 0.339257970294 0.316512336088 0.351811571686 0.326580075819 0.307998259897 0.305139518986 0.285501211858 0.297681934 0.307066061774 0.307128208315 0.307128208315 0.291529426387 0.282642470946 0.283450375987 0.283450375987 0.283450375987 0.283139643279 0.282704617488 0.282704617488 0.298427692499 0.317009508421 0.33509415201 0.352433037101 0.341992418122 0.342676030079 0.366416008949 0.422907215213 0.462432415636 0.527872723883 0.618793114163 0.691753153937 0.655956746007 0.608290348642 0.564912062644 0.491579143621 0.418184078056 0.325337144988 0.232055186129 0
0.310670561183 0.325710024237 0.360512087502 0.39500341806 0.428748990119 0.453856192903 0.43645516127 0.419054129638 0.402274563421 0.385619290286 0.414393139022 0.447952271456 0.469144242123 0.486545273756 0.503884158847 0.521347337021 0.555279348704 0.605618047356 0.637499223168 0.637499223168 0.621589708533 0.554160710956 0.489590454291 0.455534149525 0.421229258592 0.420483500093 0.421042818967 0.421415698216 0.421539991299 0.421602137841 0.421539991299 0.431048412156 0.447827978373 0.457212106146 0.457336399229 0.457274252688 0.457336399229 0.454477658318 0.437884531726 0.422161456715 0.439003169474 0.455596296066 0.487974644211 0.522030948978 0.516686346405 0.499285314772 0.482381455472 0.465601889255 0.457336399229 0.457274252688 0.463364613759 0.480206326518 0.504754210428 0.554968615997 0.600459884407 0.601143496364 0.601827108321 0.569262320552 0.535703188118 0.487104592629 0.435585109689 0.336958548257 0.219004412404 0.167484929464 0
0.16412901622 0.193337890746 0.228450686719 0.248151140389 0.308619725312 0.38052327388 0.419489155429 0.446025728668 0.458455036977 0.419613448512 0.403828226959 0.403641787335 0.403331054627 0.402958175378 0.404014666584 0.443353427382 0.443664160089 0.404636131999 0.384811385246 0.382946989 0.402398856504 0.385681436828 0.374184326642 0.374060033559 0.374060033559 0.37368715431 0.373127835436 0.356845441551 0.35560251072 0.395065564601 0.403579640793 0.403641787335 0.403766080418 0.403766080418 0.399540115593 0.380088248089 0.373997887018 0.374060033559 0.374122180101 0.386613634951 0.40146665838 0.381952644335 0.373997887018 0.375427257473 0.394754831894 0.392517556398 0.373065688894 0.373065688894 0.383195575166 0.403206761544 0.403890373501 0.421415698216 0.460381579765 0.626374992232 0.723696476291 0.704182462246 0.667578149276 0.621341122367 0.562426200982 0.519917966565 0.462556708719 0.36442731962 0.220620222485 0.104654775962 0
0.121247902554 0.138151761854 0.171897333913 0.214156982164 0.264495680815 0.306693182524 0.3403144615 0.365670250451 0.382449816668 0.40786775216 0.441924056926 0.467466285501 0.484432291343 0.509974519918 0.544155117768 0.569697346343 0.586539059101 0.603318625319 0.620098191536 0.628425828103 0.627990802312 0.602448573737 0.551923435461 0.52656764651 0.52656764651 0.51811571686 0.501336150643 0.484370144801 0.467652725126 0.467714871667 0.484680877509 0.493319246784 0.493692126033 0.502144055683 0.518550742651 0.518364303027 0.501398297185 0.484432291343 0.467590578584 0.450748865826 0.433969299608 0.442421229259 0.475980361693 0.492884220993 0.492884220993 0.509788080293 0.543533652352 0.577527810577 0.611459822261 0.662419986328 0.729476104655 0.780249829097 0.813933254614 0.813933254614 0.780187682555 0.737928034305 0.687589335653 0.653843763595 0.637064197377 0.603132185694 0.55229631471 0.48430799826 0.399726555217 0.3572183208 0
0.0753216083525 0.110682990492 0.186315331552 0.236467590579 0.24858616618 0.256665216581 0.256665216581 0.256727363122 0.256913802747 0.29121869368 0.453483313654 0.599714125909 0.643776023864 0.685352060158 0.695046920639 0.704555341495 0.694487601765 0.684544155118 0.693617550183 0.703374557206 0.694922627556 0.684482008576 0.620781803493 0.546081660556 0.493505686409 0.448387297247 0.389658815487 0.325212851905 0.287489901187 0.26549002548 0.255981604624 0.255981604624 0.255981604624 0.255981604624 0.255981604624 0.255981604624 0.255981604624 0.255981604624 0.262693431111 0.284320427568 0.303523708906 0.315207258716 0.33024672177 0.362127897582 0.391771797899 0.403144615002 0.41513889752 0.437200919769 0.459449381642 0.501709029892 0.544279410851 0.539929152943 0.531912249083 0.584426076689 0.646759057858 0.626188552607 0.583618171649 0.531725809459 0.476912559816 0.414517432105 0.348828537692 0.296252563545 0.252687837922 0.232241625754 0
0.0432539929153 0.0974457771425 0.19911751911 0.274874153253 0.332235411099 0.380461127338 0.423466534087 0.456901373439 0.486296687589 0.492884220993 0.492946367535 0.52936424088 0.572928966503 0.590640730843 0.605183021565 0.60580448698 0.604437263066 0.516934932571 0.436641600895 0.451618917407 0.464669691132 0.465229010006 0.465850475421 0.466347647753 0.46299173451 0.448387297247 0.428748990119 0.398732210552 0.380088248089 0.380150394631 0.386427195327 0.40065875334 0.400285874091 0.385246411037 0.378969610341 0.379777515381 0.389348082779 0.404387545833 0.399291529426 0.384811385246 0.424585171835 0.482878627804 0.48231930893 0.467155552793 0.527997016966 0.600211298241 0.646510471692 0.690385930023 0.733826362563 0.775650985023 0.774843079983 0.772667951029 0.758312099932 0.739108818594 0.695295506805 0.651482195016 0.608725374433 0.561183270151 0.50320054689 0.450065253869 0.40668696787 0.338822944503 0.23652973712 0.181902927102 0
0.262134112237 0.280964514325 0.324094214157 0.3869865142 0.494686470698 0.591945808216 0.635386240756 0.675967932385 0.632713939469 0.589584239637 0.56596855385 0.544217264309 0.489404014667 0.42477161146 0.400845192965 0.400907339507 0.422472189423 0.465477596172 0.500901124852 0.522403828227 0.543968678143 0.565595674601 0.580697284196 0.537629730905 0.494189298366 0.49275992791 0.492697781368 0.474799577404 0.453110434404 0.431545584488 0.409980734572 0.412963768566 0.434652911565 0.43763594556 0.415884656019 0.400845192965 0.400907339507 0.397178547014 0.375737990181 0.355540364179 0.377291653719 0.398918650177 0.401155925673 0.401093779131 0.40103163259 0.401093779131 0.401093779131 0.401155925673 0.411969423902 0.433409980735 0.447206512958 0.447082219874 0.462245976011 0.526691939594 0.580945870362 0.53781617053 0.494313591449 0.471816543409 0.450251693493 0.410477906904 0.367223913989 0.30893045802 0.244298054813 0.216083524952 0
0.25623019079 0.290721521347 0.369896215276 0.430302653657 0.446150021751 0.467155552793 0.5148840967 0.562488347523 0.61021689143 0.657572556087 0.676527251258 0.692250326269 0.671306941769 0.639550059039 0.597663290038 0.550307625381 0.526691939594 0.526629793052 0.52091231123 0.505002796594 0.493008514076 0.493070660618 0.494872910323 0.5108445715 0.527126965384 0.512025355789 0.495929401529 0.493194953701 0.493132807159 0.492946367535 0.493008514076 0.493132807159 0.493132807159 0.506991485924 0.538996954819 0.556460132994 0.540364178733 0.52414393139 0.508296563296 0.492946367535 0.492884220993 0.492884220993 0.492946367535 0.492946367535 0.505189236219 0.520788018147 0.536946118948 0.553042073209 0.585047542104 0.632154620595 0.656391771798 0.640482257162 0.620906096576 0.589024920763 0.555465788329 0.508234416755 0.460816605556 0.428624697036 0.397054253931 0.338636504879 0.275309179044 0.189546951712 0.094649182773 0.0533838791871 0
0.0843950034181 0.137343856814 0.270151016096 0.3869865142 0.431359144864 0.47585606861 0.534895283077 0.594058790628 0.630290224349 0.659996271208 0.638866447082 0.579827232615 0.531104344043 0.501398297185 0.473805232739 0.459014355851 0.444223478963 0.443415573923 0.443415573923 0.421415698216 0.391896090983 0.386054316077 0.400907339507 0.406127648996 0.39139891865 0.37853458455 0.37853458455 0.378472438009 0.392020384066 0.406997700578 0.400783046423 0.386365048785 0.386302902243 0.401280218756 0.416071095644 0.43079982599 0.443104841216 0.428251817786 0.413398794357 0.424523025294 0.439127462557 0.434093592692 0.419054129638 0.418121931515 0.432974954944 0.443850599714 0.443974892797 0.445466409794 0.474923870487 0.504132745013 0.559070287738 0.618171648748 0.630228077807 0.615623640544 0.594493816419 0.564849916102 0.531974395625 0.487601764962 0.442296936176 0.353240942142 0.26468212044 0.199676837984 0.140513330433 0.117084084271 0
0.18985768442 0.217140016158 0.260021129824 0.291032254055 0.323224162575 0.3660431297 0.403144615002 0.432912808402 0.409794294947 0.365732396992 0.394506245727 0.41712758685 0.418805543472 0.395189857684 0.348828537692 0.328568765148 0.316698775713 0.330308868311 0.344664719408 0.360077061712 0.384314212914 0.414020259773 0.391585358275 0.370828413399 0.401653098005 0.412404449692 0.395189857684 0.380026101547 0.365670250451 0.351065813187 0.336212789758 0.322540550618 0.323037722951 0.337952892922 0.32943881673 0.314585793301 0.314523646759 0.314585793301 0.314585793301 0.323597041825 0.339071530669 0.366788888198 0.391212479026 0.376856627929 0.36765893978 0.366602448574 0.366540302032 0.367161767448 0.352246597477 0.345659064073 0.376545895221 0.398732210552 0.411410105028 0.513765458952 0.644086756572 0.615499347461 0.58647691256 0.55670871916 0.510658131875 0.45174321049 0.393946926854 0.336772108632 0.277235721832 0.23932633149 0
0.130818469952 0.191038468709 0.29848983904 0.364800198869 0.410726493071 0.432726368778 0.448449443788 0.477658318315 0.508234416755 0.53943198061 0.550307625381 0.443104841216 0.363495121496 0.362749362998 0.368156112112 0.383444161332 0.390901746318 0.390901746318 0.390901746318 0.390901746318 0.391088185942 0.391212479026 0.391771797899 0.392268970232 0.377540239886 0.362065751041 0.346156236405 0.339755142626 0.370331241066 0.390963892859 0.390963892859 0.391274625567 0.391833944441 0.374681498975 0.343732521285 0.354421726431 0.385246411037 0.415822509477 0.446336461376 0.435150083898 0.420234913927 0.404387545833 0.393263314897 0.409297122615 0.421042818967 0.420483500093 0.414082406314 0.398670064011 0.429556895159 0.50643216705 0.554844322913 0.585358274812 0.593996644087 0.594742402585 0.58125660307 0.565284941893 0.520415138898 0.47585606861 0.445342116711 0.411596544652 0.364986638494 0.308557578771 0.231930893046 0.188987632838 0
0.144242122926 0.171959480455 0.209620284631 0.229445031384 0.279100118078 0.358150518924 0.401777391088 0.447392952582 0.506680753216 0.538437635946 0.55229631471 0.512833260829 0.512771114287 0.55229631471 0.538499782487 0.512646821204 0.473121620782 0.461189484805 0.461189484805 0.461251631347 0.441426884594 0.401777391088 0.415636069853 0.423528680629 0.403766080418 0.397800012429 0.399788701759 0.419613448512 0.409732148406 0.3700826549 0.383941333665 0.397800012429 0.397800012429 0.383941333665 0.368093965571 0.387856565782 0.387918712324 0.368093965571 0.383941333665 0.403766080418 0.423528680629 0.429432602076 0.429494748617 0.429494748617 0.429494748617 0.429494748617 0.429494748617 0.435460816606 0.455223416817 0.488906842334 0.530545025169 0.589957118886 0.679323845628 0.797899446896 0.756385557144 0.70878130632 0.689018706109 0.641414455286 0.582002361569 0.522714560935 0.453234727487 0.374060033559 0.259337517867 0.175936859114 0
0.134609408986 0.181467901311 0.252377105214 0.288670685476 0.334472686595 0.405381890498 0.497731651234 0.60338077186 0.644708221987 0.659374805792 0.60661239202 0.563047666397 0.527313405009 0.507488658256 0.489776893916 0.471940836492 0.472065129576 0.490087626624 0.493132807159 0.485985954882 0.433099248027 0.387980858865 0.352743769809 0.344291840159 0.344353986701 0.344291840159 0.344353986701 0.344353986701 0.331800385309 0.314647939842 0.314647939842 0.320738300914 0.338263625629 0.332732583432 0.315020819091 0.348952830775 0.368901870611 0.351314399354 0.344353986701 0.344353986701 0.344353986701 0.344416133242 0.344291840159 0.344353986701 0.344353986701 0.359642035921 0.374122180101 0.374060033559 0.365297371201 0.347585606861 0.373127835436 0.408178484867 0.443664160089 0.471257224535 0.48872040271 0.574358336959 0.667764588901 0.614380709714 0.561183270151 0.508296563296 0.429743334783 0.340376608042 0.216580697284 0.134609408986 0
0.116524765397 0.172829532037 0.264806413523 0.310919147349 0.348890684233 0.403952520042 0.469641414455 0.561618295942 0.626188552607 0.662979305202 0.686470697906 0.704803927661 0.688521533777 0.660990615872 0.587409110683 0.535454601951 0.516872786029 0.498353116649 0.479709154186 0.461189484805 0.443912746256 0.443912746256 0.443912746256 0.443912746256 0.443912746256 0.443788453173 0.443912746256 0.443912746256 0.461313777888 0.470511466037 0.433720713442 0.418494810764 0.437014480144 0.455596296066 0.473991672363 0.477098999441 0.478093344105 0.496426573861 0.504567770804 0.486296687589 0.495432229196 0.532036542166 0.542352868063 0.542290721521 0.524827543347 0.509166614878 0.509042321795 0.516127027531 0.534398110745 0.586601205643 0.660244857374 0.657323969921 0.637996395501 0.601205642906 0.569510906718 0.551115530421 0.523522465975 0.486793859922 0.463240320676 0.44490709092 0.391833944441 0.324280653782 0.195948045491 0.117084084271 0
0.0295817537754 0.0824063140886 0.168230687962 0.234292461625 0.293269529551 0.306258156734 0.322851283326 0.349077123858 0.38052327388 0.417251879933 0.435833695855 0.447206512958 0.390093841278 0.330433161395 0.27997016966 0.258902492076 0.284133987944 0.309614069977 0.33465912622 0.348455658443 0.360449940961 0.386862221117 0.402274563421 0.389099496613 0.389472375862 0.403393201168 0.406997700578 0.406749114412 0.441613324219 0.472686594991 0.472686594991 0.46659623392 0.451121745075 0.461686657138 0.488596109626 0.450686719284 0.402958175378 0.404449692375 0.405009011249 0.404014666584 0.397737865888 0.386427195327 0.383009135542 0.382574109751 0.360077061712 0.340190168417 0.339444409919 0.35398670064 0.39139891865 0.413833820148 0.426076688832 0.375862283264 0.318873904667 0.355788950345 0.382760549375 0.384376359456 0.409980734572 0.458827916226 0.444223478963 0.405133304332 0.357466906967 0.306568889441 0.244111615189 0.205642905972 0
0.123982350382 0.135852339817 0.189919830961 0.243676589398 0.28599838419 0.32179479212 0.357839786216 0.393946926854 0.429929774408 0.466161208129 0.502268348766 0.538437635946 0.574544776583 0.610341184513 0.638866447082 0.656826797589 0.674849294637 0.692809645143 0.710583556025 0.723199303959 0.723199303959 0.723199303959 0.7232614505 0.723510036666 0.720216269965 0.702069479833 0.683984836244 0.665900192654 0.647939842148 0.629730905475 0.611770554969 0.593748057921 0.575787707414 0.557827356908 0.539742713318 0.555714374495 0.57361257846 0.584798955938 0.584674662855 0.584674662855 0.584674662855 0.584550369772 0.589211360388 0.60742029706 0.625442794109 0.656267478715 0.692063886645 0.733267043689 0.805605618047 0.87732272699 0.897209620285 0.879249269778 0.860543160773 0.806475669629 0.752346031943 0.706544030825 0.670747622895 0.634640482257 0.614877882046 0.596855384998 0.548194642968 0.440743272637 0.332546143807 0.308744018395 0
0.0986887079734 0.13715741719 0.209620284631 0.265303585855 0.309303337269 0.381269032378 0.467777018209 0.524019638307 0.567646510472 0.61102479647 0.654092349761 0.673109191473 0.687527189112 0.715493132807 0.745199179666 0.7747187869 0.802871170219 0.730656888944 0.659001926543 0.600459884407 0.545895220931 0.516313467156 0.486607420297 0.457336399229 0.43564725623 0.436517307812 0.436890187061 0.436330868187 0.425020197626 0.396184202349 0.386675781493 0.401653098005 0.409421415698 0.409670001864 0.409670001864 0.409234976074 0.399788701759 0.384376359456 0.399788701759 0.429246162451 0.425828102666 0.410726493071 0.407743459077 0.407743459077 0.445839289044 0.489590454291 0.506245727425 0.520415138898 0.56435274377 0.609471132931 0.667018830402 0.71723323597 0.702628798707 0.687962214903 0.672922751849 0.648188428314 0.591200049717 0.529115654714 0.455782735691 0.382387670126 0.309986949226 0.213473370207 0.0829656329625 0.0135479460568 0
0.121993661053 0.203467777018 0.33105462681 0.357404760425 0.375551550556 0.406624821329 0.438319557517 0.470387172954 0.490584798956 0.506121434342 0.521533776645 0.524889689889 0.493878565658 0.470573612578 0.454415511777 0.438692436766 0.423528680629 0.407681312535 0.391958237524 0.376235162513 0.361071406376 0.346529115655 0.315331551799 0.28680628923 0.287303461562 0.293828848425 0.309365483811 0.303523708906 0.288235659686 0.272015412342 0.26710583556 0.299359890622 0.315082965633 0.314275060593 0.31415076751 0.31415076751 0.31415076751 0.309241190728 0.293828848425 0.277670747623 0.261512646821 0.246224597601 0.233049530794 0.232552358461 0.238767012616 0.255484432291 0.272139705425 0.288670685476 0.304145174321 0.319495370083 0.334348393512 0.34994717544 0.365918836617 0.417997638431 0.483251507054 0.623702690945 0.71642533093 0.685538499782 0.645018954695 0.596979678081 0.536448946616 0.472127276117 0.393511901063 0.343359642036 0
0.0432539929153 0.0815984090485 0.137841029147 0.210241750047 0.250015536635 0.268410912933 0.304953079361 0.340998073457 0.376980921012 0.413585233982 0.45012740041 0.485550929091 0.506991485924 0.524827543347 0.542912186937 0.524765396806 0.494872910323 0.512646821204 0.500466099062 0.463613199925 0.481759990057 0.492511341744 0.492884220993 0.524392517556 0.549624013424 0.54906469455 0.549561866882 0.54707600522 0.52936424088 0.522279535144 0.522714560935 0.53943198061 0.529737120129 0.493629979492 0.492262755578 0.493319246784 0.494313591449 0.493692126033 0.492884220993 0.493008514076 0.480579205767 0.467652725126 0.486420980672 0.483624386303 0.464918277298 0.445901435585 0.452053943198 0.488844695793 0.508731589087 0.526629793052 0.545087315891 0.604623702691 0.657572556087 0.639922938288 0.610589770679 0.575166241999 0.539183394444 0.502516934933 0.465042570381 0.429246162451 0.393574047604 0.357964079299 0.321359766329 0.294823193089 0
0.135355167485 0.135355167485 0.193213597663 0.263252749984 0.333975514263 0.393076875272 0.43763594556 0.482008576223 0.527375551551 0.580635137655 0.633335404885 0.686532844447 0.720775588838 0.74700142937 0.773600149152 0.791063327326 0.791063327326 0.791001180784 0.791001180784 0.773724442235 0.755950531353 0.738052327388 0.677521595923 0.58890062768 0.501149711019 0.427319619663 0.400845192965 0.374370766267 0.347834193027 0.352122304394 0.360698527127 0.369709775651 0.374184326642 0.374122180101 0.373997887018 0.372941395811 0.364116586912 0.355291778013 0.34634267603 0.364551612703 0.390901746318 0.417438319558 0.461562364054 0.532658007582 0.603007892611 0.674103536138 0.745199179666 0.81536262507 0.886644708222 0.899198309614 0.881424398732 0.863774780933 0.846000870052 0.828102666087 0.810266608663 0.79243055124 0.750419489155 0.706481884283 0.662295693245 0.583493878566 0.476726120191 0.371076999565 0.283885401777 0.283947548319 0
0.0453048287863 0.116276179231 0.302032191909 0.386675781493 0.453794046361 0.516127027531 0.582126654652 0.623019078988 0.629295879684 0.616742278292 0.530917904419 0.457149959605 0.384127773289 0.344291840159 0.342862469704 0.329128084022 0.310049095768 0.291653719471 0.284196134485 0.293828848425 0.304207320863 0.304145174321 0.300727114536 0.289416443975 0.305388105152 0.305201665527 0.286557703064 0.268038033683 0.278975824995 0.297433347834 0.30371014853 0.293455969175 0.275309179044 0.248959045429 0.224286868436 0.219936610528 0.205207880181 0.206512957554 0.224162575353 0.224286868436 0.240196383071 0.243303710149 0.243303710149 0.256043751165 0.264495680815 0.264184948108 0.263314896526 0.26306631036 0.268783792182 0.282207445156 0.265676465105 0.265552172022 0.281088807408 0.28400969486 0.298676278665 0.316263749922 0.334472686595 0.413212354732 0.508296563296 0.535516748493 0.505686408551 0.44409918588 0.340625194208 0.163942576596 0
0.159654465229 0.19389720962 0.245913864893 0.280467341992 0.309676216519 0.326766515443 0.343856814368 0.360947113293 0.394381952644 0.425082344168 0.442234789634 0.44931949537 0.44851159033 0.508110123672 0.567832950096 0.585358274812 0.594307376794 0.595053135293 0.496613013486 0.392393263315 0.392331116773 0.376608041762 0.341743831956 0.320427568206 0.30613386365 0.323162016034 0.340252314959 0.357280467342 0.337952892922 0.305201665527 0.32260269716 0.334099807346 0.333789074638 0.345348331365 0.362811509539 0.362625069915 0.3572183208 0.340190168417 0.333540488472 0.333664781555 0.333540488472 0.337580013672 0.354546019514 0.362190044124 0.362190044124 0.347337020695 0.339879435709 0.374805792058 0.392393263315 0.392331116773 0.405692623206 0.426511714623 0.478466223355 0.530607171711 0.582623826984 0.581878068485 0.563420545647 0.528494189298 0.466471940836 0.363370828413 0.296376856628 0.243179417065 0.141010502766 0.0734572121061 0
0.12510098813 0.164626188553 0.205518612889 0.230066496799 0.277422161457 0.287924926978 0.268162326767 0.292585917594 0.334037660804 0.377291653719 0.402212416879 0.446833633708 0.455099123734 0.405257597415 0.404760425082 0.404698278541 0.401155925673 0.37611086943 0.333664781555 0.307003915232 0.332235411099 0.313964327885 0.312099931639 0.335715617426 0.335964203592 0.351127959729 0.366105276241 0.341246659623 0.354110993723 0.361692871792 0.337331427506 0.335342738177 0.335404884718 0.337393574048 0.361755018333 0.370144801442 0.358771984339 0.310049095768 0.321421912871 0.32701510161 0.301659312659 0.300727114536 0.327387980859 0.370393387608 0.370206947983 0.370144801442 0.363370828413 0.338885091045 0.33546703126 0.345969796781 0.369771922193 0.345659064073 0.350009321981 0.374184326642 0.398545770928 0.459822260891 0.510285252626 0.510285252626 0.554968615997 0.545584488223 0.472686594991 0.422907215213 0.342427443913 0.265241439314 0
0.129948418371 0.158722267106 0.20234913927 0.25865390591 0.307376794481 0.336150643217 0.382387670126 0.439873221055 0.470884345286 0.499720340563 0.528680628923 0.550059039214 0.565719967684 0.529923559754 0.494189298366 0.493878565658 0.493194953701 0.492449195202 0.504070598471 0.513206140078 0.486545273756 0.439003169474 0.366353862408 0.360263501336 0.372506370021 0.355788950345 0.340749487291 0.32782300665 0.324094214157 0.324467093406 0.337144987881 0.346094089864 0.347399167236 0.357466906967 0.371760611522 0.357094027717 0.350195761606 0.36442731962 0.362190044124 0.3491392704 0.333913367721 0.325399291529 0.339692996085 0.354608166056 0.3700826549 0.408240631409 0.439873221055 0.427008886955 0.434155739233 0.46137592443 0.479460568019 0.500776831769 0.558013796532 0.628487974644 0.713939469269 0.712510098813 0.682990491579 0.641041576036 0.59816046237 0.554036417873 0.500217512895 0.442607668883 0.371760611522 0.32502641228 0
0.108570008079 0.165434093593 0.231433720713 0.231495867255 0.255111553042 0.293455969175 0.293331676092 0.340252314959 0.438505997141 0.500776831769 0.552917780126 0.592256540923 0.647194083649 0.688335094152 0.668758933565 0.622521906656 0.563358399105 0.504194891554 0.477534025231 0.477658318315 0.458206450811 0.4384438506 0.418805543472 0.416257535268 0.416133242185 0.415822509477 0.43042694674 0.446460754459 0.446522901001 0.446460754459 0.446522901001 0.446522901001 0.446522901001 0.446522901001 0.428065378162 0.415822509477 0.415760362936 0.399726555217 0.385059971413 0.385122117954 0.39904294326 0.421602137841 0.461251631347 0.478093344105 0.477906904481 0.458144304269 0.438505997141 0.418929836555 0.434093592692 0.453856192903 0.473494500031 0.478031197564 0.490398359331 0.549313280716 0.557330184575 0.536013920825 0.496426573861 0.456901373439 0.417438319558 0.359020570505 0.315580137965 0.295879684296 0.193835063079 0.108570008079 0
0.196196631657 0.26468212044 0.36846684482 0.451432477783 0.510223106084 0.510223106084 0.510160959543 0.509974519918 0.4722515692 0.431172705239 0.389472375862 0.393760487229 0.435274376981 0.405133304332 0.371449878814 0.370704120316 0.360077061712 0.339568703002 0.301348579952 0.267789447517 0.28923000435 0.319495370083 0.360636380585 0.354732459139 0.335529177801 0.33546703126 0.33546703126 0.335404884718 0.335404884718 0.334472686595 0.293145236468 0.266111490896 0.266111490896 0.279659436952 0.300292088745 0.280715928159 0.260083276366 0.239637064197 0.231495867255 0.231495867255 0.250450562426 0.256354483873 0.215151326829 0.219439438195 0.260704741781 0.266235783979 0.270151016096 0.290535081723 0.311043440433 0.331613945684 0.352308744018 0.367410353614 0.346715555279 0.353924554099 0.395376297309 0.453483313654 0.521409483562 0.645578273569 0.704493194954 0.662295693245 0.590951463551 0.507612951339 0.403952520042 0.33546703126 0
0.00845192965011 0.0446212168293 0.0883102355354 0.119942825182 0.139954011559 0.165620533217 0.212914051333 0.222236032565 0.23733764216 0.285128332608 0.318501025418 0.344291840159 0.361568578709 0.391088185942 0.399726555217 0.367161767448 0.378223851843 0.400596606799 0.430613386365 0.42116711205 0.411720837735 0.409172829532 0.394381952644 0.393201168355 0.411720837735 0.41029146728 0.402150270337 0.387483686533 0.403144615002 0.418929836555 0.433845006525 0.479336274936 0.495121496489 0.481138524641 0.481138524641 0.480517059226 0.479398421478 0.480765645392 0.490025480082 0.505686408551 0.521782362812 0.537629730905 0.550618358088 0.534522403828 0.537691877447 0.55552793487 0.587595550308 0.609533279473 0.624945621776 0.640233670996 0.676775837425 0.715182400099 0.698278540799 0.671493381393 0.6427816792 0.628177241936 0.601889254863 0.567149338139 0.519731526941 0.472189422659 0.417686905724 0.338201479088 0.235473245914 0.152072587161 0
0.0194518675036 0.150953949413 0.299359890622 0.343546081661 0.372506370021 0.390901746318 0.390901746318 0.419427008887 0.458517183519 0.458517183519 0.472002983034 0.491330557454 0.469206388664 0.471132931452 0.492884220993 0.493008514076 0.459697967808 0.393511901063 0.413460940899 0.405630476664 0.361382139084 0.378783170717 0.391896090983 0.391896090983 0.391896090983 0.399788701759 0.421850724007 0.4255795165 0.425517369958 0.425144490709 0.442731961966 0.453607606737 0.431421291405 0.4255795165 0.420856379342 0.398732210552 0.391896090983 0.395562736934 0.417686905724 0.411347958486 0.394506245727 0.416630414517 0.4255795165 0.427071033497 0.449195202287 0.459262942017 0.458703623143 0.436579454353 0.414517432105 0.392393263315 0.456714933814 0.493194953701 0.493194953701 0.554533590206 0.621216829283 0.68783792182 0.676465104717 0.63836927475 0.571499596047 0.541917842272 0.505997141259 0.439562488348 0.321111180163 0.222484618731 0
0.0412653035859 0.13516872786 0.268970231807 0.302653657324 0.344043253993 0.396743521223 0.435398670064 0.471070784911 0.52172021627 0.556397986452 0.573239699211 0.605742340439 0.631222422472 0.615126468212 0.521782362812 0.366353862408 0.351127959729 0.354981045305 0.372195637313 0.368528991362 0.35237089056 0.318936051209 0.302715803866 0.319619663166 0.323845627991 0.324032067615 0.340625194208 0.343235348953 0.326145050028 0.309365483811 0.297309054751 0.315082965633 0.315953017215 0.299608476788 0.297309054751 0.300975700702 0.317195948045 0.323534895283 0.322540550618 0.322478404077 0.322540550618 0.322540550618 0.322664843701 0.323037722951 0.324032067615 0.318252439252 0.301348579952 0.308619725312 0.324404946865 0.341246659623 0.374184326642 0.426822447331 0.450624572743 0.48188428314 0.58448822323 0.606736685103 0.555776521037 0.519110061525 0.488533963085 0.470697905662 0.412466596234 0.327760860108 0.208625939966 0.126406065502 0
0.204710707849 0.291280840221 0.373500714685 0.430675532907 0.472562301908 0.530296439003 0.560872537443 0.564414890311 0.585544714437 0.606239512771 0.626685724939 0.639922938288 0.619663165745 0.615872226711 0.605120875023 0.581008016904 0.541482816481 0.535268162327 0.524516810639 0.506307873967 0.506307873967 0.489590454291 0.479398421478 0.479274128395 0.479522714561 0.496302280778 0.496240134237 0.479460568019 0.47908768877 0.495742961904 0.505810701634 0.505810701634 0.505437822385 0.489776893916 0.46982785408 0.45895220931 0.500341805978 0.489901186999 0.479336274936 0.482630041638 0.503511279597 0.489839040457 0.469454974831 0.449195202287 0.427319619663 0.458703623143 0.479647007644 0.482878627804 0.503262693431 0.490895531664 0.501522590268 0.541669256106 0.582313094276 0.623951277111 0.644956808154 0.637934248959 0.595550307625 0.537132558573 0.496177987695 0.469268535206 0.40749487291 0.345472624448 0.26306631036 0.177925548443 0
0.0551239823504 0.128084022124 0.232428065378 0.274936299795 0.317568827295 0.359828475545 0.3700826549 0.372568516562 0.393698340687 0.414828164813 0.435957988938 0.457522838854 0.483624386303 0.526691939594 0.545770927848 0.545584488223 0.54546019514 0.533590205705 0.491268410913 0.461997389845 0.440370393388 0.461562364054 0.475607482444 0.475607482444 0.475172456653 0.473183767323 0.451991796657 0.439624634889 0.439562488348 0.456652787272 0.472562301908 0.451370331241 0.440805419178 0.440805419178 0.440743272637 0.440805419178 0.440929712262 0.440991858803 0.441302591511 0.441426884594 0.441302591511 0.441364738052 0.455161270275 0.475731775527 0.454229072152 0.456714933814 0.499036728606 0.525697594929 0.546392393263 0.568019389721 0.589459946554 0.610527624138 0.597601143496 0.590702877385 0.654651668635 0.67416568268 0.652973712013 0.6130134858 0.565347088435 0.50121185756 0.449878814244 0.407246286744 0.302840096949 0.230315082966 0
0.205642905972 0.258405319744 0.348144925735 0.393263314897 0.423901559878 0.48070349885 0.537132558573 0.567087191598 0.596979678081 0.626126406066 0.635634826922 0.620346777702 0.606301659313 0.592878006339 0.530234292462 0.454664097943 0.466409794295 0.478217637188 0.463364613759 0.452799701697 0.452861848238 0.466844820086 0.496488720403 0.496861599652 0.480952085016 0.466036915046 0.451370331241 0.40668696787 0.368591137903 0.369461189485 0.370144801442 0.370144801442 0.362811509539 0.348144925735 0.353054502517 0.36765893978 0.356472562302 0.340811633833 0.340811633833 0.340998073457 0.341308806165 0.347088434529 0.362811509539 0.377788826052 0.392393263315 0.42881113666 0.474426698154 0.493132807159 0.508545149462 0.538313342862 0.568330122429 0.599589832826 0.652538686222 0.740600335591 0.763283823255 0.734074948729 0.693431110559 0.648685600646 0.590578584302 0.527997016966 0.421726430924 0.315890870673 0.21198185321 0.15082965633 0
0.087813063203 0.0968243117271 0.125163134672 0.153688397241 0.155117767696 0.155179914238 0.196072338574 0.266857249394 0.326455782736 0.340687340749 0.355105338388 0.381455472003 0.410042881114 0.4255795165 0.4255795165 0.422969361755 0.394319806103 0.365794543534 0.368404698279 0.382574109751 0.386862221117 0.372692809645 0.358461251631 0.358088372382 0.358150518924 0.366602448574 0.380834006588 0.395127711143 0.409359269157 0.423715120254 0.437946678267 0.45211608974 0.45211608974 0.437884531726 0.427443912746 0.441613324219 0.455844882232 0.459325088559 0.459262942017 0.453483313654 0.438754583307 0.425144490709 0.468647069791 0.511838916164 0.536262506991 0.550059039214 0.568330122429 0.596420359207 0.625007768318 0.666770244236 0.70958921136 0.729662544279 0.729662544279 0.722515692002 0.679572431794 0.637002050836 0.605431607731 0.576782052079 0.523833198682 0.438941022932 0.354359579889 0.282518177863 0.211484680878 0.188801193214 0
0.0587906283015 0.14119694239 0.227829221304 0.306382449817 0.384314212914 0.519855820024 0.554595736747 0.562861226773 0.581691628861 0.602013547946 0.655459573675 0.664843701448 0.646075445901 0.627245043813 0.568951587844 0.539121247903 0.510223106084 0.477223292524 0.455161270275 0.382760549375 0.370704120316 0.383568454416 0.381704058169 0.361071406376 0.326145050028 0.31819029271 0.321111180163 0.282207445156 0.263998508483 0.25865390591 0.266546516686 0.277297868374 0.239574917656 0.267727300976 0.272574731216 0.247218942266 0.211049655087 0.248524019638 0.244608787521 0.234168168541 0.236964762911 0.256354483873 0.259648250575 0.260331862532 0.272201851967 0.303212976198 0.266235783979 0.258032440495 0.256913802747 0.264060655025 0.30489093282 0.325772170779 0.319122490833 0.343670374744 0.439189609098 0.515567708657 0.497545211609 0.470076440246 0.446709340625 0.407681312535 0.350382201231 0.291715866012 0.20918525884 0.110496550867 0
0.116524765397 0.143682804052 0.185010254179 0.264619973898 0.344540426325 0.424025852961 0.473929525822 0.514014045118 0.554036417873 0.537256851656 0.457647131937 0.460940898639 0.473308060406 0.453483313654 0.433285687651 0.413398794357 0.411410105028 0.416568267976 0.436579454353 0.456342054565 0.476353240942 0.378348144926 0.319868249332 0.33950655646 0.345348331365 0.345348331365 0.345348331365 0.345348331365 0.345348331365 0.345348331365 0.345348331365 0.345348331365 0.335342738177 0.315393698341 0.312659250513 0.312659250513 0.312659250513 0.324156360699 0.344043253993 0.345348331365 0.33950655646 0.319557516624 0.312659250513 0.313156422845 0.352992355975 0.363184388789 0.3234106022 0.341992418122 0.376856627929 0.356845441551 0.372817102728 0.432726368778 0.460505872848 0.490398359331 0.569821639426 0.628798707352 0.668510347399 0.637747809334 0.592815859797 0.533093033373 0.449133055745 0.349698589274 0.211671120502 0.116586911938 0
0.0607171710894 0.10819712883 0.188925486297 0.249021191971 0.302218631533 0.369399042943 0.435087937356 0.47504816357 0.508110123672 0.522093095519 0.523833198682 0.510160959543 0.480392766143 0.440556833012 0.420732086259 0.406251942079 0.380398980797 0.357280467342 0.357094027717 0.369399042943 0.411161518861 0.419986327761 0.391771797899 0.354918898763 0.313840034802 0.306258156734 0.306631035983 0.307873966814 0.311043440433 0.323783481449 0.332173264558 0.332297557641 0.318625318501 0.291342986763 0.292275184886 0.307066061774 0.319557516624 0.331551799142 0.332421850724 0.333167609223 0.333043316139 0.327947299733 0.313591448636 0.321297619787 0.348393511901 0.356596855385 0.356534708843 0.381206885837 0.407805605618 0.406873407495 0.406127648996 0.406127648996 0.411347958486 0.424647318377 0.43807097135 0.4513081847 0.435398670064 0.408737803741 0.382014790877 0.355353924554 0.32782300665 0.293890994966 0.239947796905 0.208253060717 0
0.189360512088 0.229320738301 0.29003790939 0.303523708906 0.318873904667 0.34193027158 0.373065688894 0.409359269157 0.433285687651 0.448076564539 0.436703747436 0.42477161146 0.412839475483 0.410850786154 0.405816916289 0.380896153129 0.3869865142 0.424087999503 0.421602137841 0.413336647816 0.425517369958 0.421726430924 0.398421477845 0.384065626748 0.375178671307 0.399540115593 0.414393139022 0.414828164813 0.421291405133 0.429743334783 0.419613448512 0.417376173016 0.430489093282 0.449257348829 0.470822198745 0.448387297247 0.435274376981 0.448014417998 0.460505872848 0.472686594991 0.482443602014 0.493381393325 0.508731589087 0.514573363992 0.512584674663 0.502641228016 0.493443539867 0.492138462495 0.473680939656 0.438133117892 0.440929712262 0.454229072152 0.480268473059 0.482940774346 0.457025666522 0.442048350009 0.427692498912 0.379901808464 0.336337082841 0.299981356038 0.255608725374 0.207507302219 0.135852339817 0.0885588217016 0
0.214654154496 0.275184885961 0.353800261015 0.420607793176 0.464731837673 0.495618668821 0.511901062706 0.507115779007 0.486856006463 0.436268721646 0.385867876453 0.339382263377 0.339382263377 0.330495307936 0.314275060593 0.297992666708 0.306382449817 0.339692996085 0.339692996085 0.324342800323 0.291342986763 0.290162202473 0.297122615126 0.312845690137 0.331241066435 0.33708284134 0.319557516624 0.330619601019 0.34715058107 0.362811509539 0.366105276241 0.361879311416 0.345659064073 0.328382325524 0.314710086384 0.314585793301 0.32583431732 0.336709962091 0.320427568206 0.315020819091 0.317755266919 0.335342738177 0.341246659623 0.33950655646 0.339444409919 0.340190168417 0.341805978497 0.359393449755 0.392952582189 0.442296936176 0.443415573923 0.442234789634 0.439562488348 0.53458455037 0.595115281835 0.593188739047 0.59294015288 0.569386613635 0.503884158847 0.436579454353 0.359269156671 0.260580448698 0.121247902554 0.00963271393947 0
0.0316325896464 0.0693555403642 0.145298614132 0.20676154372 0.253620036045 0.294823193089 0.331178919893 0.365608103909 0.398670064011 0.442856255049 0.498228823566 0.519917966565 0.507923684047 0.485488782549 0.452986141321 0.425268783792 0.402585296128 0.402771735753 0.426200981915 0.430861972531 0.416941147225 0.411223665403 0.41352308744 0.391523211733 0.345286184824 0.322105524828 0.322105524828 0.333291902306 0.355540364179 0.356286122677 0.335280591635 0.324280653782 0.323472748742 0.323099869492 0.323099869492 0.305760984401 0.271083214219 0.243179417065 0.222360325648 0.211919706668 0.211919706668 0.217450748866 0.228699272885 0.262942017277 0.320551861289 0.34876639115 0.347709899944 0.358212665465 0.38052327388 0.408613510658 0.443104841216 0.499533900938 0.578273569076 0.639674352122 0.684046982785 0.668075321608 0.59169722205 0.524268224473 0.466036915046 0.403579640793 0.336834255174 0.229569324467 0.0826549002548 0.00894910198247 0
0.0204462121683 0.0661860667454 0.127089677459 0.14964887204 0.16089739606 0.16089739606 0.200609036107 0.237896961034 0.259586104033 0.281337393574 0.300727114536 0.300727114536 0.33385122118 0.399602262134 0.445217823628 0.482195015847 0.503697719222 0.495121496489 0.477782611398 0.500031073271 0.511031011124 0.510285252626 0.510409545709 0.510285252626 0.510285252626 0.510347399167 0.50804797713 0.486296687589 0.453607606737 0.410602199988 0.426076688832 0.447827978373 0.469392828289 0.522155242061 0.57883288795 0.556584426077 0.523211733267 0.478652662979 0.474861723945 0.488596109626 0.532347274874 0.545957367473 0.548505375676 0.569448760176 0.579951525698 0.579951525698 0.619414579579 0.650363557268 0.650114971102 0.69628985147 0.751103101112 0.707103349699 0.663414330992 0.620036044994 0.615810080169 0.602510720278 0.558883848114 0.499844633646 0.436517307812 0.392641849481 0.337952892922 0.272512584675 0.147598036169 0.0551239823504 0
0.114536076067 0.214902740662 0.31819029271 0.395500590392 0.451370331241 0.505499968927 0.554098564415 0.593685911379 0.62146541545 0.648747747188 0.667826735442 0.667080976944 0.580324404947 0.508234416755 0.459511528183 0.433969299608 0.418681250388 0.404511838916 0.391088185942 0.390653160152 0.400596606799 0.387048660742 0.332608290349 0.279224411162 0.261326207197 0.26145050028 0.261388353738 0.248772605804 0.243738735939 0.247591821515 0.261699086446 0.263625629234 0.256975949288 0.245540985644 0.245540985644 0.244919520229 0.250326269343 0.262817724194 0.247902554223 0.243303710149 0.243303710149 0.243303710149 0.281834565906 0.289540737058 0.286060530731 0.313218569387 0.342178857747 0.3700826549 0.392393263315 0.392393263315 0.413212354732 0.451867503573 0.50724007209 0.575787707414 0.633459697968 0.64924491952 0.596171773041 0.568578708595 0.531725809459 0.479584861102 0.399975141383 0.293518115717 0.154807034989 0.0219377291654 0
0.16412901622 0.19427008887 0.254427941085 0.284693306817 0.284693306817 0.307003915232 0.351625132061 0.388913056988 0.418556957305 0.455782735691 0.500279659437 0.530047852837 0.544900876266 0.574917655832 0.619849605369 0.642470946492 0.642470946492 0.649866384936 0.664719408365 0.649617798769 0.604810142316 0.574855509291 0.560064632403 0.545087315891 0.530109999379 0.544963022808 0.589397800012 0.589397800012 0.544963022808 0.522590267852 0.522590267852 0.530358585545 0.545770927848 0.553601392083 0.553601392083 0.560934683985 0.575476974706 0.590019265428 0.604437263066 0.619290286496 0.634019016842 0.649182772979 0.664470822199 0.686967870238 0.716673917097 0.716673917097 0.687092163321 0.664719408365 0.649866384936 0.634826921882 0.619601019203 0.589584239637 0.545025169349 0.507737244422 0.478093344105 0.455720589149 0.44086756572 0.41109937232 0.366664595115 0.291840159095 0.187558262383 0.105089801753 0.0454912684109 0.0155366353862 0
0.125971039712 0.187247529675 0.309551923435 0.388353738114 0.423466534087 0.449568081536 0.466969113169 0.484245851718 0.501646883351 0.510285252626 0.510285252626 0.501709029892 0.48430799826 0.475980361693 0.47666397365 0.485550929091 0.502951960723 0.50282766764 0.485240196383 0.458827916226 0.423715120254 0.414517432105 0.431421291405 0.439873221055 0.439873221055 0.448884469579 0.466782673544 0.458517183519 0.423528680629 0.432477782611 0.485302342925 0.537691877447 0.589832825803 0.659561245417 0.746814989746 0.808340065875 0.84351500839 0.782238518426 0.624510595985 0.536759679324 0.519482940774 0.484805170592 0.432229196445 0.397551426263 0.380150394631 0.371076999565 0.370393387608 0.387421539991 0.422099310173 0.439500341806 0.439935367597 0.484183705177 0.571686035672 0.607109564353 0.58970853272 0.563358399105 0.527997016966 0.501646883351 0.484245851718 0.431732024113 0.344540426325 0.256975949288 0.169660058418 0.125971039712 0
0.0635759120005 0.138835373811 0.280218755826 0.397737865888 0.498104530483 0.533341619539 0.533279472997 0.547138151762 0.566714312349 0.539929152943 0.499658194022 0.509042321795 0.528494189298 0.585233981729 0.646386178609 0.667764588901 0.68703001678 0.68703001678 0.680939655708 0.602013547946 0.538996954819 0.578522155242 0.61021689143 0.609968305264 0.604685849232 0.584923249021 0.565098502268 0.545708781306 0.517867130694 0.476353240942 0.461624510596 0.481635696973 0.482008576223 0.462618855261 0.465291156547 0.485364489466 0.492946367535 0.492884220993 0.492884220993 0.492946367535 0.492946367535 0.492946367535 0.492387048661 0.491765583245 0.474302405071 0.454353365235 0.490274066248 0.530545025169 0.571872475297 0.617674476415 0.757255608725 0.878565657821 0.838418991983 0.79808588652 0.75824995339 0.713690883102 0.653719470511 0.587533403766 0.506183580884 0.432229196445 0.372754956187 0.296003977379 0.195140140451 0.141569821639 0
0.0491579143621 0.1150332484 0.20999316388 0.267789447517 0.318252439252 0.35678329501 0.410105027655 0.459138648934 0.439811074514 0.411285811945 0.372754956187 0.382201230502 0.390466720527 0.351687278603 0.323783481449 0.304580200112 0.33789074638 0.366229569324 0.366229569324 0.35398670064 0.334783419303 0.353489528308 0.359517742838 0.340252314959 0.320800447455 0.304020881238 0.323286309117 0.326269343111 0.306941768691 0.302777950407 0.308308992605 0.346964141446 0.366105276241 0.366105276241 0.333105462681 0.302715803866 0.302715803866 0.313964327885 0.333354048847 0.316388043005 0.297060468585 0.277795040706 0.283698962153 0.303026536573 0.322291964452 0.327263687776 0.307998259897 0.288670685476 0.272823317382 0.292088745261 0.319992542415 0.358771984339 0.381828351252 0.401218072214 0.420483500093 0.511155304207 0.665403020322 0.66614877882 0.642035920701 0.603505064943 0.553042073209 0.495245789572 0.400285874091 0.334410540053 0
0.0080169038593 0.0444969237462 0.0996830526381 0.259213224784 0.395314150768 0.465166863464 0.517369958362 0.557578770741 0.625380647567 0.682120439998 0.694798334473 0.700080790504 0.699459325089 0.640979429495 0.575663414331 0.522776707476 0.461313777888 0.392331116773 0.346156236405 0.308806164937 0.294326020757 0.280156609285 0.266422223603 0.252128519048 0.238891305699 0.238891305699 0.227953514387 0.20073332919 0.221303834442 0.260083276366 0.260207569449 0.260083276366 0.260083276366 0.260207569449 0.260083276366 0.260207569449 0.260083276366 0.260083276366 0.269218817973 0.284258281027 0.297060468585 0.300043502579 0.272450438133 0.260891181406 0.261947672612 0.298614132124 0.340500901125 0.380647566963 0.413709527065 0.439562488348 0.467901311292 0.503449133056 0.583245292399 0.653843763595 0.711826486856 0.672301286433 0.608290348642 0.608290348642 0.581132309987 0.512771114287 0.444037039339 0.376048722889 0.321732645578 0.285874091107 0
0.0709713504443 0.130010564912 0.194891554285 0.233981728917 0.256727363122 0.268597352557 0.268597352557 0.323534895283 0.37126343919 0.407805605618 0.407681312535 0.43042694674 0.466471940836 0.486545273756 0.505934994718 0.533900938413 0.592070101299 0.606115219688 0.600397737866 0.580324404947 0.576595612454 0.568330122429 0.549375427257 0.512149648872 0.482940774346 0.465539742713 0.505748555093 0.522155242061 0.524765396806 0.544217264309 0.550494065005 0.558945994655 0.596731091915 0.589770679262 0.570070225592 0.550991237338 0.548318936051 0.548816108384 0.549748306507 0.624262009819 0.64402461003 0.609036107141 0.647194083649 0.673730656889 0.6894537319 0.689142999192 0.715928158598 0.764091728295 0.841650612143 0.844757939221 0.831645018955 0.831645018955 0.814306133864 0.794481387111 0.775029519607 0.719594804549 0.671617674476 0.632713939469 0.592567273631 0.507550804798 0.402523149587 0.364365173078 0.286122677273 0.211608973961 0
0.154185569573 0.192094959915 0.259958983283 0.297309054751 0.319930395873 0.359766329004 0.403890373501 0.469703560997 0.53620036045 0.558759555031 0.581318749612 0.603442918402 0.63756136971 0.704866074203 0.755080479771 0.777763967435 0.755266919396 0.688086507986 0.606674538562 0.516934932571 0.476601827108 0.45453980486 0.470138586788 0.492387048661 0.449070909204 0.409732148406 0.432353489528 0.441178298428 0.396494935057 0.366229569324 0.366167422783 0.366105276241 0.366105276241 0.366167422783 0.366105276241 0.366167422783 0.366167422783 0.366167422783 0.366167422783 0.345845503698 0.324591386489 0.324529239948 0.324653533031 0.324653533031 0.330433161395 0.352557330185 0.374805792058 0.397364986638 0.431110558697 0.47585606861 0.534646696911 0.601889254863 0.603007892611 0.58044869803 0.481262817724 0.369399042943 0.279037971537 0.196818097073 0.196755950531 0.215275619912 0.305015225903 0.351625132061 0.307003915232 0.281958858989 0
0.118575601268 0.163693990429 0.237648374868 0.312348517805 0.384003480206 0.408737803741 0.447330806041 0.521595923187 0.571313156423 0.596171773041 0.638804300541 0.688086507986 0.714125908893 0.734696414145 0.734696414145 0.74457771425 0.769871356659 0.779317630974 0.779069044808 0.737990180846 0.689950904232 0.665465166863 0.626934311106 0.552420607793 0.49033621279 0.440556833012 0.390901746318 0.341619538873 0.338263625629 0.346094089864 0.396122055808 0.4553477099 0.529612827046 0.558697408489 0.558635261948 0.579392206824 0.605618047356 0.65527313405 0.691442421229 0.691380274688 0.691318128146 0.691442421229 0.709216332111 0.734012802188 0.735628612268 0.731899819775 0.707414082406 0.711329314524 0.760052203095 0.764091728295 0.739233111677 0.714623081226 0.690075197315 0.665403020322 0.647566962899 0.647566962899 0.63513765459 0.610279037972 0.549188987633 0.474488844696 0.400596606799 0.326455782736 0.251942079423 0.206202224846 0
0.0804176247592 0.17978994469 0.265987197812 0.36405444037 0.409297122615 0.428997576285 0.471692250326 0.491454850538 0.433099248027 0.391523211733 0.343297495494 0.284133987944 0.26828661985 0.255795164999 0.244422347896 0.253682182587 0.265862904729 0.243863029022 0.24740538189 0.244919520229 0.244422347896 0.274625567087 0.292896650301 0.293145236468 0.283761108694 0.273320489715 0.293331676092 0.292213038344 0.313156422845 0.298241252874 0.276489963334 0.295631098129 0.326890808527 0.331116773352 0.311664905848 0.296501149711 0.315207258716 0.316760922255 0.334037660804 0.339133677211 0.338822944503 0.32863091169 0.316077310298 0.314772232925 0.321173326704 0.338885091045 0.31819029271 0.336461375924 0.338574358337 0.339692996085 0.329252377105 0.325274998446 0.340438754583 0.341308806165 0.364551612703 0.383319868249 0.426014542291 0.416692561059 0.381020446212 0.339817289168 0.289043564726 0.231558013797 0.185818159219 0.126903237835 0
0.171524454664 0.229010005593 0.281088807408 0.315580137965 0.347896339569 0.367783232863 0.394754831894 0.418991983096 0.382636256292 0.348704244609 0.314710086384 0.294636753465 0.346964141446 0.356348269219 0.372133490771 0.398297184762 0.401342365297 0.399975141383 0.390528867069 0.376670188304 0.377415946803 0.37691877447 0.376608041762 0.376670188304 0.377415946803 0.37691877447 0.37691877447 0.374619352433 0.357156174259 0.353675967932 0.345099745199 0.334472686595 0.352681623268 0.369647629109 0.377478093344 0.373997887018 0.358771984339 0.354359579889 0.370766266857 0.397302840097 0.381704058169 0.392952582189 0.400348020633 0.399291529426 0.402336709962 0.416133242185 0.432788515319 0.444409918588 0.427008886955 0.423404387546 0.413958113231 0.410726493071 0.482008576223 0.565533528059 0.608973960599 0.609284693307 0.609284693307 0.550556211547 0.480952085016 0.418246224598 0.383319868249 0.319992542415 0.241315020819 0.167982101796 0
0.122366540302 0.209309551923 0.294326020757 0.363805854204 0.432912808402 0.469206388664 0.396805667765 0.292275184886 0.255670871916 0.259088931701 0.269467404139 0.33385122118 0.463178174135 0.479460568019 0.482567895097 0.490460505873 0.510658131875 0.546827419054 0.506991485924 0.462432415636 0.416381828351 0.348952830775 0.345410477907 0.335777763967 0.331178919893 0.343856814368 0.276800696041 0.244733080604 0.233422410043 0.23249021192 0.232614505003 0.218755826238 0.219252998571 0.237151202536 0.254676527251 0.272574731216 0.258902492076 0.236902616369 0.252687837922 0.254925113417 0.244422347896 0.239202038407 0.255173699584 0.273009757007 0.278727238829 0.279597290411 0.281275247033 0.296003977379 0.314399353676 0.332919023056 0.347399167236 0.349450003107 0.331427506059 0.33428624697 0.351500838978 0.367721086322 0.487663911503 0.503573426139 0.456342054565 0.387048660742 0.334596979678 0.269653843764 0.154123423032 0.0106892051457 0
0.021440556833 0.0513951898577 0.0972593375179 0.185693866136 0.257162388913 0.301845752284 0.345596917532 0.388913056988 0.432726368778 0.466534087378 0.4891554285 0.529737120129 0.561307563234 0.538872661736 0.492511341744 0.427071033497 0.42116711205 0.415014604437 0.392393263315 0.370331241066 0.348704244609 0.326580075819 0.296936175502 0.252501398297 0.22403828227 0.209371698465 0.297681934 0.358088372382 0.37971536884 0.367596793238 0.345907650239 0.323969921074 0.313094276304 0.313280715928 0.293766701883 0.275992791001 0.276117084084 0.275868497918 0.275495618669 0.295817537754 0.311167733516 0.311167733516 0.311167733516 0.310981293891 0.288919271643 0.274998446336 0.274998446336 0.307190354857 0.349263563483 0.372009197688 0.394692685352 0.417251879933 0.511466036915 0.636442731962 0.834379466783 0.916847927413 0.894164439749 0.852153377665 0.802311851345 0.736871543099 0.670436890187 0.603815797651 0.453296874029 0.34833136536 0
0.0330619601019 0.0549996892673 0.0923497607358 0.142439873221 0.196445217824 0.247840407681 0.296749735877 0.320489714747 0.327512273942 0.289727176683 0.27394195513 0.286371263439 0.292337331428 0.293828848425 0.294512460382 0.294574606923 0.319122490833 0.339755142626 0.325958610403 0.30812255298 0.280902367783 0.266857249394 0.267727300976 0.26909452489 0.270586041887 0.269529550681 0.268224473308 0.255111553042 0.242371512025 0.230439376049 0.230812255298 0.257162388913 0.269653843764 0.269032378348 0.277919333789 0.291156547138 0.281896712448 0.268908085265 0.269280964514 0.269653843764 0.269653843764 0.269653843764 0.269653843764 0.276552109875 0.289540737058 0.30209433845 0.314399353676 0.32701510161 0.339071530669 0.340252314959 0.354670312597 0.417997638431 0.477409732148 0.529115654714 0.595239574918 0.672052700267 0.655770306382 0.604623702691 0.540364178733 0.475234603194 0.41190727736 0.316760922255 0.124355229631 0.0109377913119 0
0.109129326953 0.155739233112 0.212230439376 0.253495742962 0.278727238829 0.311416319682 0.373252128519 0.418432664222 0.459822260891 0.501087564477 0.542290721521 0.562674787148 0.542042135355 0.468833509415 0.40065875334 0.359517742838 0.372133490771 0.369212603319 0.32782300665 0.360760673669 0.368591137903 0.327263687776 0.342924616245 0.337020694798 0.295817537754 0.293331676092 0.293331676092 0.293331676092 0.293269529551 0.303212976198 0.323907774532 0.323969921074 0.324032067615 0.323659188366 0.282083152073 0.251507053632 0.231620160338 0.231495867255 0.231558013797 0.231433720713 0.231433720713 0.255049406501 0.292958796843 0.293269529551 0.30569883786 0.324156360699 0.324094214157 0.324032067615 0.324094214157 0.324032067615 0.33708284134 0.348020632652 0.306879622149 0.306568889441 0.338077186005 0.420421353552 0.489217575042 0.526754086135 0.464918277298 0.432229196445 0.397862158971 0.315455844882 0.247840407681 0.201230501523 0
0.0838356845442 0.1062084395 0.153626250699 0.194767261202 0.226772730098 0.274625567087 0.353613821391 0.424274439127 0.471692250326 0.525884034553 0.604872288857 0.67497358772 0.690883102355 0.705425393077 0.70554968616 0.704990367286 0.657510409546 0.610092598347 0.532347274874 0.453234727487 0.44409918588 0.443974892797 0.417811198807 0.386240755702 0.37853458455 0.378596731092 0.389472375862 0.405381890498 0.401218072214 0.385494997203 0.37853458455 0.378596731092 0.378472438009 0.378596731092 0.378783170717 0.378658877633 0.384687092163 0.400596606799 0.411658691194 0.411596544652 0.411658691194 0.411534398111 0.414455285563 0.430054067491 0.445652849419 0.461500217513 0.475918215151 0.460008700516 0.444161332422 0.459635821267 0.475358896277 0.491268410913 0.506867192841 0.509104468336 0.509042321795 0.496302280778 0.480454912684 0.498974582065 0.530793611336 0.562550494065 0.594431669878 0.597911876204 0.582002361569 0.574606923125 0
0.144242122926 0.176061152197 0.239202038407 0.294885339631 0.342241004288 0.382014790877 0.413585233982 0.445404263253 0.476974706358 0.476974706358 0.445404263253 0.437449505935 0.453234727487 0.461189484805 0.461189484805 0.44527997017 0.413709527065 0.381890497794 0.350320054689 0.342365297371 0.358150518924 0.374060033559 0.389845255112 0.381890497794 0.350320054689 0.334410540053 0.334410540053 0.334410540053 0.334410540053 0.342365297371 0.358150518924 0.366105276241 0.366105276241 0.366105276241 0.366105276241 0.366105276241 0.366105276241 0.366105276241 0.366105276241 0.358150518924 0.342365297371 0.334410540053 0.334410540053 0.334410540053 0.334410540053 0.358274812007 0.405630476664 0.421539991299 0.405754769747 0.4296190417 0.49275992791 0.572307501088 0.667018830402 0.74656640358 0.809707289789 0.801752532472 0.722826424709 0.659188366167 0.61183270151 0.548194642968 0.469268535206 0.326082903486 0.120875023305 0.0174631781741 0
0.271021067678 0.309800509602 0.398670064011 0.470138586788 0.499844633646 0.529550680505 0.559256727363 0.588465601889 0.603318625319 0.618171648748 0.646386178609 0.676092225468 0.694425455223 0.709278478653 0.724193648623 0.738984525511 0.716611770555 0.657572556087 0.592318687465 0.518302156485 0.457709278479 0.442856255049 0.426511714623 0.396867814306 0.367099620906 0.337331427506 0.307687527189 0.3274501274 0.357156174259 0.376545895221 0.391336772109 0.389348082779 0.374557205891 0.372568516562 0.387421539991 0.397800012429 0.397737865888 0.397800012429 0.397862158971 0.399291529426 0.443974892797 0.488409670002 0.506245727425 0.521098750855 0.615996519794 0.734385681437 0.787645267541 0.802373997887 0.772543657945 0.698589273507 0.634951214965 0.590454291219 0.545833074389 0.501336150643 0.459697967808 0.444844944379 0.42999192095 0.357529053508 0.283450375987 0.196569510907 0.107699956497 0.0600335591324 0.0303896588155 0.0174631781741 0
0.0394009073395 0.174321049034 0.223789696103 0.241128581194 0.260891181406 0.301472873035 0.360636380585 0.381952644335 0.421104965509 0.468522776707 0.498601702815 0.503946305388 0.46659623392 0.411410105028 0.384252066373 0.366913181281 0.366913181281 0.347523460319 0.334348393512 0.32061400783 0.29606612392 0.301162140327 0.294947486172 0.26468212044 0.268224473308 0.271953265801 0.258032440495 0.255111553042 0.255173699584 0.255111553042 0.239077745323 0.254925113417 0.255981604624 0.271704679635 0.253868622211 0.238331986825 0.238331986825 0.23249021192 0.204586414766 0.208563793425 0.225902678516 0.248275433472 0.272015412342 0.272263998508 0.272574731216 0.279721583494 0.281772419365 0.281026660866 0.289913616307 0.308246846063 0.333229755764 0.371449878814 0.4127151824 0.435895842396 0.489341868125 0.633211111802 0.652290100056 0.6041886769 0.566030700392 0.545770927848 0.4384438506 0.331986824933 0.22726990243 0.0392144677149 0
0.116524765397 0.170219377292 0.229880057175 0.243303710149 0.288857125101 0.340873780374 0.353427381766 0.349325710024 0.337455720589 0.337642160214 0.330060282145 0.317941706544 0.314772232925 0.283450375987 0.229817910633 0.214467714872 0.213473370207 0.226897023181 0.186066745386 0.162637499223 0.161643154558 0.161767447642 0.179914237773 0.22447330806 0.217947921198 0.203902802809 0.188490460506 0.184388788764 0.178795600025 0.164688335094 0.173699583618 0.185134547262 0.185134547262 0.172705238953 0.163072525014 0.179168479274 0.175004660991 0.163880430054 0.163880430054 0.171959480455 0.183145857933 0.183083711391 0.183083711391 0.184202349139 0.199366105276 0.205332173265 0.204648561308 0.23572183208 0.25865390591 0.273382636256 0.314585793301 0.358274812007 0.403268908085 0.432229196445 0.537070412032 0.754023988565 0.767758374246 0.742526878379 0.696849170344 0.617798769498 0.531290783668 0.444285625505 0.324715679572 0.229196445218 0
0.00758187806849 0.0444347772046 0.104530482879 0.133055745448 0.156795724318 0.204710707849 0.249269778137 0.284879746442 0.308868311478 0.321111180163 0.341433099248 0.364800198869 0.399726555217 0.433409980735 0.456777080355 0.485426636008 0.522093095519 0.543285066186 0.554409297123 0.546019514014 0.536448946616 0.572058914921 0.581443042695 0.522590267852 0.463302467218 0.404387545833 0.379093903424 0.366788888198 0.342986762787 0.324591386489 0.336834255174 0.330433161395 0.294823193089 0.266608663228 0.243241563607 0.23932633149 0.237399788702 0.201789820396 0.175999005655 0.175999005655 0.181530047853 0.192716425331 0.195761605867 0.195761605867 0.21881797278 0.249269778137 0.308184699521 0.381269032378 0.475793922068 0.550245478839 0.611459822261 0.700826549003 0.793300602821 0.850972593375 0.893107948543 0.893107948543 0.857870859487 0.787831707165 0.698837859673 0.603194332235 0.486483127214 0.352246597477 0.13877322727 0.00758187806849 0
0.149338139333 0.199179665652 0.259523957492 0.303461562364 0.33024672177 0.352246597477 0.374184326642 0.37853458455 0.385432850662 0.407370579827 0.41109937232 0.411037225778 0.410788639612 0.392020384066 0.37809955876 0.378037412218 0.358709837798 0.345286184824 0.345348331365 0.365048785035 0.378037412218 0.37809955876 0.37809955876 0.378037412218 0.378037412218 0.357404760425 0.345410477907 0.34553477099 0.345783357156 0.356223976136 0.378285998384 0.37853458455 0.400534460257 0.443539867006 0.421664284383 0.399726555217 0.376980921012 0.333291902306 0.325399291529 0.347461313778 0.369585482568 0.379031756883 0.380709713504 0.402771735753 0.398421477845 0.383133428625 0.427133180039 0.443912746256 0.446771487167 0.468584923249 0.476353240942 0.486296687589 0.551985582002 0.618171648748 0.665030141073 0.6210925362 0.592256540923 0.565906407308 0.522030948978 0.462432415636 0.40146665838 0.357653346591 0.265117146231 0.182400099434 0
0.0779317630974 0.114971101858 0.170530109999 0.240569262321 0.330743894102 0.453856192903 0.564104157604 0.631035982848 0.631098129389 0.645702566652 0.668261761233 0.690820955814 0.692498912436 0.705114660369 0.704928220745 0.614691442421 0.562115468274 0.549437573799 0.569635199801 0.56957305326 0.586725498726 0.600459884407 0.599651979367 0.577030638245 0.554595736747 0.559878192779 0.627493629979 0.695171213722 0.749673730657 0.779814803306 0.75744204835 0.657448263004 0.567087191598 0.502579081474 0.457398545771 0.464856130756 0.487477471879 0.508793735629 0.508483002921 0.508358709838 0.515940587906 0.538437635946 0.517121372196 0.535703188118 0.569759492884 0.569759492884 0.569510906718 0.58125660307 0.610776210304 0.678640233671 0.674476415387 0.651979367348 0.629420172767 0.606860978187 0.552234168169 0.508234416755 0.508234416755 0.441364738052 0.401901684171 0.361382139084 0.271331800385 0.242247218942 0.158225094773 0.0472313715742 0
0.10459262942 0.139643278852 0.188490460506 0.260953327947 0.373065688894 0.410540053446 0.405381890498 0.387172953825 0.370144801442 0.34833136536 0.379839661923 0.383444161332 0.371822758064 0.371014853023 0.371512025356 0.387048660742 0.367721086322 0.314399353676 0.279597290411 0.292213038344 0.311229880057 0.302342924616 0.252563544839 0.269653843764 0.257970293953 0.250139829718 0.250699148592 0.25020197626 0.250264122802 0.251569200174 0.252749984463 0.249953390094 0.230563669132 0.260704741781 0.2767385495 0.264992853148 0.227207755888 0.22726990243 0.226772730098 0.218693679697 0.208439500342 0.229134298676 0.262942017277 0.276241377167 0.269218817973 0.250947734759 0.270896774594 0.305201665527 0.314275060593 0.303399415823 0.32421850724 0.342116711205 0.348082779193 0.362003604499 0.396929960848 0.416195388727 0.512522528121 0.555030762538 0.526629793052 0.470014293705 0.431794170654 0.367845379405 0.300727114536 0.252749984463 0
0.150581070163 0.185756012678 0.245727425269 0.282642470946 0.31216207818 0.356037536511 0.398297184762 0.413150208191 0.432167049904 0.462556708719 0.492697781368 0.522465974769 0.524889689889 0.510285252626 0.471381517619 0.426200981915 0.395935616183 0.368156112112 0.353054502517 0.33789074638 0.323037722951 0.329314523647 0.359579889379 0.379777515381 0.394319806103 0.446025728668 0.505748555093 0.535516748493 0.553290659375 0.509104468336 0.474488844696 0.460070847057 0.452861848238 0.452799701697 0.452426822447 0.451805357032 0.426573861165 0.397924305512 0.428562550494 0.456031321857 0.469703560997 0.473245913865 0.458268597353 0.4593872351 0.474737430862 0.511031011124 0.556149400286 0.601578522155 0.646261885526 0.676775837425 0.713442296936 0.771860045988 0.796718662606 0.767385494997 0.737306568889 0.706792616991 0.665838046113 0.621341122367 0.54906469455 0.470946491828 0.350133615064 0.229258591759 0.11062084395 0.0406438381704 0
0.141259088932 0.172021626996 0.218382946989 0.249953390094 0.290100055932 0.352246597477 0.404760425082 0.450811012367 0.468709216332 0.491392703996 0.537256851656 0.566030700392 0.581070163445 0.584612516313 0.580635137655 0.550245478839 0.541731402647 0.554968615997 0.558386675781 0.561369709776 0.57522838854 0.576719905537 0.562177614816 0.569821639426 0.581878068485 0.567397924306 0.570505251383 0.600459884407 0.587595550308 0.558200236157 0.556584426077 0.5615561494 0.579205767199 0.595426014542 0.610776210304 0.609222546765 0.608228202101 0.610154744888 0.610838356845 0.610900503387 0.595612454167 0.575539121248 0.544527997017 0.547821763719 0.578957181033 0.583183145858 0.580697284196 0.565782114225 0.573488285377 0.603815797651 0.634516189174 0.669069666273 0.731651233609 0.752408178485 0.721148468088 0.678453794046 0.63234106022 0.585606860978 0.545025169349 0.514200484743 0.439562488348 0.347212727612 0.240320676154 0.169535765335 0
0.158784413647 0.196072338574 0.262506991486 0.310235535392 0.348393511901 0.377478093344 0.404014666584 0.441737617302 0.480144179976 0.507550804798 0.527251258467 0.500155366354 0.476726120191 0.462743148344 0.44931949537 0.436703747436 0.430675532907 0.431172705239 0.423839413337 0.411596544652 0.40705984712 0.405257597415 0.39419551302 0.381890497794 0.406500528246 0.429121869368 0.417997638431 0.405941209372 0.390839599776 0.372195637313 0.346280529489 0.332173264558 0.333043316139 0.340687340749 0.353613821391 0.357342613884 0.35678329501 0.367410353614 0.381020446212 0.405133304332 0.430924119073 0.483251507054 0.526381206886 0.513703312411 0.511341743832 0.537940463613 0.534087378037 0.481200671183 0.4553477099 0.456714933814 0.480889938475 0.519110061525 0.588403455348 0.668323907775 0.657883288795 0.631968180971 0.59169722205 0.550929090796 0.512336088497 0.470511466037 0.417686905724 0.356161829594 0.277608601081 0.233546703126 0
0.218569386614 0.270461748804 0.333789074638 0.393139021813 0.415201044062 0.436579454353 0.47343235349 0.535330308868 0.471132931452 0.462867441427 0.460381579765 0.396805667765 0.411472251569 0.420732086259 0.420732086259 0.420732086259 0.401777391088 0.379901808464 0.358834130881 0.337766453297 0.332919023056 0.342116711205 0.363681561121 0.363681561121 0.349512149649 0.328382325524 0.307003915232 0.32502641228 0.33347834193 0.33347834193 0.33347834193 0.33347834193 0.33347834193 0.33347834193 0.333416195389 0.317071654962 0.295941830837 0.275992791001 0.275992791001 0.275992791001 0.26909452489 0.247902554223 0.267727300976 0.301597166118 0.328320178982 0.307252501398 0.30408302778 0.315331551799 0.337020694798 0.357901932757 0.362873656081 0.372319930396 0.395873469641 0.459511528183 0.583431732024 0.680753216084 0.681747560748 0.638680007458 0.582623826984 0.524765396806 0.482630041638 0.382574109751 0.275682058293 0.188304020881 0
0.291342986763 0.334161953887 0.410477906904 0.46056801939 0.497918090858 0.524827543347 0.548878254925 0.585233981729 0.622086880865 0.63557268038 0.643278851532 0.618109502206 0.595612454167 0.582126654652 0.564787769561 0.541669256106 0.523522465975 0.510533838792 0.497110185818 0.483810825928 0.480579205767 0.481449257349 0.460816605556 0.436517307812 0.434466471941 0.432850661861 0.432726368778 0.435585109689 0.449381641912 0.45857933006 0.458144304269 0.446274314834 0.420234913927 0.416630414517 0.430551239824 0.443850599714 0.456652787272 0.418556957305 0.367410353614 0.36405444037 0.365048785035 0.363495121496 0.360387794419 0.348952830775 0.344043253993 0.357156174259 0.374805792058 0.399353675968 0.430861972531 0.468895655957 0.498415263191 0.522217388602 0.5744204835 0.63638058542 0.624821328693 0.600397737866 0.575601267789 0.550369771922 0.524454664098 0.49356783295 0.443602013548 0.38978310857 0.328506618607 0.294201727674 0
0.118513454726 0.175563979865 0.258094587036 0.313840034802 0.357839786216 0.383444161332 0.412155863526 0.441364738052 0.468274190541 0.443415573923 0.361817164875 0.383133428625 0.424647318377 0.463737493009 0.474488844696 0.461873096762 0.471132931452 0.483686532844 0.499223168231 0.504505624262 0.50363557268 0.531166490585 0.549375427257 0.54906469455 0.53980485986 0.525697594929 0.496613013486 0.480268473059 0.481387110807 0.438568143683 0.389472375862 0.375427257473 0.375986576347 0.391274625567 0.402398856504 0.405444037039 0.381020446212 0.369647629109 0.367721086322 0.354235286806 0.344851159033 0.346901994904 0.337517867131 0.322416257535 0.323597041825 0.324404946865 0.324529239948 0.363432974955 0.412839475483 0.427506059288 0.504070598471 0.655708159841 0.663103598285 0.638120688584 0.622894785905 0.601640668697 0.574917655832 0.535765334659 0.491268410913 0.436082282021 0.372817102728 0.304393760487 0.196445217824 0.121620781803 0
0.203778509726 0.243738735939 0.313032129762 0.414828164813 0.468460630166 0.492822074452 0.492946367535 0.492946367535 0.492946367535 0.493070660618 0.493070660618 0.535143869244 0.544279410851 0.49356783295 0.492946367535 0.492946367535 0.500466099062 0.551550556212 0.566030700392 0.58125660307 0.631719594805 0.637809955876 0.637809955876 0.636131999254 0.584736809397 0.564849916102 0.564725623019 0.564849916102 0.52613262072 0.492946367535 0.492946367535 0.492946367535 0.518675035734 0.566030700392 0.56596855385 0.532222981791 0.492946367535 0.492946367535 0.534087378037 0.564974209185 0.565036355727 0.565036355727 0.592753713256 0.631284569014 0.580821577279 0.565471381518 0.551239823504 0.500341805978 0.493008514076 0.492946367535 0.492946367535 0.492946367535 0.492946367535 0.492946367535 0.492946367535 0.492946367535 0.509353054503 0.560437511652 0.565471381518 0.54104779069 0.487415325337 0.385557143745 0.251320614008 0.131004909577 1
0.074575849854 0.204710707849 0.275309179044 0.29445031384 0.274314834379 0.208563793425 0.244857373687 0.281150953949 0.270213162637 0.250015536635 0.258716052452 0.293083089926 0.256851656205 0.2807780747 0.272823317382 0.251258467466 0.251134174383 0.250264122802 0.25020197626 0.250139829718 0.250077683177 0.25020197626 0.250015536635 0.250015536635 0.284569013734 0.29445031384 0.294698900006 0.28276676403 0.250947734759 0.250885588217 0.284320427568 0.269218817973 0.26909452489 0.294512460382 0.290783667889 0.254427941085 0.250015536635 0.274376980921 0.277235721832 0.240879995028 0.208004474551 0.24535454602 0.250637002051 0.250388415885 0.250388415885 0.250450562426 0.250326269343 0.249953390094 0.250015536635 0.249953390094 0.25020197626 0.250574855509 0.250574855509 0.250637002051 0.222546765273 0.206140078305 0.206202224846 0.206202224846 0.206202224846 0.172208066621 0.162264619974 0.142874899012 0.0948977689392 0.0296439003169 1
0.219874463986 0.219874463986 0.267354421726 0.333291902306 0.375924429805 0.375924429805 0.375924429805 0.375986576347 0.428313964328 0.453918339444 0.425890249208 0.375862283264 0.375800136722 0.375862283264 0.433037101485 0.453856192903 0.453856192903 0.453856192903 0.44527997017 0.379466782674 0.375800136722 0.375862283264 0.338015039463 0.297930520167 0.31135417314 0.375862283264 0.375862283264 0.321049033621 0.297806227083 0.297868373625 0.297806227083 0.303834441613 0.369896215276 0.375800136722 0.423404387546 0.453794046361 0.453856192903 0.453794046361 0.453856192903 0.453918339444 0.401590951464 0.375862283264 0.375862283264 0.36001491517 0.301472873035 0.367410353614 0.375800136722 0.465850475421 0.531787956 0.531787956 0.531850102542 0.531850102542 0.531850102542 0.531787956 0.531787956 0.532036542166 0.531912249083 0.530793611336 0.464918277298 0.453918339444 0.411285811945 0.375986576347 0.357653346591 0.297930520167 1
0.391896090983 0.438754583307 0.525697594929 0.593934497545 0.59977627245 0.653719470511 0.70797340128 0.729662544279 0.729662544279 0.72487726058 0.670747622895 0.526691939594 0.521471630104 0.541607109564 0.394754831894 0.448698029955 0.458765769685 0.428624697036 0.391088185942 0.393698340687 0.447641538748 0.458765769685 0.458765769685 0.458765769685 0.458827916226 0.458827916226 0.416941147225 0.419178422721 0.458765769685 0.458765769685 0.458765769685 0.499844633646 0.527002672301 0.540302032192 0.594493816419 0.541234230315 0.486856006463 0.458827916226 0.446709340625 0.392828289106 0.391274625567 0.391274625567 0.391336772109 0.391336772109 0.391274625567 0.391336772109 0.391336772109 0.391274625567 0.401404511839 0.455534149525 0.509166614878 0.52656764651 0.52656764651 0.526629793052 0.52656764651 0.52656764651 0.526629793052 0.505002796594 0.459262942017 0.459262942017 0.459325088559 0.42477161146 0.350257908147 0.256478776956 1
