1000 192
0.433333333333 0.0 0.433333333333 0.0 0.4 0.0 0.433333333333 0.0 0.233333333333 0.0 0.433333333333 0.0 0.4 0.0 0.233333333333 0.2 0.0666666666667 0.0 0.6 0.0333333333333 0.133333333333 0.0 0.466666666667 0.133333333333 0.133333333333 0.0 0.3 0.0 0.0333333333333 0.0666666666667 0.2 0.0 0.3 0.0 0.433333333333 0.0 0.4 0.0 0.3 0.133333333333 0.3 0.0 0.133333333333 0.233333333333 0.133333333333 0.0 0.233333333333 0.1 0.433333333333 0.0 0.4 0.0333333333333 0.366666666667 0.0 0.433333333333 0.0 0.466666666667 0.0 0.1 0.0666666666667 0.466666666667 0.0 0.0333333333333 0.1 0.266666666667 0.0 0.266666666667 0.0 0.433333333333 0.0 0.0333333333333 0.233333333333 0.433333333333 0.0 0.333333333333 0.1 0.3 0.0 0.433333333333 0.0 0.166666666667 0.0 0.433333333333 0.0 0.4 0.0 0.166666666667 0.266666666667 0.433333333333 0.0 0.2 0.233333333333 0.166666666667 0.0 0.433333333333 0.0 0.1 0.166666666667 0.266666666667 0.0 0.233333333333 0.0 0.433333333333 0.0 0.0 0.0666666666667 0.433333333333 0.0333333333333 0.0 0.0333333333333 0.366666666667 0.0666666666667 0.433333333333 0.0 0.133333333333 0.3 0.133333333333 0.0 0.4 0.0 0.433333333333 0.0 0.433333333333 0.0 0.4 0.0 0.433333333333 0.0   0.0369150456777 0.082903486421 0.131315642285 0.166490584799 0.186750357343 0.206388664471 0.229942203716 0.266049344354 0.319122490833 0.375365110932 0.42999192095 0.46703125971 0.491765583245 0.499533900938 0.479274128395 0.478963395687 0.46982785408 0.451805357032 0.454601951401 0.440991858803 0.433285687651 0.451867503573 0.437014480144 0.408862096824 0.371574171897 0.331738238767 0.35156298552 0.36927474986 0.351500838978 0.352308744018 0.361879311416 0.378348144926 0.399788701759 0.403952520042 0.403206761544 0.401280218756 0.383692747499 0.388229445031 0.401590951464 0.401590951464 0.401653098005 0.401093779131 0.400161581008 0.402150270337 0.403393201168 0.398670064011 0.37971536884 0.377664532969 0.377602386427 0.383692747499 0.439873221055 0.481387110807 0.536076067367 0.629855198558 0.600459884407 0.573177552669 0.55229631471 0.515816294823 0.477161145982 0.438505997141 0.40146665838 0.347523460319 0.280343048909 0.219066558946 0
0.433333333333 0.0 0.433333333333 0.0 0.4 0.0 0.433333333333 0.0 0.333333333333 0.0 0.433333333333 0.0 0.4 0.0 0.333333333333 0.1 0.0666666666667 0.0 0.5 0.0 0.166666666667 0.0 0.333333333333 0.133333333333 0.3 0.0 0.3 0.0 0.2 0.0666666666667 0.2 0.0 0.266666666667 0.0 0.433333333333 0.0 0.4 0.0 0.266666666667 0.166666666667 0.166666666667 0.0 0.133333333333 0.133333333333 0.0333333333333 0.0 0.2 0.0333333333333 0.433333333333 0.0 0.266666666667 0.166666666667 0.233333333333 0.0 0.433333333333 0.0 0.7 0.0 0.233333333333 0.0666666666667 0.733333333333 0.0 0.133333333333 0.166666666667 0.5 0.0 0.166666666667 0.0666666666667 0.466666666667 0.0 0.133333333333 0.1 0.433333333333 0.0 0.366666666667 0.0666666666667 0.333333333333 0.0 0.433333333333 0.0 0.166666666667 0.0 0.433333333333 0.0 0.4 0.0 0.166666666667 0.266666666667 0.433333333333 0.0 0.133333333333 0.166666666667 0.266666666667 0.0 0.266666666667 0.0 0.333333333333 0.166666666667 0.2 0.0 0.366666666667 0.0666666666667 0.3 0.0 0.0666666666667 0.0 0.566666666667 0.0 0.166666666667 0.0 0.4 0.133333333333 0.266666666667 0.0 0.266666666667 0.2 0.0666666666667 0.0 0.4 0.0 0.433333333333 0.0 0.366666666667 0.0666666666667 0.333333333333 0.0 0.433333333333 0.0   0.112547386738 0.168106394879 0.245292399478 0.304704493195 0.354297433348 0.39382263377 0.433472127276 0.473121620782 0.512646821204 0.524454664098 0.518612889193 0.459325088559 0.409732148406 0.3700826549 0.366105276241 0.366105276241 0.366105276241 0.366105276241 0.366105276241 0.366167422783 0.376048722889 0.3958113231 0.397800012429 0.391833944441 0.37207134423 0.338325772171 0.306693182524 0.34634267603 0.366105276241 0.366105276241 0.383941333665 0.403766080418 0.423528680629 0.415636069853 0.399788701759 0.419675595053 0.439438195264 0.459200795476 0.461189484805 0.461189484805 0.461189484805 0.447330806041 0.429494748617 0.429556895159 0.429556895159 0.429494748617 0.465104716923 0.492884220993 0.492884220993 0.492884220993 0.494872910323 0.514697657075 0.53458455037 0.55428500404 0.538499782487 0.536511093158 0.57603629358 0.54626810018 0.484929463675 0.40587906283 0.34634267603 0.306693182524 0.160400223728 0.0491579143621 0
0.433333333333 0.0 0.433333333333 0.0 0.4 0.0 0.433333333333 0.0 0.2 0.0 0.433333333333 0.0 0.4 0.0 0.2 0.233333333333 0.1 0.0 0.4 0.1 0.0666666666667 0.0 0.366666666667 0.1 0.4 0.0333333333333 0.333333333333 0.0 0.266666666667 0.133333333333 0.2 0.0 0.133333333333 0.0 0.433333333333 0.0 0.4 0.0 0.133333333333 0.3 0.3 0.0 0.0666666666667 0.3 0.0 0.0 0.333333333333 0.0 0.433333333333 0.0 0.333333333333 0.1 0.3 0.0 0.433333333333 0.0 0.7 0.0 0.0666666666667 0.0 0.633333333333 0.0 0.0666666666667 0.0 0.6 0.0 0.133333333333 0.0333333333333 0.633333333333 0.0 0.0333333333333 0.1 0.433333333333 0.0 0.433333333333 0.0 0.4 0.0 0.433333333333 0.0 0.2 0.0 0.433333333333 0.0 0.4 0.0 0.2 0.233333333333 0.5 0.0 0.0666666666667 0.2 0.266666666667 0.0 0.233333333333 0.0 0.166666666667 0.2 0.233333333333 0.0 0.233333333333 0.0666666666667 0.366666666667 0.0 0.0666666666667 0.0 0.433333333333 0.0 0.1 0.0 0.366666666667 0.0666666666667 0.266666666667 0.0 0.166666666667 0.266666666667 0.0 0.0 0.4 0.0 0.433333333333 0.0 0.366666666667 0.0666666666667 0.333333333333 0.0 0.433333333333 0.0   0.063513765459 0.130756323411 0.236156857871 0.313840034802 0.386365048785 0.446025728668 0.492387048661 0.521595923187 0.552979926667 0.585047542104 0.600024858617 0.599092660493 0.553414952458 0.507364365173 0.461624510596 0.440556833012 0.426014542291 0.412218010068 0.397551426263 0.382014790877 0.375427257473 0.374557205891 0.361941457958 0.349636442732 0.348890684233 0.348828537692 0.34957429619 0.349760735815 0.349822882357 0.364489466161 0.379591075757 0.394319806103 0.409048536449 0.423777266795 0.415822509477 0.401901684171 0.401963830713 0.396805667765 0.380398980797 0.364303026537 0.348579951526 0.349450003107 0.354483872972 0.368964017152 0.383071282083 0.397054253931 0.402212416879 0.402771735753 0.401901684171 0.407557019452 0.439189609098 0.526629793052 0.67578149276 0.703250264123 0.688024361444 0.641352308744 0.603753651109 0.589522093096 0.558138089615 0.513143993537 0.480952085016 0.435833695855 0.240196383071 0.115157541483 0
0.433333333333 0.0 0.433333333333 0.0 0.4 0.0 0.433333333333 0.0 0.3 0.0 0.433333333333 0.0 0.4 0.0 0.3 0.133333333333 0.1 0.0 0.533333333333 0.0666666666667 0.0666666666667 0.0 0.5 0.1 0.133333333333 0.0333333333333 0.133333333333 0.0333333333333 0.133333333333 0.0 0.166666666667 0.0333333333333 0.266666666667 0.0 0.433333333333 0.0 0.4 0.0 0.266666666667 0.166666666667 0.3 0.0 0.166666666667 0.0666666666667 0.2 0.0 0.2 0.0333333333333 0.4 0.0 0.4 0.0333333333333 0.366666666667 0.0 0.4 0.0333333333333 0.433333333333 0.0 0.133333333333 0.2 0.333333333333 0.0 0.166666666667 0.133333333333 0.166666666667 0.0 0.2 0.0 0.233333333333 0.0 0.0666666666667 0.133333333333 0.433333333333 0.0 0.3 0.133333333333 0.266666666667 0.0 0.433333333333 0.0 0.233333333333 0.0 0.3 0.1 0.333333333333 0.0 0.133333333333 0.233333333333 0.433333333333 0.0 0.3 0.133333333333 0.266666666667 0.0 0.433333333333 0.0 0.2 0.166666666667 0.266666666667 0.0 0.3 0.0 0.433333333333 0.0 0.2 0.0 0.566666666667 0.133333333333 0.166666666667 0.0 0.533333333333 0.133333333333 0.433333333333 0.0 0.266666666667 0.166666666667 0.233333333333 0.0 0.433333333333 0.0 0.433333333333 0.0 0.433333333333 0.0 0.4 0.0 0.433333333333 0.0   0.1021689143 0.160338077186 0.238021254117 0.316512336088 0.36442731962 0.397986452054 0.417376173016 0.452053943198 0.490709092039 0.529302094338 0.536138213908 0.509974519918 0.432788515319 0.437449505935 0.442794108508 0.423715120254 0.40426325275 0.399540115593 0.417873345348 0.419924181219 0.404325399292 0.365732396992 0.381082592754 0.375737990181 0.33708284134 0.37126343919 0.374122180101 0.333913367721 0.333229755764 0.33347834193 0.333105462681 0.333416195389 0.352992355975 0.391088185942 0.352246597477 0.333789074638 0.33509415201 0.374308619725 0.370641973774 0.333602635013 0.334472686595 0.334472686595 0.333726928096 0.333602635013 0.33347834193 0.335529177801 0.35479460568 0.350320054689 0.333789074638 0.33465912622 0.359642035921 0.386302902243 0.346839848362 0.359331303213 0.39823503822 0.437449505935 0.449878814244 0.445963582127 0.426573861165 0.406624821329 0.382387670126 0.343856814368 0.26225840532 0.189484805171 0
0.433333333333 0.0 0.433333333333 0.0 0.4 0.0 0.433333333333 0.0 0.0666666666667 0.0 0.433333333333 0.0 0.266666666667 0.0 0.2 0.233333333333 0.0333333333333 0.0 0.1 0.0 0.0 0.0 0.0333333333333 0.0 0.433333333333 0.0 0.433333333333 0.0 0.2 0.2 0.233333333333 0.0 0.0666666666667 0.0 0.3 0.0 0.233333333333 0.0 0.1 0.2 0.2 0.0 0.133333333333 0.0666666666667 0.1 0.0 0.2 0.0 0.333333333333 0.0 0.333333333333 0.1 0.233333333333 0.0 0.4 0.0333333333333 0.0 0.0 0.0 0.0 0.0 0.0 0.0 0.0 0.0666666666667 0.2 0.0333333333333 0.0 0.233333333333 0.0 0.233333333333 0.0 0.433333333333 0.0 0.266666666667 0.133333333333 0.166666666667 0.1 0.266666666667 0.0 0.2 0.0 0.333333333333 0.0 0.4 0.0 0.1 0.233333333333 0.433333333333 0.0 0.0 0.166666666667 0.233333333333 0.0 0.166666666667 0.0 0.3 0.133333333333 0.3 0.0 0.4 0.0 0.433333333333 0.0 0.0666666666667 0.133333333333 0.0666666666667 0.0 0.166666666667 0.0 0.2 0.0 0.0333333333333 0.0 0.0 0.0 0.0 0.0 0.0 0.0 0.433333333333 0.0 0.3 0.133333333333 0.266666666667 0.0 0.433333333333 0.0   0.154185569573 0.181654340936 0.228015660928 0.25703809583 0.280280902368 0.324653533031 0.368404698279 0.391212479026 0.414020259773 0.437325212852 0.471070784911 0.517556397986 0.549437573799 0.572245354546 0.61382139084 0.660307003915 0.683984836244 0.706916910074 0.73009757007 0.732583431732 0.686719284072 0.640295817538 0.593934497545 0.59213224784 0.615312907837 0.619787458828 0.619725312286 0.574544776583 0.539059101361 0.561804735566 0.584736809397 0.608041762476 0.619663165745 0.619663165745 0.635386240756 0.658629047294 0.642719532658 0.619973898453 0.6427816792 0.661239202038 0.661363495121 0.678080914797 0.724566527873 0.746690696663 0.746504257038 0.746504257038 0.746628550121 0.807159281586 0.872288857125 0.849046050587 0.825803244049 0.802995463302 0.780063389472 0.756820582935 0.72083773538 0.674849294637 0.628363681561 0.581753775402 0.535641041576 0.489652600833 0.443042694674 0.37971536884 0.264557827357 0.196755950531 0
0.433333333333 0.0 0.433333333333 0.0 0.4 0.0 0.433333333333 0.0 0.2 0.0 0.433333333333 0.0 0.366666666667 0.0 0.233333333333 0.2 0.0 0.0 0.233333333333 0.0 0.0 0.0 0.166666666667 0.0333333333333 0.266666666667 0.0 0.366666666667 0.0 0.1 0.166666666667 0.166666666667 0.0 0.266666666667 0.0 0.433333333333 0.0 0.4 0.0 0.266666666667 0.166666666667 0.233333333333 0.0 0.0333333333333 0.166666666667 0.0666666666667 0.0 0.166666666667 0.0 0.4 0.0 0.333333333333 0.1 0.3 0.0 0.4 0.0333333333333 0.233333333333 0.0 0.1 0.0 0.233333333333 0.0 0.0333333333333 0.0666666666667 0.2 0.0 0.0666666666667 0.0 0.2 0.0 0.0 0.0666666666667 0.433333333333 0.0 0.333333333333 0.1 0.3 0.0 0.433333333333 0.0 0.133333333333 0.0 0.333333333333 0.0 0.3 0.0 0.133333333333 0.2 0.433333333333 0.0 0.0666666666667 0.333333333333 0.1 0.0 0.366666666667 0.0 0.1 0.133333333333 0.133333333333 0.0 0.133333333333 0.0333333333333 0.233333333333 0.0 0.0333333333333 0.0 0.633333333333 0.0333333333333 0.0333333333333 0.0 0.566666666667 0.0666666666667 0.4 0.0 0.2 0.233333333333 0.133333333333 0.0 0.433333333333 0.0 0.433333333333 0.0 0.433333333333 0.0 0.4 0.0 0.433333333333 0.0   0.132247840408 0.193586476913 0.267540861351 0.339879435709 0.412155863526 0.431483437947 0.444720651296 0.480517059226 0.535143869244 0.589770679262 0.633894723759 0.652973712013 0.655210987509 0.644770368529 0.625815673358 0.608414641725 0.604312969983 0.586601205643 0.553166366292 0.534335964204 0.556397986452 0.563420545647 0.528059163508 0.530669318252 0.518364303027 0.510223106084 0.527251258467 0.54744888447 0.534833136536 0.507053632465 0.507053632465 0.519731526941 0.52010440619 0.507550804798 0.503573426139 0.503573426139 0.505375675844 0.50643216705 0.487228885713 0.493878565658 0.506183580884 0.506183580884 0.522030948978 0.518675035734 0.519607233857 0.572928966503 0.563047666397 0.564042011062 0.576719905537 0.558138089615 0.599216953577 0.630849543223 0.628612267727 0.609533279473 0.578087129451 0.541979988814 0.506867192841 0.488036790753 0.470325026412 0.438319557517 0.365670250451 0.307998259897 0.233235970418 0.159405879063 0
0.266666666667 0.0 0.433333333333 0.0 0.4 0.0 0.266666666667 0.166666666667 0.133333333333 0.0 0.566666666667 0.1 0.133333333333 0.0 0.5 0.133333333333 0.1 0.0 0.533333333333 0.0 0.0666666666667 0.0 0.5 0.0 0.433333333333 0.0 0.433333333333 0.0 0.0666666666667 0.333333333333 0.1 0.0 0.4 0.0 0.0666666666667 0.1 0.166666666667 0.0666666666667 0.1 0.0 0.433333333333 0.0 0.4 0.0333333333333 0.366666666667 0.0 0.433333333333 0.0 0.433333333333 0.0 0.433333333333 0.0 0.4 0.0 0.433333333333 0.0 0.466666666667 0.0666666666667 0.1 0.0 0.466666666667 0.0 0.166666666667 0.0 0.233333333333 0.2 0.1 0.0 0.4 0.0 0.3 0.0 0.433333333333 0.0 0.433333333333 0.0 0.233333333333 0.166666666667 0.266666666667 0.0 0.433333333333 0.0 0.433333333333 0.0 0.4 0.0 0.433333333333 0.0 0.6 0.0 0.2 0.0666666666667 0.633333333333 0.0 0.1 0.133333333333 0.4 0.0333333333333 0.4 0.0 0.4 0.0 0.433333333333 0.0 0.0666666666667 0.3 0.3 0.0 0.266666666667 0.0333333333333 0.533333333333 0.0 0.0333333333333 0.0 0.433333333333 0.0 0.0666666666667 0.133333333333 0.1 0.2 0.433333333333 0.0 0.133333333333 0.3 0.1 0.0 0.433333333333 0.0   0.154123423032 0.179479211982 0.224659747685 0.269964576471 0.315145112175 0.359642035921 0.403890373501 0.434901497732 0.463737493009 0.464545398049 0.460816605556 0.43160773103 0.413709527065 0.428438257411 0.425828102666 0.3958113231 0.365732396992 0.335964203592 0.32421850724 0.3234106022 0.322975576409 0.32260269716 0.310111242309 0.29525821888 0.280653781617 0.265925051271 0.251444907091 0.243117270524 0.25865390591 0.273817662047 0.288359952769 0.296003977379 0.295133925797 0.294761046548 0.294761046548 0.284879746442 0.270088869554 0.278789385371 0.293518115717 0.281461686657 0.267603007893 0.282269591697 0.296998322043 0.31172705239 0.322726990243 0.323597041825 0.329998135604 0.345845503698 0.36846684482 0.39742713318 0.417562612641 0.431794170654 0.491268410913 0.566527872724 0.628612267727 0.687713628737 0.660679883165 0.629730905475 0.585420421354 0.534646696911 0.459076502393 0.37368715431 0.268908085265 0.210055310422 0
0.266666666667 0.0 0.433333333333 0.0 0.4 0.0 0.266666666667 0.166666666667 0.0666666666667 0.0 0.366666666667 0.0 0.133333333333 0.0 0.266666666667 0.1 0.0 0.0 0.4 0.0 0.0 0.0 0.366666666667 0.0 0.433333333333 0.0 0.4 0.0 0.2 0.2 0.166666666667 0.0 0.166666666667 0.0 0.133333333333 0.0 0.233333333333 0.0 0.0333333333333 0.1 0.433333333333 0.0 0.3 0.133333333333 0.266666666667 0.0 0.433333333333 0.0 0.433333333333 0.0 0.433333333333 0.0 0.4 0.0 0.433333333333 0.0 0.266666666667 0.1 0.1 0.0 0.366666666667 0.0 0.166666666667 0.0333333333333 0.1 0.1 0.0666666666667 0.0 0.166666666667 0.0 0.166666666667 0.0 0.433333333333 0.0 0.433333333333 0.0333333333333 0.233333333333 0.133333333333 0.333333333333 0.0 0.333333333333 0.0 0.433333333333 0.0 0.4 0.0 0.333333333333 0.1 0.5 0.0 0.1 0.1 0.433333333333 0.0 0.1 0.1 0.3 0.133333333333 0.3 0.0 0.4 0.0 0.433333333333 0.0 0.0 0.0 0.1 0.0 0.0 0.0 0.0666666666667 0.0 0.0 0.0 0.4 0.0 0.0 0.0 0.366666666667 0.0 0.433333333333 0.0 0.166666666667 0.266666666667 0.133333333333 0.0 0.433333333333 0.0   0.167547076005 0.20234913927 0.259834690199 0.354918898763 0.384500652539 0.392393263315 0.44005966068 0.487353178796 0.534273817662 0.58206450811 0.630041638183 0.676340811634 0.700080790504 0.72363432975 0.747560748244 0.794729973277 0.747250015537 0.60580448698 0.509104468336 0.456777080355 0.456839226897 0.478839102604 0.483127213971 0.458641476602 0.455782735691 0.464545398049 0.488844695793 0.473556646573 0.464483251507 0.487850351128 0.493008514076 0.48673171338 0.463364613759 0.44005966068 0.421539991299 0.421539991299 0.421726430924 0.425455223417 0.448822323038 0.457336399229 0.457212106146 0.457212106146 0.457336399229 0.459076502393 0.483313653595 0.507302218632 0.530047852837 0.529426387422 0.540799204524 0.564166304145 0.541544963023 0.539867006401 0.564414890311 0.58809272264 0.611584115344 0.635696973463 0.65850475421 0.664781554906 0.641414455286 0.578273569076 0.514262631285 0.466906966627 0.363308681872 0.274998446336 0
0.433333333333 0.0 0.433333333333 0.0 0.4 0.0 0.433333333333 0.0 0.166666666667 0.0 0.433333333333 0.0 0.4 0.0 0.166666666667 0.266666666667 0.0 0.0 0.133333333333 0.0 0.0333333333333 0.0 0.0666666666667 0.0666666666667 0.366666666667 0.0 0.2 0.0 0.166666666667 0.166666666667 0.0333333333333 0.0 0.3 0.0 0.433333333333 0.0 0.4 0.0 0.3 0.133333333333 0.133333333333 0.0 0.0666666666667 0.0 0.133333333333 0.0 0.0333333333333 0.0333333333333 0.433333333333 0.0 0.166666666667 0.233333333333 0.166666666667 0.0 0.4 0.0 0.0333333333333 0.0 0.0 0.0333333333333 0.0 0.0 0.0 0.0 0.166666666667 0.0 0.2 0.0 0.266666666667 0.0 0.0666666666667 0.133333333333 0.433333333333 0.0 0.0666666666667 0.266666666667 0.133333333333 0.0 0.333333333333 0.0 0.3 0.0 0.333333333333 0.0 0.4 0.0 0.2 0.133333333333 0.433333333333 0.0 0.0333333333333 0.166666666667 0.233333333333 0.0 0.2 0.0 0.0333333333333 0.166666666667 0.0333333333333 0.0 0.166666666667 0.0 0.2 0.0 0.0 0.0 0.2 0.0 0.0 0.0 0.166666666667 0.0333333333333 0.0 0.0 0.0 0.0 0.0 0.0 0.0 0.0 0.433333333333 0.0 0.2 0.233333333333 0.166666666667 0.0 0.433333333333 0.0   0.196755950531 0.204027095892 0.237399788702 0.270648188428 0.314337207134 0.36324653533 0.410975079237 0.444409918588 0.47747187869 0.501895469517 0.51848859611 0.535206015785 0.551364116587 0.56758436393 0.58405319744 0.600708470574 0.617363743708 0.648064135231 0.680815362625 0.693928282891 0.661177055497 0.62830153502 0.619663165745 0.619787458828 0.616617985209 0.600087005158 0.583493878566 0.587595550308 0.604064383817 0.619663165745 0.619787458828 0.619725312286 0.619725312286 0.619725312286 0.619725312286 0.604064383817 0.587471257225 0.58970853272 0.623019078988 0.656329625256 0.662233546703 0.662357839786 0.670809769436 0.70393387608 0.736560810391 0.804424833758 0.886209682431 0.955192343546 0.938909949661 0.922689702318 0.906158722267 0.889565595675 0.872537443291 0.839661922814 0.806848548878 0.743334783419 0.644832515071 0.54546019514 0.490833385122 0.441426884594 0.38617860916 0.320365421664 0.253868622211 0.239388478031 0
0.166666666667 0.0 0.433333333333 0.0 0.4 0.0 0.166666666667 0.266666666667 0.0 0.0 0.0 0.0 0.0 0.0 0.0 0.0 0.133333333333 0.0 0.433333333333 0.0 0.133333333333 0.0 0.4 0.0333333333333 0.433333333333 0.0 0.433333333333 0.0 0.266666666667 0.133333333333 0.3 0.0 0.133333333333 0.0 0.133333333333 0.0 0.233333333333 0.0 0.0 0.133333333333 0.266666666667 0.0 0.266666666667 0.166666666667 0.1 0.0 0.4 0.0 0.466666666667 0.0333333333333 0.3 0.1 0.366666666667 0.0 0.433333333333 0.0 0.5 0.1 0.0333333333333 0.0 0.566666666667 0.0 0.0666666666667 0.0666666666667 0.333333333333 0.133333333333 0.0 0.0 0.4 0.0 0.133333333333 0.0 0.433333333333 0.0 0.433333333333 0.0 0.366666666667 0.0333333333333 0.4 0.0 0.3 0.0 0.433333333333 0.0 0.4 0.0 0.3 0.133333333333 0.5 0.0 0.0333333333333 0.2 0.266666666667 0.0 0.2 0.0333333333333 0.2 0.233333333333 0.2 0.0 0.4 0.0 0.433333333333 0.0 0.0666666666667 0.0333333333333 0.5 0.0 0.0 0.0333333333333 0.466666666667 0.0 0.133333333333 0.0 0.233333333333 0.0666666666667 0.0666666666667 0.0 0.233333333333 0.0333333333333 0.433333333333 0.0 0.266666666667 0.166666666667 0.233333333333 0.0 0.433333333333 0.0   0.0640109377913 0.0996209060966 0.153315517991 0.228574979802 0.303275122739 0.379093903424 0.504754210428 0.594742402585 0.644956808154 0.694611894848 0.736001491517 0.76148157355 0.805605618047 0.84351500839 0.843639301473 0.77676962277 0.688521533777 0.687900068361 0.673730656889 0.648499161022 0.624386302902 0.600087005158 0.575414828165 0.572121061463 0.556460132994 0.505064943136 0.49195202287 0.496488720403 0.521347337021 0.530793611336 0.5277484308 0.47827978373 0.428873283202 0.37934248959 0.352060157852 0.35560251072 0.407246286744 0.416692561059 0.416630414517 0.415698216394 0.415449630228 0.412280156609 0.38816729849 0.377353800261 0.377043067553 0.401404511839 0.43726306631 0.486793859922 0.470325026412 0.453794046361 0.453794046361 0.473556646573 0.503946305388 0.55310421975 0.570691691007 0.566900751973 0.516686346405 0.466658380461 0.416443974893 0.390093841278 0.345037598658 0.271145360761 0.132931452365 0.024175004661 0
0.233333333333 0.0 0.466666666667 0.133333333333 0.366666666667 0.0 0.266666666667 0.3 0.0333333333333 0.0 0.166666666667 0.0 0.1 0.0 0.0333333333333 0.1 0.0333333333333 0.0 0.733333333333 0.0 0.0 0.0333333333333 0.633333333333 0.0 0.433333333333 0.0 0.433333333333 0.0 0.266666666667 0.133333333333 0.3 0.0 0.1 0.0 0.0666666666667 0.1 0.0 0.0 0.1 0.0333333333333 0.366666666667 0.0 0.266666666667 0.166666666667 0.166666666667 0.0 0.433333333333 0.0 0.433333333333 0.0 0.433333333333 0.0 0.4 0.0 0.433333333333 0.0 0.333333333333 0.0666666666667 0.0666666666667 0.0 0.4 0.0 0.1 0.0333333333333 0.6 0.1 0.1 0.0333333333333 0.466666666667 0.133333333333 0.1 0.0 0.433333333333 0.0 0.433333333333 0.0 0.4 0.0 0.433333333333 0.0 0.366666666667 0.0 0.433333333333 0.0 0.4 0.0 0.366666666667 0.0666666666667 0.533333333333 0.0 0.133333333333 0.166666666667 0.4 0.0 0.2 0.0666666666667 0.2 0.233333333333 0.2 0.0 0.4 0.0 0.433333333333 0.0 0.1 0.0 0.733333333333 0.0 0.0 0.0666666666667 0.566666666667 0.0 0.133333333333 0.0 0.433333333333 0.1 0.0666666666667 0.0 0.433333333333 0.0666666666667 0.433333333333 0.0 0.233333333333 0.2 0.2 0.0 0.433333333333 0.0   0.268597352557 0.3491392704 0.441613324219 0.522030948978 0.583120999316 0.656453918339 0.71723323597 0.71723323597 0.70194518675 0.691691007395 0.684419862035 0.583120999316 0.548940401467 0.536511093158 0.496737306569 0.474737430862 0.464856130756 0.465166863464 0.465166863464 0.479584861102 0.493319246784 0.49437573799 0.512957553912 0.499968926729 0.465166863464 0.465166863464 0.449257348829 0.435895842396 0.436020135479 0.416443974893 0.408054191784 0.403766080418 0.383817040582 0.380026101547 0.388664470822 0.408364924492 0.36846684482 0.353800261015 0.353800261015 0.353800261015 0.371014853023 0.391088185942 0.411037225778 0.430924119073 0.423777266795 0.403268908085 0.382201230502 0.381020446212 0.40146665838 0.43483935119 0.414828164813 0.452799701697 0.513330433161 0.57280467342 0.651917220807 0.667391709651 0.627493629979 0.587657696849 0.562674787148 0.519545087316 0.43763594556 0.337144987881 0.236156857871 0.15567708657 0
0.266666666667 0.0 0.433333333333 0.0 0.4 0.0 0.266666666667 0.166666666667 0.0666666666667 0.0 0.3 0.0 0.0666666666667 0.0333333333333 0.2 0.0666666666667 0.233333333333 0.0 0.233333333333 0.0 0.0666666666667 0.133333333333 0.1 0.0 0.433333333333 0.0 0.433333333333 0.0 0.366666666667 0.0333333333333 0.4 0.0 0.466666666667 0.0 0.133333333333 0.0333333333333 0.466666666667 0.0 0.0666666666667 0.1 0.366666666667 0.0 0.3 0.133333333333 0.2 0.0 0.433333333333 0.0 0.3 0.0666666666667 0.266666666667 0.0 0.333333333333 0.0 0.333333333333 0.0 0.4 0.0333333333333 0.1 0.0 0.4 0.0333333333333 0.0 0.0666666666667 0.433333333333 0.0 0.1 0.0666666666667 0.266666666667 0.0666666666667 0.1 0.0 0.433333333333 0.0 0.433333333333 0.0 0.4 0.0 0.433333333333 0.0 0.266666666667 0.0 0.333333333333 0.0 0.4 0.0 0.166666666667 0.166666666667 0.433333333333 0.0 0.0 0.166666666667 0.233333333333 0.0 0.166666666667 0.0 0.4 0.166666666667 0.333333333333 0.0 0.466666666667 0.0333333333333 0.433333333333 0.0 0.1 0.0 0.833333333333 0.0 0.1 0.0 0.766666666667 0.0666666666667 0.133333333333 0.0 0.166666666667 0.0666666666667 0.0333333333333 0.0 0.233333333333 0.0 0.433333333333 0.0 0.3 0.133333333333 0.266666666667 0.0 0.433333333333 0.0   0.137406003356 0.224908333851 0.367596793238 0.439003169474 0.496053694612 0.553166366292 0.610341184513 0.667453856193 0.681623267665 0.653346591262 0.604064383817 0.546640979429 0.462494562178 0.386240755702 0.357901932757 0.362625069915 0.419302715804 0.441551177677 0.441551177677 0.441302591511 0.439935367597 0.411472251569 0.383133428625 0.354670312597 0.340438754583 0.340438754583 0.381641911628 0.438878876391 0.441861910385 0.446771487167 0.475358896277 0.492946367535 0.492946367535 0.51047169225 0.539245540986 0.543906531602 0.544030824685 0.543906531602 0.535889627742 0.507426511715 0.492946367535 0.492946367535 0.534149524579 0.590765023926 0.701448014418 0.792306258157 0.763843142129 0.702007333292 0.588403455348 0.5615561494 0.590143558511 0.618730967622 0.645516127028 0.645453980486 0.637499223168 0.608787520974 0.55148840967 0.465788328879 0.421353551675 0.392952582189 0.337517867131 0.270772481511 0.156857870859 0.0868808650799 0
0.433333333333 0.0 0.433333333333 0.0 0.4 0.0 0.433333333333 0.0 0.133333333333 0.0 0.433333333333 0.0 0.4 0.0 0.133333333333 0.3 0.0666666666667 0.0 0.333333333333 0.0333333333333 0.0 0.0 0.333333333333 0.0 0.433333333333 0.0 0.4 0.0 0.2 0.233333333333 0.133333333333 0.0 0.166666666667 0.0 0.433333333333 0.0 0.4 0.0 0.166666666667 0.266666666667 0.433333333333 0.0 0.1 0.266666666667 0.166666666667 0.0 0.333333333333 0.0 0.433333333333 0.0 0.433333333333 0.0 0.4 0.0 0.433333333333 0.0 0.433333333333 0.0 0.1 0.0 0.4 0.0 0.1 0.0 0.4 0.0 0.0666666666667 0.1 0.3 0.0 0.1 0.0666666666667 0.233333333333 0.0 0.433333333333 0.0 0.233333333333 0.0333333333333 0.333333333333 0.0666666666667 0.333333333333 0.0 0.433333333333 0.0 0.3 0.1 0.233333333333 0.1 0.533333333333 0.0 0.0666666666667 0.2 0.266666666667 0.0 0.266666666667 0.0 0.2 0.1 0.233333333333 0.0 0.133333333333 0.1 0.2 0.0 0.233333333333 0.0666666666667 0.266666666667 0.166666666667 0.166666666667 0.0 0.4 0.0666666666667 0.4 0.1 0.133333333333 0.2 0.266666666667 0.0 0.433333333333 0.0 0.433333333333 0.0 0.333333333333 0.1 0.3 0.0 0.433333333333 0.0   0.173264557827 0.247094649183 0.319992542415 0.356534708843 0.430613386365 0.476601827108 0.498539556274 0.554844322913 0.585420421354 0.603940090734 0.623578397862 0.533465912622 0.451556770866 0.413150208191 0.395562736934 0.387235100367 0.394506245727 0.451370331241 0.535268162327 0.607296003977 0.625380647567 0.610030451805 0.590827170468 0.572556087254 0.553228512833 0.546640979429 0.54744888447 0.547386737928 0.532658007582 0.513454726244 0.494624324156 0.493505686409 0.484370144801 0.465788328879 0.44770368529 0.428127524703 0.417003293767 0.436082282021 0.378658877633 0.332173264558 0.331551799142 0.313467155553 0.315455844882 0.33465912622 0.352743769809 0.34553477099 0.337580013672 0.356286122677 0.424025852961 0.459325088559 0.441924056926 0.497234478901 0.598036169287 0.704493194954 0.684482008576 0.610341184513 0.541358523398 0.522714560935 0.468709216332 0.412342303151 0.355726803803 0.261264060655 0.142999192095 0.0395252004226 0
0.166666666667 0.0 0.433333333333 0.0 0.4 0.0 0.166666666667 0.266666666667 0.133333333333 0.0 0.633333333333 0.0666666666667 0.0333333333333 0.0 0.666666666667 0.0333333333333 0.0666666666667 0.133333333333 0.4 0.0 0.1 0.0666666666667 0.433333333333 0.0 0.433333333333 0.0 0.433333333333 0.0 0.133333333333 0.266666666667 0.166666666667 0.0 0.566666666667 0.0333333333333 0.133333333333 0.0333333333333 0.466666666667 0.0666666666667 0.1 0.0333333333333 0.433333333333 0.0 0.433333333333 0.0 0.4 0.0 0.433333333333 0.0 0.433333333333 0.0 0.433333333333 0.0 0.4 0.0 0.433333333333 0.0 0.466666666667 0.133333333333 0.0666666666667 0.0 0.5 0.0333333333333 0.166666666667 0.0 0.333333333333 0.233333333333 0.0333333333333 0.0 0.466666666667 0.0333333333333 0.233333333333 0.0 0.433333333333 0.0333333333333 0.4 0.0666666666667 0.266666666667 0.1 0.4 0.0 0.433333333333 0.0 0.433333333333 0.0 0.4 0.0 0.433333333333 0.0 0.5 0.0 0.166666666667 0.1 0.533333333333 0.0 0.0666666666667 0.166666666667 0.266666666667 0.166666666667 0.266666666667 0.0 0.4 0.0 0.433333333333 0.0 0.133333333333 0.133333333333 0.433333333333 0.0 0.166666666667 0.0333333333333 0.5 0.0 0.1 0.0 0.433333333333 0.0666666666667 0.1 0.0 0.366666666667 0.1 0.433333333333 0.0 0.233333333333 0.2 0.2 0.0 0.433333333333 0.0   0.0397116400472 0.091231122988 0.156733577776 0.191659934125 0.279721583494 0.401963830713 0.505437822385 0.577465664036 0.614442856255 0.649307066062 0.665154434156 0.646696911317 0.643340998073 0.63153315518 0.579330060282 0.549686159965 0.529985706295 0.494251444907 0.469144242123 0.45292399478 0.399415822509 0.361319992542 0.344664719408 0.327201541234 0.310111242309 0.293890994966 0.302591510782 0.316512336088 0.316512336088 0.316512336088 0.316388043005 0.316388043005 0.316388043005 0.316388043005 0.316388043005 0.316388043005 0.316388043005 0.316388043005 0.320800447455 0.338015039463 0.343235348953 0.341060219999 0.323969921074 0.335964203592 0.368901870611 0.35075508048 0.340935926916 0.341433099248 0.356659001927 0.368591137903 0.369896215276 0.383257721708 0.40786775216 0.460070847057 0.546703125971 0.638120688584 0.586352619477 0.552607047418 0.535516748493 0.483810825928 0.423715120254 0.3531787956 0.253744329128 0.177925548443 0
0.366666666667 0.0 0.433333333333 0.0 0.4 0.0 0.366666666667 0.0666666666667 0.1 0.0 0.6 0.0333333333333 0.233333333333 0.0 0.4 0.2 0.133333333333 0.0333333333333 0.4 0.0 0.133333333333 0.0 0.433333333333 0.0 0.366666666667 0.0333333333333 0.5 0.0 0.0666666666667 0.266666666667 0.266666666667 0.0 0.233333333333 0.0 0.233333333333 0.0 0.366666666667 0.0 0.0666666666667 0.166666666667 0.433333333333 0.0 0.4 0.1 0.266666666667 0.0333333333333 0.466666666667 0.0 0.433333333333 0.0 0.433333333333 0.0 0.4 0.0 0.433333333333 0.0 0.366666666667 0.0333333333333 0.2 0.0 0.4 0.0 0.2 0.0333333333333 0.566666666667 0.133333333333 0.0 0.0333333333333 0.6 0.0 0.166666666667 0.0 0.433333333333 0.0 0.433333333333 0.0 0.4 0.0 0.433333333333 0.0 0.433333333333 0.0 0.433333333333 0.0 0.4 0.0 0.433333333333 0.0 0.5 0.0 0.2 0.133333333333 0.5 0.0 0.133333333333 0.2 0.233333333333 0.233333333333 0.2 0.0 0.4 0.0 0.433333333333 0.0 0.233333333333 0.0333333333333 0.566666666667 0.0 0.1 0.1 0.5 0.0 0.166666666667 0.0 0.566666666667 0.133333333333 0.2 0.0 0.466666666667 0.2 0.433333333333 0.0 0.266666666667 0.166666666667 0.233333333333 0.0 0.433333333333 0.0   0.00807905040085 0.0741408240631 0.151078242496 0.219936610528 0.286309116898 0.352122304394 0.417438319558 0.482940774346 0.521285190479 0.562426200982 0.611397675719 0.643092411907 0.642595239575 0.593437325213 0.460816605556 0.432167049904 0.399602262134 0.354235286806 0.336088496675 0.307128208315 0.278975824995 0.262320551861 0.230936548381 0.216891429992 0.21801006774 0.2172021627 0.217140016158 0.217015723075 0.217140016158 0.250512708968 0.254365794544 0.237151202536 0.221179541359 0.203467777018 0.198993226027 0.21359766329 0.213473370207 0.203592070101 0.195637312784 0.213784102915 0.243676589398 0.261139767572 0.26225840532 0.280467341992 0.27512273942 0.268038033683 0.285563358399 0.271269653844 0.278167919955 0.306941768691 0.309489776894 0.297309054751 0.300913554161 0.350133615064 0.40022372755 0.4513081847 0.507177925548 0.587471257225 0.57000807905 0.521533776645 0.473121620782 0.406749114412 0.280467341992 0.146230812255 0
0.4 0.0 0.433333333333 0.0 0.4 0.0 0.4 0.0333333333333 0.133333333333 0.0 0.266666666667 0.0 0.233333333333 0.0 0.133333333333 0.133333333333 0.1 0.0 0.233333333333 0.0 0.0333333333333 0.0333333333333 0.166666666667 0.0 0.433333333333 0.0 0.433333333333 0.0 0.166666666667 0.233333333333 0.2 0.0 0.2 0.0 0.333333333333 0.0 0.4 0.0 0.1 0.233333333333 0.4 0.0 0.1 0.3 0.1 0.0 0.366666666667 0.0 0.433333333333 0.0333333333333 0.366666666667 0.0333333333333 0.4 0.0 0.433333333333 0.0 0.5 0.0666666666667 0.0 0.0 0.533333333333 0.0 0.0 0.0666666666667 0.0333333333333 0.0 0.0 0.0 0.0 0.0 0.0 0.0 0.433333333333 0.0 0.466666666667 0.0666666666667 0.266666666667 0.0666666666667 0.466666666667 0.0 0.333333333333 0.0 0.433333333333 0.0 0.4 0.0 0.333333333333 0.1 0.533333333333 0.0 0.0 0.166666666667 0.3 0.0 0.166666666667 0.0 0.133333333333 0.3 0.133333333333 0.0 0.4 0.0 0.433333333333 0.0 0.0666666666667 0.0666666666667 0.366666666667 0.0 0.0666666666667 0.0333333333333 0.366666666667 0.0 0.4 0.0333333333333 0.333333333333 0.2 0.133333333333 0.1 0.4 0.0333333333333 0.433333333333 0.0 0.333333333333 0.1 0.3 0.0 0.433333333333 0.0   0.144242122926 0.18786899509 0.259088931701 0.315642284507 0.368093965571 0.403766080418 0.439438195264 0.475110310111 0.510782424958 0.546330246722 0.569138027469 0.586974084892 0.621651855074 0.660307003915 0.713753029644 0.75340252315 0.771176434031 0.723447890125 0.634578335716 0.619663165745 0.615685787086 0.544527997017 0.497855944317 0.51569200174 0.524641103723 0.524578957181 0.51165247654 0.493878565658 0.476042508234 0.461189484805 0.461189484805 0.454229072152 0.43645516127 0.418556957305 0.400783046423 0.382884842459 0.367099620906 0.384873531788 0.392828289106 0.375116524765 0.392952582189 0.446274314834 0.474115965447 0.491889876328 0.476042508234 0.455223416817 0.41955130197 0.411720837735 0.447268659499 0.515816294823 0.604747995774 0.679199552545 0.742464731838 0.671244795227 0.609719719098 0.574171897334 0.538437635946 0.50282766764 0.454229072152 0.400783046423 0.330557454478 0.247156795724 0.104841215586 0.0174631781741 0
0.166666666667 0.133333333333 0.433333333333 0.0 0.4 0.0 0.433333333333 0.133333333333 0.166666666667 0.0 0.366666666667 0.133333333333 0.0 0.0 0.466666666667 0.0333333333333 0.0666666666667 0.166666666667 0.466666666667 0.0 0.166666666667 0.0333333333333 0.566666666667 0.0 0.433333333333 0.0 0.433333333333 0.0 0.166666666667 0.233333333333 0.2 0.0 0.2 0.0 0.2 0.0 0.3 0.0 0.0666666666667 0.133333333333 0.433333333333 0.0 0.266666666667 0.0333333333333 0.233333333333 0.133333333333 0.166666666667 0.0 0.4 0.0333333333333 0.4 0.0 0.4 0.0 0.433333333333 0.0 0.333333333333 0.0 0.0666666666667 0.0 0.266666666667 0.0333333333333 0.0333333333333 0.0 0.1 0.266666666667 0.0 0.0 0.4 0.0 0.2 0.0666666666667 0.433333333333 0.0 0.166666666667 0.166666666667 0.233333333333 0.0333333333333 0.266666666667 0.0 0.366666666667 0.0 0.433333333333 0.0 0.4 0.0 0.366666666667 0.0666666666667 0.166666666667 0.0 0.0333333333333 0.0333333333333 0.1 0.0 0.0333333333333 0.0 0.333333333333 0.1 0.333333333333 0.0 0.4 0.0 0.433333333333 0.0 0.166666666667 0.0333333333333 0.533333333333 0.0 0.0 0.133333333333 0.433333333333 0.0 0.0666666666667 0.0 0.4 0.0 0.166666666667 0.0 0.233333333333 0.133333333333 0.433333333333 0.0 0.233333333333 0.2 0.2 0.0 0.433333333333 0.0   0.0125536013921 0.069106954198 0.165496240134 0.252563544839 0.336399229383 0.380026101547 0.418121931515 0.432726368778 0.461748803679 0.52936424088 0.580137965322 0.609346839848 0.645951152818 0.687092163321 0.75060592878 0.819837176061 0.861475358896 0.896961034118 0.896961034118 0.896961034118 0.89702318066 0.825057485551 0.673233484557 0.573985457709 0.50481635697 0.43682804052 0.369026163694 0.312224224722 0.26629793052 0.279783730035 0.275495618669 0.234789633957 0.221365980983 0.234851780498 0.248461873097 0.261947672612 0.264122801566 0.264433534274 0.292088745261 0.314647939842 0.314647939842 0.320303275123 0.335964203592 0.356969734634 0.38213908396 0.429432602076 0.485613075632 0.577776396744 0.674476415387 0.772232925238 0.846249456218 0.831707165496 0.817475607482 0.803989807967 0.759244298055 0.690075197315 0.660555590081 0.645889006277 0.595053135293 0.53943198061 0.469641414455 0.386302902243 0.262009819154 0.188801193214 0
0.3 0.0 0.433333333333 0.0 0.4 0.0 0.3 0.133333333333 0.0666666666667 0.0 0.5 0.0 0.2 0.0 0.3 0.166666666667 0.133333333333 0.0333333333333 0.5 0.1 0.0666666666667 0.0 0.566666666667 0.0 0.3 0.0 0.266666666667 0.0 0.0666666666667 0.2 0.0333333333333 0.0 0.466666666667 0.1 0.333333333333 0.0 0.6 0.0666666666667 0.233333333333 0.133333333333 0.433333333333 0.0 0.333333333333 0.1 0.3 0.0 0.433333333333 0.0 0.4 0.0 0.433333333333 0.0 0.4 0.0 0.4 0.0333333333333 0.1 0.0 0.0333333333333 0.0333333333333 0.0666666666667 0.0 0.0 0.0333333333333 0.5 0.0333333333333 0.133333333333 0.0 0.333333333333 0.133333333333 0.0333333333333 0.0 0.433333333333 0.0 0.433333333333 0.0 0.4 0.0 0.433333333333 0.0 0.3 0.0 0.4 0.0 0.4 0.0 0.266666666667 0.133333333333 0.433333333333 0.0 0.0333333333333 0.2 0.233333333333 0.0 0.2 0.0 0.266666666667 0.166666666667 0.266666666667 0.0 0.4 0.0 0.433333333333 0.0 0.166666666667 0.0 0.433333333333 0.0 0.0333333333333 0.133333333333 0.233333333333 0.0 0.166666666667 0.0 0.3 0.1 0.166666666667 0.0 0.233333333333 0.133333333333 0.433333333333 0.0 0.233333333333 0.2 0.2 0.0 0.433333333333 0.0   0.0586041886769 0.131377788826 0.221987446399 0.295693244671 0.368342551737 0.426884593872 0.451867503573 0.456777080355 0.464110372258 0.486980299546 0.471754396868 0.440121807221 0.392268970232 0.384438505997 0.384252066373 0.384376359456 0.384997824871 0.376297309055 0.35237089056 0.348952830775 0.348207072276 0.348393511901 0.325337144988 0.321670499037 0.345907650239 0.324467093406 0.311167733516 0.311167733516 0.312099931639 0.312721397054 0.312597103971 0.312597103971 0.312597103971 0.312348517805 0.287489901187 0.288235659686 0.31172705239 0.311664905848 0.298427692499 0.27835435958 0.327325834317 0.361941457958 0.387980858865 0.437325212852 0.485550929091 0.533155179914 0.581753775402 0.645640420111 0.71561742589 0.764775340252 0.813933254614 0.851718351874 0.827481200671 0.786775215959 0.738176620471 0.69026163694 0.641041576036 0.586663352184 0.51407619166 0.44086756572 0.373314275061 0.325523584613 0.169038593002 0.0219377291654 0
0.433333333333 0.0 0.433333333333 0.0 0.4 0.0 0.433333333333 0.0 0.166666666667 0.0 0.433333333333 0.0 0.266666666667 0.0 0.3 0.133333333333 0.1 0.0 0.4 0.0333333333333 0.133333333333 0.0 0.3 0.1 0.366666666667 0.0666666666667 0.3 0.0 0.266666666667 0.1 0.233333333333 0.0 0.266666666667 0.0 0.3 0.0 0.4 0.0 0.1 0.2 0.366666666667 0.0 0.266666666667 0.166666666667 0.166666666667 0.0 0.433333333333 0.0 0.433333333333 0.0 0.4 0.0333333333333 0.366666666667 0.0 0.433333333333 0.0 0.4 0.0333333333333 0.166666666667 0.0 0.4 0.0 0.166666666667 0.0333333333333 0.0666666666667 0.0666666666667 0.133333333333 0.0 0.1 0.0 0.2 0.0 0.433333333333 0.0 0.433333333333 0.0 0.3 0.1 0.333333333333 0.0 0.433333333333 0.0 0.433333333333 0.0 0.4 0.0 0.433333333333 0.0 0.566666666667 0.0666666666667 0.166666666667 0.0333333333333 0.733333333333 0.0 0.0666666666667 0.2 0.3 0.133333333333 0.3 0.0 0.4 0.0 0.433333333333 0.0 0.0333333333333 0.2 0.3 0.0333333333333 0.166666666667 0.0 0.5 0.0 0.1 0.0 0.5 0.0 0.0666666666667 0.1 0.266666666667 0.1 0.433333333333 0.0 0.1 0.333333333333 0.1 0.0 0.4 0.0   0.0838978310857 0.12914051333 0.188552607047 0.230439376049 0.247281088807 0.248026847306 0.268970231807 0.309862656143 0.372754956187 0.416630414517 0.46622335467 0.529053508172 0.558635261948 0.57000807905 0.549313280716 0.528369896215 0.509725933752 0.509788080293 0.46379963955 0.379963955006 0.378969610341 0.3789074638 0.3789074638 0.36082282021 0.346280529489 0.346280529489 0.345969796781 0.353551674849 0.395252004226 0.39823503822 0.378472438009 0.378596731092 0.378596731092 0.37853458455 0.358709837798 0.353675967932 0.374557205891 0.361133552918 0.350692933938 0.371636318439 0.348890684233 0.315455844882 0.336461375924 0.333354048847 0.312907836679 0.33385122118 0.345348331365 0.345348331365 0.345348331365 0.35237089056 0.373500714685 0.394630538811 0.419986327761 0.461686657138 0.612454166926 0.803865514884 0.803927661426 0.78198993226 0.740041016717 0.718351873718 0.671990553726 0.587906283015 0.398856503636 0.24777826114 0
0.433333333333 0.0 0.433333333333 0.0 0.4 0.0 0.433333333333 0.0 0.3 0.0 0.433333333333 0.0 0.4 0.0 0.3 0.133333333333 0.0666666666667 0.0 0.433333333333 0.0666666666667 0.166666666667 0.0 0.266666666667 0.2 0.333333333333 0.0 0.233333333333 0.0 0.233333333333 0.1 0.1 0.0 0.4 0.0 0.433333333333 0.0 0.4 0.0 0.4 0.0333333333333 0.133333333333 0.0 0.2 0.1 0.2 0.0 0.0666666666667 0.2 0.433333333333 0.0 0.3 0.133333333333 0.266666666667 0.0 0.433333333333 0.0 0.866666666667 0.0 0.0333333333333 0.0 0.8 0.0 0.0333333333333 0.0 0.233333333333 0.0 0.3 0.0 0.366666666667 0.0 0.133333333333 0.166666666667 0.433333333333 0.0 0.266666666667 0.233333333333 0.133333333333 0.0333333333333 0.466666666667 0.0 0.333333333333 0.0 0.433333333333 0.0 0.4 0.0 0.333333333333 0.1 0.433333333333 0.0 0.0666666666667 0.1 0.333333333333 0.0 0.133333333333 0.0 0.233333333333 0.166666666667 0.266666666667 0.0 0.366666666667 0.0 0.433333333333 0.0 0.2 0.0 0.6 0.0333333333333 0.1 0.0333333333333 0.566666666667 0.0 0.0666666666667 0.0 0.433333333333 0.0 0.166666666667 0.0 0.266666666667 0.133333333333 0.433333333333 0.0 0.333333333333 0.1 0.3 0.0 0.433333333333 0.0   0.0491579143621 0.0586041886769 0.075383754894 0.103660431297 0.137281710273 0.17096513579 0.204648561308 0.207631595302 0.208625939966 0.242247218942 0.278478652663 0.328879497856 0.379528929215 0.42999192095 0.474115965447 0.507737244422 0.507675097881 0.474115965447 0.419799888136 0.352308744018 0.334410540053 0.334410540053 0.334410540053 0.334410540053 0.366975327823 0.396308495432 0.379466782674 0.366105276241 0.366105276241 0.366105276241 0.366167422783 0.366105276241 0.366105276241 0.347274874153 0.313653595177 0.325461438071 0.359144863588 0.366105276241 0.366105276241 0.396867814306 0.428500403953 0.394816978435 0.373562861227 0.42396370642 0.474613137779 0.525013982972 0.549810453048 0.533030886831 0.533093033373 0.549810453048 0.660679883165 0.828475545336 0.835995276863 0.78559443167 0.749362997949 0.715741718973 0.698402833882 0.678578087129 0.628177241936 0.567087191598 0.466285501212 0.332173264558 0.130818469952 0.0174631781741 0
0.433333333333 0.0 0.433333333333 0.0 0.4 0.0 0.433333333333 0.0 0.2 0.0 0.433333333333 0.0 0.4 0.0 0.2 0.233333333333 0.0666666666667 0.0 0.4 0.0666666666667 0.0333333333333 0.0 0.366666666667 0.0666666666667 0.266666666667 0.0 0.0666666666667 0.0 0.166666666667 0.0333333333333 0.0333333333333 0.0 0.2 0.0 0.433333333333 0.0 0.4 0.0 0.2 0.233333333333 0.3 0.0 0.0333333333333 0.266666666667 0.0333333333333 0.0 0.266666666667 0.0 0.433333333333 0.0 0.433333333333 0.0 0.4 0.0 0.433333333333 0.0 0.3 0.0 0.0333333333333 0.0333333333333 0.166666666667 0.0 0.0666666666667 0.0 0.3 0.0 0.133333333333 0.0 0.366666666667 0.0 0.0333333333333 0.1 0.433333333333 0.0 0.333333333333 0.1 0.3 0.0 0.433333333333 0.0 0.266666666667 0.0 0.4 0.0 0.4 0.0 0.233333333333 0.166666666667 0.433333333333 0.0 0.133333333333 0.2 0.233333333333 0.0 0.3 0.0 0.0666666666667 0.2 0.0666666666667 0.0 0.233333333333 0.0 0.266666666667 0.0 0.0666666666667 0.0 0.466666666667 0.0 0.1 0.0666666666667 0.233333333333 0.133333333333 0.333333333333 0.0 0.166666666667 0.266666666667 0.0333333333333 0.0 0.433333333333 0.0 0.433333333333 0.0 0.4 0.0333333333333 0.366666666667 0.0 0.433333333333 0.0   0.109129326953 0.114846808775 0.149524578957 0.183953762973 0.241687900068 0.321856938661 0.402709589211 0.464234665341 0.521658069728 0.575414828165 0.610154744888 0.644459635821 0.667516002734 0.679075259462 0.690572369648 0.682804051955 0.671244795227 0.648001988689 0.567273631222 0.487104592629 0.435274376981 0.412342303151 0.389223789696 0.395065564601 0.406624821329 0.414144552856 0.402709589211 0.391150332484 0.385432850662 0.385432850662 0.385432850662 0.385557143745 0.385557143745 0.383630600957 0.37207134423 0.360636380585 0.354856752222 0.35479460568 0.354856752222 0.364489466161 0.375737990181 0.387421539991 0.398980796719 0.410353613821 0.427692498912 0.450624572743 0.473805232739 0.52575974147 0.582996706233 0.636815611211 0.671493381393 0.705798272326 0.717481822137 0.705922565409 0.694363308682 0.663600770617 0.629171586601 0.596482505749 0.573426138835 0.550494065005 0.486918153005 0.383941333665 0.279908023119 0.262631284569 0
0.433333333333 0.0 0.433333333333 0.0 0.4 0.0 0.433333333333 0.0 0.1 0.0 0.466666666667 0.0 0.333333333333 0.0 0.166666666667 0.266666666667 0.0666666666667 0.0 0.733333333333 0.0333333333333 0.0666666666667 0.0 0.666666666667 0.0666666666667 0.266666666667 0.0 0.566666666667 0.0 0.1 0.166666666667 0.333333333333 0.0 0.166666666667 0.0 0.366666666667 0.0 0.4 0.0 0.1 0.266666666667 0.433333333333 0.0 0.233333333333 0.2 0.2 0.0 0.433333333333 0.0 0.433333333333 0.0 0.433333333333 0.0 0.4 0.0 0.433333333333 0.0 0.366666666667 0.0 0.2 0.0 0.4 0.0 0.133333333333 0.0666666666667 0.566666666667 0.0 0.0333333333333 0.1 0.433333333333 0.0 0.0666666666667 0.0333333333333 0.433333333333 0.0 0.433333333333 0.0 0.4 0.0 0.433333333333 0.0 0.266666666667 0.0 0.433333333333 0.0 0.4 0.0 0.266666666667 0.166666666667 0.533333333333 0.0 0.2 0.2 0.333333333333 0.0 0.333333333333 0.0666666666667 0.1 0.166666666667 0.266666666667 0.0 0.233333333333 0.0 0.433333333333 0.0 0.166666666667 0.0 0.433333333333 0.0 0.166666666667 0.0 0.4 0.0333333333333 0.366666666667 0.0 0.4 0.233333333333 0.2 0.0 0.5 0.1 0.433333333333 0.0 0.4 0.0333333333333 0.366666666667 0.0 0.433333333333 0.0   0.0473556646573 0.153874836865 0.268535206016 0.355229631471 0.377353800261 0.413336647816 0.462681001802 0.528804922006 0.576471319371 0.610403331055 0.631160275931 0.630973836306 0.586290472935 0.520228699273 0.454166925611 0.348642098067 0.304331613946 0.319184637375 0.275184885961 0.278416506121 0.293393822634 0.293393822634 0.293393822634 0.305388105152 0.320676154372 0.298551985582 0.27636567025 0.270461748804 0.292523771052 0.271207507302 0.262134112237 0.262071965695 0.262071965695 0.279908023119 0.301970045367 0.323534895283 0.323597041825 0.323472748742 0.318252439252 0.296252563545 0.292896650301 0.293145236468 0.294823193089 0.316947361879 0.323969921074 0.317755266919 0.295631098129 0.332732583432 0.35479460568 0.357280467342 0.379156049966 0.369399042943 0.354297433348 0.354173140265 0.416071095644 0.494810763781 0.562923373314 0.518799328817 0.458020011186 0.408054191784 0.385930022994 0.342241004288 0.259026785159 0.170405816916 0
0.433333333333 0.0 0.433333333333 0.0 0.4 0.0 0.433333333333 0.0 0.333333333333 0.0 0.433333333333 0.0 0.4 0.0 0.333333333333 0.1 0.0333333333333 0.0 0.433333333333 0.0 0.166666666667 0.0 0.266666666667 0.166666666667 0.1 0.0333333333333 0.233333333333 0.0 0.0333333333333 0.0333333333333 0.2 0.0 0.266666666667 0.0 0.433333333333 0.0 0.4 0.0 0.266666666667 0.166666666667 0.266666666667 0.0 0.133333333333 0.166666666667 0.1 0.0 0.233333333333 0.0666666666667 0.433333333333 0.0 0.266666666667 0.166666666667 0.233333333333 0.0 0.433333333333 0.0 0.3 0.0 0.2 0.0333333333333 0.4 0.0 0.0333333333333 0.166666666667 0.233333333333 0.0 0.2 0.1 0.266666666667 0.0 0.1 0.166666666667 0.433333333333 0.0 0.333333333333 0.1 0.3 0.0 0.433333333333 0.0 0.133333333333 0.0 0.433333333333 0.0 0.4 0.0 0.133333333333 0.3 0.433333333333 0.0 0.1 0.233333333333 0.2 0.0 0.3 0.0 0.2 0.2 0.1 0.0 0.333333333333 0.0333333333333 0.233333333333 0.0 0.0 0.0 0.3 0.0 0.0333333333333 0.0 0.233333333333 0.0666666666667 0.3 0.0 0.233333333333 0.2 0.1 0.0 0.4 0.0 0.433333333333 0.0 0.4 0.0333333333333 0.366666666667 0.0 0.433333333333 0.0   0.109129326953 0.150394630539 0.212292585918 0.276924989124 0.324902119197 0.373065688894 0.403144615002 0.42719532658 0.455472002983 0.503449133056 0.507985830589 0.492884220993 0.477098999441 0.475607482444 0.451618917407 0.446336461376 0.434404325399 0.415760362936 0.415698216394 0.438257410975 0.446336461376 0.437325212852 0.415760362936 0.415884656019 0.416071095644 0.416133242185 0.42234789634 0.446522901001 0.423528680629 0.41631968181 0.416257535268 0.419675595053 0.443912746256 0.468025604375 0.478093344105 0.478031197564 0.477596171773 0.453669753278 0.447330806041 0.447392952582 0.45174321049 0.475669628985 0.456528494189 0.447392952582 0.455472002983 0.476228947859 0.452178236281 0.465601889255 0.465664035796 0.45211608974 0.476104654776 0.454601951401 0.462121682928 0.477161145982 0.481946429681 0.529861413212 0.578087129451 0.5744204835 0.532782300665 0.508731589087 0.461313777888 0.413336647816 0.324839972656 0.201230501523 0
0.4 0.0 0.433333333333 0.0 0.4 0.0 0.4 0.0333333333333 0.0333333333333 0.0 0.4 0.0 0.233333333333 0.0 0.166666666667 0.233333333333 0.0 0.0 0.0333333333333 0.0 0.0 0.0 0.0 0.0 0.433333333333 0.0 0.433333333333 0.0 0.133333333333 0.266666666667 0.166666666667 0.0 0.233333333333 0.0 0.266666666667 0.0333333333333 0.266666666667 0.0 0.166666666667 0.133333333333 0.433333333333 0.0 0.166666666667 0.266666666667 0.133333333333 0.0 0.433333333333 0.0 0.433333333333 0.0 0.433333333333 0.0 0.4 0.0 0.433333333333 0.0 0.333333333333 0.133333333333 0.0333333333333 0.0 0.366666666667 0.0333333333333 0.133333333333 0.0 0.3 0.0666666666667 0.133333333333 0.0333333333333 0.133333333333 0.133333333333 0.1 0.0 0.433333333333 0.0 0.433333333333 0.0 0.333333333333 0.0666666666667 0.366666666667 0.0 0.433333333333 0.0 0.433333333333 0.0 0.4 0.0 0.433333333333 0.0 0.266666666667 0.0 0.133333333333 0.0333333333333 0.3 0.0 0.0333333333333 0.133333333333 0.3 0.133333333333 0.3 0.0 0.4 0.0 0.433333333333 0.0 0.0333333333333 0.133333333333 0.233333333333 0.0 0.133333333333 0.0 0.366666666667 0.0 0.0666666666667 0.0 0.433333333333 0.0333333333333 0.0333333333333 0.0 0.4 0.0333333333333 0.433333333333 0.0 0.166666666667 0.266666666667 0.133333333333 0.0 0.433333333333 0.0   0.2172021627 0.248337580014 0.282269591697 0.302032191909 0.356037536511 0.399353675968 0.419116276179 0.458330743894 0.48834752346 0.506121434342 0.485737368715 0.46622335467 0.441799763843 0.382511963209 0.376297309055 0.395438443851 0.415263190603 0.434901497732 0.442421229259 0.42278292213 0.402958175378 0.391336772109 0.391771797899 0.430613386365 0.450997451992 0.450065253869 0.429494748617 0.420918525884 0.423404387546 0.443229134299 0.46299173451 0.469082095581 0.42881113666 0.419613448512 0.419675595053 0.41955130197 0.41955130197 0.411410105028 0.391833944441 0.409856441489 0.409856441489 0.390963892859 0.390839599776 0.415201044062 0.447952271456 0.428251817786 0.435522963147 0.450811012367 0.450500279659 0.480952085016 0.513951898577 0.53259586104 0.587844136474 0.656267478715 0.734945000311 0.700826549003 0.661487788205 0.620906096576 0.561680442483 0.51326828662 0.466906966627 0.38735939345 0.281088807408 0.18985768442 0
0.433333333333 0.0 0.433333333333 0.0 0.4 0.0 0.433333333333 0.0 0.266666666667 0.0 0.433333333333 0.0 0.4 0.0 0.266666666667 0.166666666667 0.166666666667 0.0 0.333333333333 0.166666666667 0.0666666666667 0.0 0.366666666667 0.1 0.333333333333 0.133333333333 0.3 0.0 0.233333333333 0.166666666667 0.233333333333 0.0 0.3 0.0 0.433333333333 0.0 0.4 0.0 0.3 0.133333333333 0.0333333333333 0.0 0.1 0.0 0.0666666666667 0.0 0.0333333333333 0.0666666666667 0.266666666667 0.0 0.233333333333 0.2 0.0333333333333 0.0 0.433333333333 0.0 0.233333333333 0.0 0.233333333333 0.0 0.233333333333 0.0 0.133333333333 0.0666666666667 0.233333333333 0.0 0.2 0.0 0.233333333333 0.0 0.1 0.1 0.433333333333 0.0 0.166666666667 0.233333333333 0.166666666667 0.0 0.4 0.0 0.433333333333 0.0 0.433333333333 0.0 0.4 0.0 0.433333333333 0.0 0.6 0.0 0.166666666667 0.133333333333 0.566666666667 0.0 0.133333333333 0.133333333333 0.3 0.133333333333 0.233333333333 0.0 0.4 0.0 0.366666666667 0.0 0.166666666667 0.0 0.433333333333 0.0 0.1 0.1 0.266666666667 0.0666666666667 0.0666666666667 0.0 0.433333333333 0.0666666666667 0.133333333333 0.0 0.3 0.166666666667 0.433333333333 0.0 0.266666666667 0.166666666667 0.233333333333 0.0 0.433333333333 0.0   0.0318811758126 0.0820334348394 0.147846622335 0.163010378472 0.177490522652 0.1914734945 0.166677024424 0.177055496862 0.278540799205 0.36001491517 0.429432602076 0.471816543409 0.514138338201 0.556646572618 0.588030576098 0.60095705674 0.572742526878 0.542539307688 0.513516872786 0.500093219812 0.479460568019 0.45174321049 0.447765831831 0.447020073333 0.446957926791 0.456901373439 0.468274190541 0.453607606737 0.453669753278 0.468274190541 0.468771362874 0.472997327699 0.48872040271 0.492076315953 0.487788204586 0.459822260891 0.438319557517 0.423280094463 0.423280094463 0.424460878752 0.42359082717 0.424025852961 0.426511714623 0.439748927972 0.447082219874 0.448387297247 0.433099248027 0.42116711205 0.42116711205 0.43241563607 0.447082219874 0.447890124915 0.454477658318 0.466720527003 0.507985830589 0.565533528059 0.651917220807 0.646572618234 0.59977627245 0.52855633584 0.46379963955 0.405754769747 0.335839910509 0.285936237648 0
0.433333333333 0.0 0.433333333333 0.0 0.4 0.0 0.433333333333 0.0 0.3 0.0 0.433333333333 0.0 0.4 0.0 0.3 0.133333333333 0.0333333333333 0.0 0.433333333333 0.0 0.1 0.0 0.333333333333 0.1 0.166666666667 0.0 0.166666666667 0.0 0.0333333333333 0.133333333333 0.0 0.0 0.333333333333 0.0 0.433333333333 0.0 0.4 0.0 0.333333333333 0.1 0.133333333333 0.0 0.166666666667 0.1 0.0666666666667 0.0 0.166666666667 0.0666666666667 0.433333333333 0.0 0.266666666667 0.166666666667 0.233333333333 0.0 0.433333333333 0.0 0.366666666667 0.0333333333333 0.1 0.0666666666667 0.433333333333 0.0 0.0333333333333 0.133333333333 0.366666666667 0.0333333333333 0.266666666667 0.0 0.4 0.0 0.266666666667 0.0333333333333 0.433333333333 0.0 0.266666666667 0.166666666667 0.233333333333 0.0 0.433333333333 0.0 0.166666666667 0.0 0.433333333333 0.0 0.4 0.0 0.166666666667 0.266666666667 0.433333333333 0.0 0.1 0.233333333333 0.2 0.0 0.3 0.0 0.0666666666667 0.1 0.333333333333 0.0 0.133333333333 0.0 0.433333333333 0.0 0.0333333333333 0.0 0.566666666667 0.0 0.0 0.0 0.5 0.0 0.233333333333 0.0 0.166666666667 0.133333333333 0.0666666666667 0.0 0.3 0.0 0.433333333333 0.0 0.4 0.0333333333333 0.366666666667 0.0 0.433333333333 0.0   0.0870673047045 0.123174445342 0.16251320614 0.185693866136 0.188863339755 0.188863339755 0.188801193214 0.188801193214 0.235597538997 0.328755204773 0.421291405133 0.472997327699 0.496053694612 0.519234354608 0.542352868063 0.565595674601 0.589273506929 0.540799204524 0.485488782549 0.462370269095 0.439376048723 0.425517369958 0.4255795165 0.447579392207 0.447641538748 0.424460878752 0.401280218756 0.405506183581 0.431980610279 0.478404076813 0.493257100242 0.493132807159 0.493132807159 0.493257100242 0.500528245603 0.523522465975 0.506618606675 0.483375800137 0.460381579765 0.437200919769 0.437200919769 0.460381579765 0.483624386303 0.493257100242 0.493194953701 0.493132807159 0.493070660618 0.498166677024 0.521285190479 0.580137965322 0.627680069604 0.627680069604 0.628239388478 0.638182835125 0.661177055497 0.640047231372 0.59331303213 0.525573301846 0.502392641849 0.451867503573 0.382387670126 0.313032129762 0.194829407743 0.0868187185383 0
0.433333333333 0.0 0.433333333333 0.0 0.4 0.0 0.433333333333 0.0 0.233333333333 0.0 0.433333333333 0.0 0.4 0.0 0.233333333333 0.2 0.0 0.0 0.4 0.0 0.133333333333 0.0 0.2 0.166666666667 0.333333333333 0.0 0.266666666667 0.0 0.166666666667 0.133333333333 0.1 0.0 0.233333333333 0.0 0.433333333333 0.0 0.4 0.0 0.233333333333 0.2 0.333333333333 0.0 0.133333333333 0.166666666667 0.133333333333 0.0 0.3 0.0 0.433333333333 0.0 0.4 0.0333333333333 0.366666666667 0.0 0.433333333333 0.0 0.533333333333 0.0 0.1 0.133333333333 0.4 0.0 0.166666666667 0.0666666666667 0.566666666667 0.0 0.2 0.0333333333333 0.633333333333 0.0 0.0666666666667 0.166666666667 0.433333333333 0.0 0.433333333333 0.0 0.4 0.0 0.433333333333 0.0 0.166666666667 0.0 0.333333333333 0.0 0.4 0.0 0.0666666666667 0.266666666667 0.433333333333 0.0 0.266666666667 0.166666666667 0.233333333333 0.0 0.433333333333 0.0 0.3 0.133333333333 0.1 0.0 0.333333333333 0.0 0.233333333333 0.0 0.0666666666667 0.0 0.533333333333 0.0666666666667 0.133333333333 0.0 0.4 0.166666666667 0.433333333333 0.0 0.133333333333 0.3 0.1 0.0 0.433333333333 0.0 0.433333333333 0.0 0.433333333333 0.0 0.4 0.0 0.433333333333 0.0   0.0511466036915 0.112050214406 0.211111801628 0.258156733578 0.29606612392 0.358026225841 0.427319619663 0.514386924368 0.564414890311 0.57684419862 0.553849978249 0.517494251445 0.480517059226 0.445217823628 0.420980672426 0.396370641974 0.371884904605 0.360636380585 0.358150518924 0.368777577528 0.380647566963 0.368964017152 0.363805854204 0.376297309055 0.383319868249 0.384749238705 0.376359455596 0.364116586912 0.361257846001 0.359020570505 0.35839910509 0.353800261015 0.342924616245 0.354421726431 0.37971536884 0.37207134423 0.358647691256 0.360698527127 0.36523522466 0.376297309055 0.38897520353 0.403331054627 0.41551177677 0.426946740414 0.426946740414 0.426449568082 0.426014542291 0.420607793176 0.408178484867 0.425890249208 0.462743148344 0.531850102542 0.600770617115 0.563047666397 0.515194829408 0.441799763843 0.39301472873 0.368901870611 0.343235348953 0.317009508421 0.292523771052 0.259772543658 0.186439624635 0.141321235473 0
0.433333333333 0.0 0.433333333333 0.0 0.4 0.0 0.433333333333 0.0 0.2 0.0 0.433333333333 0.0 0.4 0.0 0.2 0.233333333333 0.0333333333333 0.0 0.3 0.0 0.133333333333 0.0 0.166666666667 0.133333333333 0.4 0.0 0.2 0.0 0.2 0.166666666667 0.0 0.0 0.266666666667 0.0 0.433333333333 0.0 0.4 0.0 0.266666666667 0.166666666667 0.266666666667 0.0 0.0666666666667 0.166666666667 0.0666666666667 0.0 0.233333333333 0.0 0.433333333333 0.0 0.366666666667 0.0666666666667 0.333333333333 0.0 0.433333333333 0.0 0.566666666667 0.0 0.0333333333333 0.0 0.533333333333 0.0 0.0 0.0333333333333 0.266666666667 0.0 0.0666666666667 0.0 0.3 0.0 0.0 0.0666666666667 0.233333333333 0.0 0.3 0.133333333333 0.0666666666667 0.0 0.433333333333 0.0 0.233333333333 0.166666666667 0.5 0.0 0.4 0.233333333333 0.133333333333 0.266666666667 0.433333333333 0.0 0.0666666666667 0.233333333333 0.166666666667 0.0 0.3 0.0 0.133333333333 0.133333333333 0.0666666666667 0.0 0.233333333333 0.0 0.2 0.0 0.1 0.0 0.566666666667 0.0666666666667 0.0666666666667 0.0 0.533333333333 0.0666666666667 0.266666666667 0.0 0.3 0.133333333333 0.1 0.0 0.433333333333 0.0 0.433333333333 0.0 0.333333333333 0.1 0.3 0.0 0.433333333333 0.0   0.14200484743 0.181592194394 0.272450438133 0.352992355975 0.407681312535 0.456590640731 0.47504816357 0.494127151824 0.530855757877 0.567522217389 0.604250823442 0.640855136412 0.649431359145 0.649369212603 0.625380647567 0.587781989932 0.578397862159 0.597290410789 0.609222546765 0.609160400224 0.609160400224 0.609160400224 0.604002237275 0.549375427257 0.494189298366 0.492387048661 0.492138462495 0.476601827108 0.458268597353 0.465850475421 0.484743024051 0.472810888074 0.436641600895 0.43160773103 0.467217699335 0.497793797775 0.516562053322 0.522901000559 0.468274190541 0.41470387173 0.397116400472 0.37971536884 0.41029146728 0.446212168293 0.454477658318 0.454664097943 0.466409794295 0.485053756758 0.521906655895 0.576719905537 0.638058542042 0.709775650985 0.756758436393 0.720278416506 0.683674103536 0.647753402523 0.611646261886 0.557081598409 0.502081909142 0.447206512958 0.392766142564 0.285874091107 0.157727922441 0.101671741968 0
0.433333333333 0.0 0.433333333333 0.0 0.4 0.0 0.433333333333 0.0 0.1 0.0 0.566666666667 0.0 0.333333333333 0.0 0.266666666667 0.3 0.233333333333 0.0 0.4 0.1 0.1 0.0 0.466666666667 0.0333333333333 0.6 0.0333333333333 0.466666666667 0.0 0.366666666667 0.233333333333 0.233333333333 0.0 0.2 0.0 0.4 0.0 0.433333333333 0.0 0.1 0.3 0.433333333333 0.0 0.2 0.233333333333 0.166666666667 0.0 0.433333333333 0.0 0.433333333333 0.0 0.433333333333 0.0 0.4 0.0 0.433333333333 0.0 0.6 0.0 0.166666666667 0.0 0.5 0.0 0.166666666667 0.0 0.4 0.0333333333333 0.1 0.0333333333333 0.233333333333 0.0333333333333 0.133333333333 0.0 0.433333333333 0.0 0.433333333333 0.0 0.4 0.0 0.433333333333 0.0 0.433333333333 0.0 0.433333333333 0.0 0.4 0.0 0.433333333333 0.0 0.633333333333 0.0 0.166666666667 0.133333333333 0.566666666667 0.0 0.166666666667 0.1 0.366666666667 0.266666666667 0.233333333333 0.0 0.533333333333 0.0333333333333 0.466666666667 0.0 0.2 0.0 0.733333333333 0.0 0.2 0.0 0.633333333333 0.0333333333333 0.233333333333 0.0 0.5 0.2 0.133333333333 0.0 0.533333333333 0.133333333333 0.433333333333 0.0 0.3 0.133333333333 0.266666666667 0.0 0.433333333333 0.0   0.0387794419241 0.0869430116214 0.162326766515 0.237151202536 0.309241190728 0.368218258654 0.427878938537 0.488098937294 0.526816232677 0.556833012243 0.602137841029 0.60499658194 0.484743024051 0.421104965509 0.408364924492 0.344416133242 0.270772481511 0.24013423653 0.220123050152 0.220993101734 0.211484680878 0.195140140451 0.219377291654 0.240569262321 0.211298241253 0.188117581257 0.173637437077 0.190354856752 0.220993101734 0.235908271705 0.250264122802 0.264557827357 0.256354483873 0.225716238891 0.23050152259 0.245416692561 0.245416692561 0.245976011435 0.2469703561 0.229507177926 0.198806786402 0.206575104095 0.220930955192 0.236840469828 0.240258529613 0.224597601143 0.229196445218 0.243925175564 0.260331862532 0.273506929339 0.273382636256 0.280591635076 0.295941830837 0.354981045305 0.429556895159 0.57883288795 0.673854949972 0.629855198558 0.58448822323 0.538313342862 0.468336337083 0.383817040582 0.203592070101 0.0884345286185 0
0.333333333333 0.0 0.433333333333 0.0 0.4 0.0 0.333333333333 0.1 0.1 0.0 0.433333333333 0.0 0.266666666667 0.0 0.233333333333 0.2 0.0333333333333 0.0333333333333 0.566666666667 0.0666666666667 0.0 0.0 0.6 0.0333333333333 0.433333333333 0.0 0.433333333333 0.0 0.233333333333 0.2 0.2 0.0 0.466666666667 0.0 0.266666666667 0.166666666667 0.366666666667 0.0 0.3 0.1 0.433333333333 0.0 0.266666666667 0.166666666667 0.233333333333 0.0 0.433333333333 0.0 0.433333333333 0.0 0.433333333333 0.0 0.4 0.0 0.433333333333 0.0 0.4 0.0333333333333 0.133333333333 0.0 0.4 0.0 0.166666666667 0.0 0.4 0.0333333333333 0.3 0.0 0.366666666667 0.1 0.133333333333 0.0666666666667 0.433333333333 0.0 0.433333333333 0.0 0.2 0.2 0.233333333333 0.0 0.433333333333 0.0 0.433333333333 0.0 0.4 0.0 0.433333333333 0.0 0.7 0.0 0.2 0.0666666666667 0.7 0.0 0.133333333333 0.133333333333 0.333333333333 0.1 0.333333333333 0.0 0.4 0.0 0.433333333333 0.0 0.0 0.166666666667 0.233333333333 0.0 0.133333333333 0.0 0.4 0.0 0.0 0.0 0.2 0.0 0.0 0.0 0.1 0.0 0.433333333333 0.0 0.2 0.233333333333 0.166666666667 0.0 0.433333333333 0.0   0.0828413398794 0.154123423032 0.265925051271 0.288794978559 0.312037785097 0.38052327388 0.405941209372 0.378223851843 0.40022372755 0.441613324219 0.443788453173 0.441551177677 0.428127524703 0.436020135479 0.463116027593 0.458020011186 0.444658504754 0.430551239824 0.426138835374 0.44086756572 0.437200919769 0.421602137841 0.420297060469 0.421042818967 0.420421353552 0.413647380523 0.398359331303 0.394816978435 0.396867814306 0.397862158971 0.398297184762 0.396805667765 0.396122055808 0.396122055808 0.406935554036 0.419613448512 0.392952582189 0.369896215276 0.354608166056 0.356161829594 0.370020508359 0.396929960848 0.420918525884 0.40705984712 0.403579640793 0.416381828351 0.401963830713 0.373935740476 0.412280156609 0.449381641912 0.461065191722 0.480206326518 0.507550804798 0.546765272513 0.590578584302 0.687527189112 0.737803741222 0.669131812815 0.60742029706 0.551364116587 0.471878689951 0.387856565782 0.303834441613 0.25020197626 0
0.433333333333 0.0 0.433333333333 0.0 0.4 0.0 0.433333333333 0.0 0.133333333333 0.0 0.433333333333 0.0 0.4 0.0 0.133333333333 0.3 0.133333333333 0.0 0.3 0.0666666666667 0.0666666666667 0.0 0.333333333333 0.0 0.466666666667 0.0333333333333 0.366666666667 0.0 0.233333333333 0.2 0.166666666667 0.0 0.233333333333 0.0 0.433333333333 0.0 0.4 0.0 0.233333333333 0.2 0.433333333333 0.0 0.1 0.3 0.133333333333 0.0 0.366666666667 0.0 0.433333333333 0.0 0.433333333333 0.0 0.4 0.0 0.433333333333 0.0 0.533333333333 0.0 0.166666666667 0.0 0.466666666667 0.0 0.166666666667 0.0 0.2 0.133333333333 0.2 0.166666666667 0.166666666667 0.0 0.433333333333 0.0666666666667 0.433333333333 0.0 0.4 0.0 0.266666666667 0.133333333333 0.266666666667 0.0 0.433333333333 0.0 0.433333333333 0.0 0.4 0.0 0.433333333333 0.0 0.6 0.0 0.166666666667 0.1 0.6 0.0 0.1 0.166666666667 0.4 0.0333333333333 0.4 0.0 0.4 0.0 0.433333333333 0.0 0.233333333333 0.0333333333333 0.333333333333 0.0 0.133333333333 0.0666666666667 0.266666666667 0.0 0.166666666667 0.0 0.433333333333 0.0666666666667 0.133333333333 0.0 0.366666666667 0.0666666666667 0.433333333333 0.0 0.233333333333 0.2 0.2 0.0 0.433333333333 0.0   0.101920328134 0.0889317009508 0.0675532906594 0.100242371512 0.142502019763 0.164439748928 0.186501771176 0.209123112299 0.231433720713 0.252936424088 0.258964638618 0.258902492076 0.32017898204 0.389472375862 0.478652662979 0.558573115406 0.623391958238 0.62146541545 0.577341370953 0.515816294823 0.453483313654 0.430489093282 0.420297060469 0.442980548132 0.443229134299 0.420483500093 0.41433099248 0.414641725188 0.41470387173 0.407681312535 0.364489466161 0.346653408738 0.36846684482 0.377043067553 0.376980921012 0.358150518924 0.337828599838 0.359144863588 0.362562923373 0.319371077 0.308744018395 0.330619601019 0.320924740538 0.298987011373 0.298365545957 0.298738425207 0.298800571748 0.315269405258 0.357777639674 0.38816729849 0.410912932695 0.433969299608 0.453234727487 0.408986389907 0.425765956125 0.600832763657 0.677708035548 0.654962401342 0.585171835187 0.497731651234 0.430240507116 0.356596855385 0.247902554223 0.181157168604 0
0.433333333333 0.0 0.433333333333 0.0 0.4 0.0 0.433333333333 0.0 0.266666666667 0.0 0.433333333333 0.0 0.4 0.0 0.266666666667 0.166666666667 0.0333333333333 0.0 0.533333333333 0.0 0.0666666666667 0.0 0.433333333333 0.0666666666667 0.166666666667 0.0 0.3 0.0 0.0666666666667 0.1 0.133333333333 0.0 0.233333333333 0.0 0.433333333333 0.0 0.4 0.0 0.233333333333 0.2 0.3 0.0 0.133333333333 0.2 0.1 0.0 0.266666666667 0.0666666666667 0.433333333333 0.0 0.433333333333 0.0 0.4 0.0 0.433333333333 0.0 0.433333333333 0.0 0.1 0.0 0.4 0.0 0.1 0.0 0.1 0.0 0.1 0.0 0.166666666667 0.0 0.0 0.1 0.433333333333 0.0 0.333333333333 0.1 0.3 0.0 0.433333333333 0.0 0.4 0.0 0.433333333333 0.0 0.4 0.0 0.4 0.0333333333333 0.566666666667 0.0 0.133333333333 0.2 0.4 0.0 0.233333333333 0.0666666666667 0.233333333333 0.2 0.233333333333 0.0 0.4 0.0 0.433333333333 0.0 0.0666666666667 0.0 0.433333333333 0.0 0.0 0.0333333333333 0.4 0.0 0.133333333333 0.0 0.466666666667 0.133333333333 0.0 0.0 0.533333333333 0.0 0.433333333333 0.0 0.266666666667 0.166666666667 0.233333333333 0.0 0.433333333333 0.0   0.098875147598 0.112174507489 0.145733639923 0.176309738363 0.193586476913 0.210987508545 0.295009632714 0.37971536884 0.425144490709 0.45895220931 0.493381393325 0.527997016966 0.556025107203 0.572680380337 0.575912000497 0.508607296004 0.440308246846 0.437076626686 0.437200919769 0.436765893978 0.43645516127 0.427257473122 0.410788639612 0.40507115779 0.421788577466 0.436393014729 0.437138773227 0.438008824809 0.421850724007 0.404201106208 0.410788639612 0.427319619663 0.427008886955 0.410105027655 0.38816729849 0.35398670064 0.324280653782 0.341868125039 0.359393449755 0.376235162513 0.392952582189 0.398421477845 0.398297184762 0.413833820148 0.447330806041 0.467963457834 0.451370331241 0.436517307812 0.454166925611 0.471816543409 0.488596109626 0.505064943136 0.587781989932 0.706792616991 0.753091790442 0.702131626375 0.658691193835 0.642098067243 0.625194207942 0.589646386179 0.554533590206 0.479584861102 0.395562736934 0.362190044124 0
0.433333333333 0.0 0.433333333333 0.0 0.4 0.0 0.433333333333 0.0 0.433333333333 0.0 0.433333333333 0.0 0.4 0.0 0.433333333333 0.0 0.3 0.0 0.366666666667 0.0666666666667 0.366666666667 0.0 0.233333333333 0.166666666667 0.4 0.0333333333333 0.233333333333 0.0333333333333 0.233333333333 0.1 0.166666666667 0.0 0.433333333333 0.0 0.433333333333 0.0 0.4 0.0 0.433333333333 0.0 0.233333333333 0.0 0.433333333333 0.0 0.4 0.0 0.233333333333 0.2 0.433333333333 0.0 0.2 0.233333333333 0.166666666667 0.0 0.433333333333 0.0 0.566666666667 0.0 0.166666666667 0.133333333333 0.466666666667 0.0 0.133333333333 0.133333333333 0.3 0.0666666666667 0.433333333333 0.0 0.4 0.0 0.433333333333 0.0666666666667 0.433333333333 0.0 0.0333333333333 0.266666666667 0.166666666667 0.0 0.266666666667 0.0 0.266666666667 0.0 0.433333333333 0.0 0.4 0.0 0.266666666667 0.166666666667 0.433333333333 0.0 0.166666666667 0.166666666667 0.266666666667 0.0 0.3 0.0 0.2 0.233333333333 0.5 0.0 0.333333333333 0.0666666666667 0.633333333333 0.0 0.3 0.0 0.633333333333 0.0333333333333 0.2 0.0333333333333 0.566666666667 0.0666666666667 0.233333333333 0.0 0.366666666667 0.166666666667 0.0333333333333 0.0 0.5 0.0333333333333 0.433333333333 0.0 0.366666666667 0.0666666666667 0.333333333333 0.0 0.433333333333 0.0   0.0561804735566 0.0560561804736 0.0658131874961 0.0823441675471 0.082903486421 0.0822820210055 0.0818469952147 0.0791746939283 0.0626437138773 0.0742651171462 0.0922254676527 0.107637809956 0.105835560251 0.135665900193 0.162326766515 0.180162823939 0.201479087689 0.265241439314 0.301535019576 0.301535019576 0.301535019576 0.300043502579 0.299732769871 0.303523708906 0.320862593997 0.308308992605 0.326331489653 0.365918836617 0.331365359518 0.310235535392 0.29967062333 0.307252501398 0.364303026537 0.359144863588 0.332235411099 0.311105586974 0.36361941458 0.372941395811 0.3998508483 0.434777204649 0.381144739295 0.385867876453 0.395749176558 0.398297184762 0.397178547014 0.397240693555 0.397551426263 0.394568392269 0.373873593934 0.402958175378 0.422472189423 0.422285749798 0.420110620844 0.449568081536 0.540426325275 0.649182772979 0.577900689827 0.535703188118 0.462867441427 0.36324653533 0.308060406438 0.237896961034 0.156733577776 0.0826549002548 0
0.433333333333 0.0 0.433333333333 0.0 0.4 0.0 0.433333333333 0.0 0.166666666667 0.0 0.433333333333 0.0 0.4 0.0 0.166666666667 0.266666666667 0.133333333333 0.0 0.4 0.133333333333 0.0 0.0 0.466666666667 0.0333333333333 0.366666666667 0.0666666666667 0.333333333333 0.0 0.266666666667 0.133333333333 0.233333333333 0.0 0.166666666667 0.0 0.433333333333 0.0 0.4 0.0 0.166666666667 0.266666666667 0.366666666667 0.0 0.0666666666667 0.133333333333 0.0666666666667 0.133333333333 0.0666666666667 0.0 0.433333333333 0.0 0.433333333333 0.0 0.4 0.0 0.433333333333 0.0 0.266666666667 0.133333333333 0.1 0.0 0.4 0.0 0.2 0.0333333333333 0.0666666666667 0.166666666667 0.0666666666667 0.0 0.2 0.0 0.233333333333 0.0 0.433333333333 0.0 0.133333333333 0.166666666667 0.233333333333 0.0 0.3 0.0 0.433333333333 0.0 0.433333333333 0.0 0.4 0.0 0.433333333333 0.0 0.7 0.0 0.166666666667 0.1 0.7 0.0 0.1 0.133333333333 0.3 0.133333333333 0.3 0.0 0.4 0.0 0.433333333333 0.0 0.133333333333 0.0333333333333 0.533333333333 0.0 0.0 0.133333333333 0.4 0.0 0.0666666666667 0.0 0.533333333333 0.0333333333333 0.1 0.0 0.433333333333 0.1 0.433333333333 0.0 0.166666666667 0.266666666667 0.133333333333 0.0 0.433333333333 0.0   0.0630787396681 0.0851407619166 0.124541669256 0.155863526195 0.183208004475 0.210241750047 0.236964762911 0.288919271643 0.342924616245 0.396494935057 0.444223478963 0.45696351998 0.484370144801 0.552544900876 0.599962712075 0.613137778883 0.639736498664 0.679634578336 0.711888633398 0.739295258219 0.677335156299 0.58405319744 0.55670871916 0.541109937232 0.529302094338 0.516313467156 0.490149773165 0.463426760301 0.435709402772 0.40786775216 0.38052327388 0.365048785035 0.36442731962 0.35678329501 0.343670374744 0.330495307936 0.31738238767 0.314647939842 0.314647939842 0.314585793301 0.314710086384 0.316263749922 0.319433223541 0.332173264558 0.333913367721 0.305388105152 0.298303399416 0.325647877696 0.353054502517 0.380398980797 0.424460878752 0.478466223355 0.551923435461 0.631719594805 0.701075135169 0.76831769312 0.758001367224 0.740476042508 0.67335777764 0.608538934808 0.554409297123 0.482878627804 0.375862283264 0.315642284507 0
0.433333333333 0.0 0.433333333333 0.0 0.4 0.0 0.433333333333 0.0 0.3 0.0 0.433333333333 0.0 0.4 0.0333333333333 0.2 0.2 0.233333333333 0.0333333333333 0.566666666667 0.133333333333 0.133333333333 0.0 0.666666666667 0.0666666666667 0.5 0.0666666666667 0.533333333333 0.0 0.266666666667 0.266666666667 0.3 0.0 0.2 0.0 0.333333333333 0.0 0.433333333333 0.0 0.0333333333333 0.3 0.466666666667 0.133333333333 0.266666666667 0.166666666667 0.266666666667 0.133333333333 0.433333333333 0.0 0.433333333333 0.0 0.433333333333 0.0 0.4 0.0 0.433333333333 0.0 0.266666666667 0.0666666666667 0.2 0.0 0.4 0.0 0.166666666667 0.1 0.433333333333 0.0 0.166666666667 0.0666666666667 0.266666666667 0.0666666666667 0.166666666667 0.0 0.433333333333 0.0 0.433333333333 0.0 0.4 0.0 0.433333333333 0.0 0.333333333333 0.0 0.433333333333 0.0 0.4 0.0 0.333333333333 0.1 0.5 0.0 0.4 0.166666666667 0.4 0.0333333333333 0.366666666667 0.133333333333 0.3 0.266666666667 0.266666666667 0.0 0.466666666667 0.0333333333333 0.466666666667 0.0 0.2 0.0333333333333 0.533333333333 0.0 0.166666666667 0.0333333333333 0.5 0.0333333333333 0.333333333333 0.0 0.433333333333 0.233333333333 0.233333333333 0.0 0.466666666667 0.166666666667 0.433333333333 0.0 0.4 0.0333333333333 0.366666666667 0.0 0.433333333333 0.0   0.142688459387 0.209495991548 0.289043564726 0.35920701013 0.399291529426 0.438941022932 0.478404076813 0.499409607855 0.480392766143 0.460754459014 0.453234727487 0.420732086259 0.349636442732 0.350568640855 0.272201851967 0.219936610528 0.216332111118 0.19507799391 0.193959356162 0.19588589895 0.197315269405 0.197315269405 0.25262569138 0.272388291592 0.257721707787 0.219315145112 0.241439313902 0.262196258778 0.265179292772 0.239574917656 0.18059784973 0.201851966938 0.212043999751 0.198993226027 0.215586352619 0.217512895407 0.229880057175 0.245292399478 0.245416692561 0.228264247095 0.220930955192 0.220247343235 0.222173886023 0.240320676154 0.246286744143 0.247653968057 0.248275433472 0.24659747685 0.262382698403 0.272077558884 0.276800696041 0.296501149711 0.316512336088 0.300105649121 0.289851469766 0.350195761606 0.351314399354 0.418681250388 0.457522838854 0.396743521223 0.336896401715 0.262631284569 0.174756074824 0.0917904418619 0
0.133333333333 0.0333333333333 0.3 0.0333333333333 0.266666666667 0.0 0.166666666667 0.2 0.1 0.0666666666667 0.633333333333 0.0 0.0333333333333 0.0666666666667 0.6 0.0 0.333333333333 0.0 0.433333333333 0.0 0.166666666667 0.133333333333 0.3 0.0 0.433333333333 0.0 0.433333333333 0.0 0.366666666667 0.0333333333333 0.4 0.0 0.566666666667 0.0 0.233333333333 0.0 0.366666666667 0.133333333333 0.1 0.0 0.433333333333 0.0 0.433333333333 0.0 0.4 0.0 0.433333333333 0.0 0.2 0.233333333333 0.2 0.0 0.4 0.0 0.433333333333 0.0 0.333333333333 0.1 0.266666666667 0.0 0.166666666667 0.2 0.133333333333 0.0 0.3 0.233333333333 0.133333333333 0.0 0.4 0.0666666666667 0.3 0.0 0.433333333333 0.0 0.433333333333 0.0 0.333333333333 0.0666666666667 0.366666666667 0.0 0.433333333333 0.0 0.433333333333 0.0 0.4 0.0 0.433333333333 0.0 0.433333333333 0.0 0.166666666667 0.0 0.433333333333 0.0 0.1 0.0666666666667 0.4 0.0333333333333 0.4 0.0 0.4 0.0 0.433333333333 0.0 0.1 0.2 0.333333333333 0.0 0.2 0.0333333333333 0.5 0.0 0.166666666667 0.0 0.433333333333 0.0 0.133333333333 0.0333333333333 0.366666666667 0.0333333333333 0.433333333333 0.0 0.1 0.333333333333 0.1 0.0 0.366666666667 0.0333333333333   0.0259772543658 0.176061152197 0.289105711267 0.366478155491 0.4384438506 0.520539431981 0.572742526878 0.560686097819 0.501646883351 0.436144428563 0.418184078056 0.402585296128 0.399975141383 0.409794294947 0.402833882294 0.355291778013 0.338822944503 0.334783419303 0.33385122118 0.328320178982 0.313964327885 0.296376856628 0.328320178982 0.324964265739 0.309241190728 0.303150829656 0.319122490833 0.319122490833 0.330122428687 0.325399291529 0.308184699521 0.29041078864 0.258467466286 0.270151016096 0.276924989124 0.285376918774 0.295941830837 0.277111428749 0.291653719471 0.295879684296 0.278416506121 0.262631284569 0.296501149711 0.297495494376 0.284817599901 0.287303461562 0.303275122739 0.317195948045 0.315020819091 0.329935989062 0.348642098067 0.373997887018 0.407246286744 0.439997514138 0.504629917345 0.571934621838 0.590143558511 0.557454477658 0.521658069728 0.471319371077 0.407992045243 0.330495307936 0.228637126344 0.11062084395 0
0.433333333333 0.0 0.433333333333 0.0 0.4 0.0 0.433333333333 0.0 0.233333333333 0.0 0.433333333333 0.0 0.4 0.0 0.233333333333 0.2 0.133333333333 0.0 0.5 0.1 0.0666666666667 0.0 0.5 0.0666666666667 0.466666666667 0.0333333333333 0.333333333333 0.0 0.2 0.266666666667 0.0666666666667 0.0 0.166666666667 0.0 0.433333333333 0.0 0.4 0.0 0.166666666667 0.266666666667 0.366666666667 0.0 0.233333333333 0.2 0.166666666667 0.0 0.4 0.0 0.433333333333 0.0 0.433333333333 0.0 0.4 0.0 0.433333333333 0.0 0.466666666667 0.0 0.1 0.0333333333333 0.466666666667 0.0 0.0333333333333 0.0666666666667 0.266666666667 0.0333333333333 0.0666666666667 0.0333333333333 0.1 0.1 0.0333333333333 0.0 0.433333333333 0.0 0.433333333333 0.0333333333333 0.333333333333 0.0333333333333 0.433333333333 0.0 0.3 0.0 0.433333333333 0.0 0.4 0.0 0.3 0.133333333333 0.433333333333 0.0 0.133333333333 0.3 0.1 0.0 0.433333333333 0.0 0.133333333333 0.266666666667 0.2 0.0 0.366666666667 0.0 0.433333333333 0.0 0.1 0.0 0.733333333333 0.0 0.133333333333 0.0 0.6 0.0666666666667 0.433333333333 0.0 0.133333333333 0.3 0.1 0.0 0.433333333333 0.0 0.433333333333 0.0 0.433333333333 0.0 0.4 0.0 0.433333333333 0.0   0.211111801628 0.247467528432 0.309365483811 0.358958423964 0.404449692375 0.407681312535 0.412404449692 0.458890062768 0.501398297185 0.532533714499 0.543098626561 0.528183456591 0.512708967746 0.497669504692 0.445777142502 0.384189919831 0.381455472003 0.375489404015 0.328195885899 0.299794916413 0.316015163756 0.324591386489 0.324529239948 0.314834379467 0.299608476788 0.333975514263 0.379404636132 0.349325710024 0.323037722951 0.323037722951 0.323162016034 0.323348455658 0.323783481449 0.324032067615 0.324032067615 0.323969921074 0.298551985582 0.268473059474 0.253247156796 0.237772667951 0.220993101734 0.221303834442 0.252314958673 0.29121869368 0.336647815549 0.339755142626 0.324467093406 0.350009321981 0.380150394631 0.380647566963 0.390839599776 0.436703747436 0.495059349947 0.571623889131 0.580386551488 0.534522403828 0.498850288981 0.466906966627 0.408737803741 0.350133615064 0.319743956249 0.277857187248 0.19992542415 0.154185569573 0
0.166666666667 0.0 0.433333333333 0.0 0.3 0.0 0.266666666667 0.166666666667 0.0666666666667 0.0 0.6 0.0333333333333 0.0 0.0666666666667 0.466666666667 0.0666666666667 0.0666666666667 0.0 0.5 0.0 0.0333333333333 0.0 0.466666666667 0.0 0.333333333333 0.0666666666667 0.466666666667 0.0 0.1 0.266666666667 0.233333333333 0.0 0.233333333333 0.1 0.0666666666667 0.0 0.266666666667 0.0333333333333 0.133333333333 0.0 0.433333333333 0.0 0.333333333333 0.1 0.3 0.0 0.433333333333 0.0 0.433333333333 0.0 0.433333333333 0.0 0.4 0.0 0.433333333333 0.0 0.4 0.0333333333333 0.133333333333 0.0 0.4 0.0 0.166666666667 0.0 0.433333333333 0.166666666667 0.133333333333 0.0 0.466666666667 0.0666666666667 0.2 0.0 0.433333333333 0.0 0.433333333333 0.0 0.333333333333 0.0666666666667 0.366666666667 0.0 0.433333333333 0.0 0.433333333333 0.0 0.4 0.0 0.433333333333 0.0 0.466666666667 0.0 0.166666666667 0.0666666666667 0.5 0.0 0.0666666666667 0.166666666667 0.266666666667 0.166666666667 0.266666666667 0.0 0.4 0.0 0.433333333333 0.0 0.133333333333 0.166666666667 0.3 0.0 0.166666666667 0.0666666666667 0.4 0.0 0.0 0.0 0.433333333333 0.0 0.1 0.0666666666667 0.166666666667 0.2 0.433333333333 0.0 0.2 0.233333333333 0.166666666667 0.0 0.433333333333 0.0   0.252252812131 0.326766515443 0.406997700578 0.461810950221 0.51811571686 0.565471381518 0.60617736623 0.66130134858 0.615996519794 0.546951712137 0.546019514014 0.530545025169 0.527126965384 0.545335902057 0.525946181095 0.518364303027 0.516872786029 0.497607358151 0.451246038158 0.394506245727 0.339133677211 0.348517804984 0.34994717544 0.33105462681 0.312907836679 0.316885215338 0.331800385309 0.333664781555 0.334224100429 0.334224100429 0.334224100429 0.334224100429 0.324529239948 0.305201665527 0.286619849605 0.280218755826 0.288794978559 0.325399291529 0.332483997266 0.332421850724 0.332483997266 0.332421850724 0.34230315083 0.358274812007 0.358150518924 0.346466969113 0.333913367721 0.332919023056 0.317071654962 0.331241066435 0.386800074576 0.368031819029 0.403766080418 0.474737430862 0.531352930209 0.65726182338 0.74134609409 0.684792741284 0.646510471692 0.599900565534 0.54104779069 0.467590578584 0.381082592754 0.307501087564 0
0.433333333333 0.0 0.433333333333 0.0 0.4 0.0 0.433333333333 0.0 0.266666666667 0.0 0.433333333333 0.0333333333333 0.4 0.0 0.233333333333 0.2 0.233333333333 0.0666666666667 0.466666666667 0.1 0.166666666667 0.0 0.566666666667 0.0 0.5 0.0333333333333 0.333333333333 0.0 0.266666666667 0.233333333333 0.1 0.0 0.2 0.0 0.366666666667 0.0 0.4 0.0 0.133333333333 0.233333333333 0.433333333333 0.0 0.133333333333 0.233333333333 0.2 0.0 0.333333333333 0.0 0.433333333333 0.0 0.433333333333 0.0 0.4 0.0 0.433333333333 0.0 0.333333333333 0.1 0.0333333333333 0.0 0.4 0.0 0.133333333333 0.0 0.2 0.0 0.0 0.1 0.0666666666667 0.0 0.0666666666667 0.0 0.433333333333 0.0 0.433333333333 0.0 0.4 0.0 0.433333333333 0.0 0.433333333333 0.0 0.433333333333 0.0 0.4 0.0 0.433333333333 0.0 0.8 0.0 0.133333333333 0.1 0.7 0.0 0.166666666667 0.0666666666667 0.233333333333 0.166666666667 0.3 0.0 0.366666666667 0.0 0.433333333333 0.0 0.233333333333 0.0333333333333 0.7 0.0 0.166666666667 0.1 0.566666666667 0.0666666666667 0.2 0.0 0.633333333333 0.0333333333333 0.2 0.0 0.566666666667 0.0666666666667 0.5 0.0 0.233333333333 0.233333333333 0.2 0.0 0.433333333333 0.0   0.177614815736 0.241004288111 0.311913492014 0.37045553415 0.389720962028 0.396805667765 0.406003355913 0.444596358213 0.518550742651 0.571002423715 0.587719843391 0.568516562053 0.521347337021 0.483748679386 0.503511279597 0.472127276117 0.412901622025 0.341246659623 0.342489590454 0.328071592816 0.320489714747 0.339817289168 0.305077372444 0.287427754645 0.284444720651 0.265365732397 0.230439376049 0.219501584737 0.257970293953 0.239574917656 0.20918525884 0.18662606426 0.226089118141 0.233795289292 0.225156920017 0.204275682058 0.185072400721 0.177925548443 0.173326704369 0.154123423032 0.15126468212 0.15126468212 0.152507612951 0.171710894289 0.177179789945 0.176371884905 0.176371884905 0.228637126344 0.258964638618 0.26064259524 0.260580448698 0.387545833074 0.56516064881 0.740600335591 0.752470325026 0.731526940526 0.686470697906 0.607855322851 0.543968678143 0.484432291343 0.425020197626 0.309116897645 0.167547076005 0.0406438381704 0
0.433333333333 0.0 0.433333333333 0.0 0.4 0.0 0.433333333333 0.0 0.4 0.0 0.433333333333 0.0 0.4 0.0 0.4 0.0333333333333 0.2 0.0 0.333333333333 0.133333333333 0.233333333333 0.0 0.233333333333 0.2 0.166666666667 0.0 0.166666666667 0.0 0.133333333333 0.0 0.133333333333 0.0333333333333 0.4 0.0 0.166666666667 0.0666666666667 0.466666666667 0.0 0.0333333333333 0.2 0.266666666667 0.0 0.266666666667 0.2 0.166666666667 0.0 0.3 0.166666666667 0.433333333333 0.0 0.333333333333 0.1 0.3 0.0 0.433333333333 0.0 0.733333333333 0.0 0.0666666666667 0.166666666667 0.533333333333 0.0 0.2 0.0333333333333 0.633333333333 0.0333333333333 0.0666666666667 0.1 0.533333333333 0.0 0.166666666667 0.0333333333333 0.433333333333 0.0 0.433333333333 0.0 0.4 0.0 0.433333333333 0.0 0.166666666667 0.0 0.433333333333 0.0 0.4 0.0 0.166666666667 0.266666666667 0.433333333333 0.0 0.233333333333 0.166666666667 0.233333333333 0.0 0.4 0.0 0.266666666667 0.266666666667 0.3 0.0 0.4 0.0666666666667 0.5 0.0 0.1 0.0 0.633333333333 0.0333333333333 0.133333333333 0.0 0.533333333333 0.1 0.433333333333 0.0 0.1 0.333333333333 0.0666666666667 0.0 0.433333333333 0.0 0.433333333333 0.0 0.433333333333 0.0 0.4 0.0 0.433333333333 0.0   0.0684854887825 0.190292710211 0.381206885837 0.455223416817 0.514697657075 0.562488347523 0.617239450625 0.680628923 0.699397178547 0.700267230129 0.575787707414 0.465104716923 0.401963830713 0.354359579889 0.320800447455 0.275744204835 0.232552358461 0.24858616618 0.264806413523 0.281026660866 0.287303461562 0.287117021938 0.272450438133 0.260891181406 0.278789385371 0.289167857809 0.289167857809 0.289292150892 0.289354297433 0.273320489715 0.26026971599 0.259399664409 0.266546516686 0.28158597974 0.311043440433 0.343421788577 0.343297495494 0.338263625629 0.32179479212 0.314026474427 0.312659250513 0.313218569387 0.314088620968 0.315580137965 0.329065937481 0.360636380585 0.370952706482 0.3700826549 0.398794357094 0.423652973712 0.42359082717 0.453856192903 0.517121372196 0.521782362812 0.506245727425 0.506183580884 0.492635634827 0.444969237462 0.406376235163 0.375551550556 0.330557454478 0.281337393574 0.217575041949 0.17699335032 0
0.433333333333 0.0 0.433333333333 0.0 0.4 0.0 0.433333333333 0.0 0.333333333333 0.0 0.433333333333 0.0 0.4 0.0 0.333333333333 0.1 0.0 0.0 0.333333333333 0.0 0.133333333333 0.0 0.166666666667 0.166666666667 0.0666666666667 0.0 0.1 0.0 0.0333333333333 0.0 0.0333333333333 0.0 0.366666666667 0.0 0.433333333333 0.0 0.4 0.0 0.366666666667 0.0666666666667 0.166666666667 0.0 0.266666666667 0.0666666666667 0.233333333333 0.0 0.133333333333 0.166666666667 0.433333333333 0.0 0.166666666667 0.266666666667 0.133333333333 0.0 0.433333333333 0.0 0.533333333333 0.0 0.1 0.166666666667 0.4 0.0 0.166666666667 0.1 0.2 0.0 0.266666666667 0.0 0.4 0.0 0.0333333333333 0.233333333333 0.433333333333 0.0 0.166666666667 0.0333333333333 0.333333333333 0.0333333333333 0.166666666667 0.0 0.1 0.0 0.366666666667 0.0 0.333333333333 0.0 0.1 0.266666666667 0.433333333333 0.0 0.2 0.166666666667 0.233333333333 0.0 0.366666666667 0.0 0.1 0.2 0.1 0.0 0.266666666667 0.0 0.3 0.0 0.0 0.0 0.266666666667 0.0 0.0 0.0 0.233333333333 0.0 0.4 0.0 0.166666666667 0.266666666667 0.133333333333 0.0 0.4 0.0 0.433333333333 0.0 0.433333333333 0.0 0.4 0.0 0.433333333333 0.0   0.0609657572556 0.0921011745696 0.13877322727 0.207942328009 0.25865390591 0.280964514325 0.321111180163 0.364489466161 0.38735939345 0.410477906904 0.433596420359 0.474923870487 0.515754148282 0.538996954819 0.549499720341 0.549499720341 0.549810453048 0.556025107203 0.578335715617 0.601640668697 0.625442794109 0.625691380275 0.633459697968 0.655832452924 0.614753588963 0.550307625381 0.526691939594 0.503324839973 0.480019886893 0.492324902119 0.511528183457 0.512211795414 0.523957491766 0.546827419054 0.550059039214 0.53980485986 0.492387048661 0.472438008825 0.472375862283 0.45211608974 0.450438133118 0.49636442732 0.512336088497 0.512833260829 0.535578895034 0.54104779069 0.517494251445 0.545025169349 0.586911938351 0.585793300603 0.58566900752 0.586601205643 0.60499658194 0.616182959418 0.571002423715 0.537256851656 0.513889752035 0.470884345286 0.430737679448 0.407992045243 0.357404760425 0.288732832018 0.220123050152 0.17338885091 0
0.433333333333 0.0 0.433333333333 0.0 0.4 0.0 0.433333333333 0.0 0.3 0.0 0.433333333333 0.0 0.4 0.0 0.3 0.133333333333 0.166666666667 0.0 0.533333333333 0.0666666666667 0.266666666667 0.0 0.366666666667 0.233333333333 0.266666666667 0.0333333333333 0.133333333333 0.0666666666667 0.166666666667 0.0 0.233333333333 0.0 0.533333333333 0.0666666666667 0.533333333333 0.2 0.333333333333 0.133333333333 0.566666666667 0.1 0.433333333333 0.0333333333333 0.333333333333 0.233333333333 0.266666666667 0.0 0.5 0.1 0.433333333333 0.0 0.4 0.0333333333333 0.366666666667 0.0 0.433333333333 0.0 0.6 0.0 0.2 0.166666666667 0.566666666667 0.0 0.166666666667 0.166666666667 0.466666666667 0.0 0.3 0.0 0.3 0.1 0.2 0.0 0.433333333333 0.0 0.433333333333 0.0 0.4 0.0 0.433333333333 0.0 0.366666666667 0.0 0.433333333333 0.0 0.4 0.0 0.366666666667 0.0666666666667 0.433333333333 0.0 0.266666666667 0.133333333333 0.266666666667 0.0 0.366666666667 0.0333333333333 0.3 0.266666666667 0.266666666667 0.0 0.466666666667 0.0333333333333 0.466666666667 0.0 0.2 0.0 0.433333333333 0.0 0.166666666667 0.0333333333333 0.366666666667 0.0333333333333 0.433333333333 0.0 0.333333333333 0.233333333333 0.2 0.0 0.5 0.0666666666667 0.433333333333 0.0 0.433333333333 0.0 0.4 0.0 0.433333333333 0.0   0.273569075881 0.326704368902 0.404511838916 0.483686532844 0.475421042819 0.334534833137 0.226710583556 0.146852277671 0.195637312784 0.220868808651 0.219998757069 0.206512957554 0.187247529675 0.155055621155 0.141818407806 0.14362065751 0.144179976384 0.161394568392 0.223976135728 0.236902616369 0.220371636318 0.220247343235 0.225529799267 0.241004288111 0.245540985644 0.244608787521 0.229072152135 0.220185196694 0.220123050152 0.232055186129 0.247716114598 0.263687775775 0.255670871916 0.223541109937 0.218631533155 0.214778447579 0.199241812193 0.220185196694 0.2679137406 0.286495556522 0.288981418184 0.257410975079 0.246224597601 0.245540985644 0.244670934063 0.250077683177 0.267043689019 0.295506805046 0.325088558822 0.32421850724 0.331489652601 0.348579951526 0.351065813187 0.352868062892 0.368404698279 0.384376359456 0.400969486048 0.430116214033 0.44608787521 0.41513889752 0.383257721708 0.351003666646 0.273320489715 0.219004412404 0
0.133333333333 0.0 0.433333333333 0.0 0.4 0.0 0.133333333333 0.3 0.1 0.0 0.3 0.1 0.0 0.0 0.333333333333 0.0 0.0333333333333 0.0666666666667 0.366666666667 0.0 0.0666666666667 0.0 0.4 0.0 0.433333333333 0.0 0.433333333333 0.0 0.166666666667 0.233333333333 0.2 0.0 0.0 0.0 0.0 0.0 0.0 0.0 0.0 0.0 0.433333333333 0.0 0.4 0.1 0.233333333333 0.0666666666667 0.433333333333 0.0 0.366666666667 0.0666666666667 0.366666666667 0.0 0.4 0.0 0.433333333333 0.0 0.433333333333 0.0 0.0 0.0 0.4 0.0 0.0 0.0 0.333333333333 0.0 0.0 0.0 0.3 0.0 0.0 0.0 0.433333333333 0.0 0.366666666667 0.0333333333333 0.333333333333 0.0333333333333 0.366666666667 0.0 0.333333333333 0.0 0.433333333333 0.0 0.4 0.0 0.333333333333 0.1 0.433333333333 0.0 0.0333333333333 0.1 0.3 0.0 0.133333333333 0.0 0.2 0.233333333333 0.2 0.0 0.4 0.0 0.433333333333 0.0 0.1 0.0333333333333 0.433333333333 0.0 0.0 0.0666666666667 0.366666666667 0.0 0.133333333333 0.0 0.466666666667 0.1 0.0666666666667 0.0 0.466666666667 0.0666666666667 0.433333333333 0.0 0.233333333333 0.2 0.2 0.0 0.433333333333 0.0   0.307563234106 0.375178671307 0.502144055683 0.576782052079 0.614753588963 0.653595177428 0.692933938226 0.721397054254 0.745323472749 0.761232987384 0.774905226524 0.798520912311 0.824000994345 0.849853955627 0.87570691691 0.874836865328 0.871418805543 0.773227269902 0.672487726058 0.542850040395 0.428873283202 0.416568267976 0.401715244547 0.376608041762 0.357715493133 0.357031881176 0.356596855385 0.356596855385 0.351687278603 0.33869865142 0.331427506059 0.331427506059 0.325150705363 0.312597103971 0.307066061774 0.307066061774 0.315145112175 0.328133739357 0.349387856566 0.37449505935 0.390155987819 0.402585296128 0.445963582127 0.496861599652 0.582623826984 0.673233484557 0.773662295693 0.87409110683 0.862593996644 0.848983904046 0.825119632092 0.801317506681 0.775650985023 0.74737430862 0.707724815114 0.671244795227 0.645516127028 0.612267727301 0.561431856317 0.497420918526 0.409980734572 0.284817599901 0.106829904916 0.0119321359766 0
0.166666666667 0.0 0.433333333333 0.0 0.4 0.0 0.166666666667 0.266666666667 0.266666666667 0.0333333333333 0.266666666667 0.166666666667 0.0 0.1 0.366666666667 0.0 0.133333333333 0.1 0.366666666667 0.0 0.2 0.0 0.433333333333 0.0 0.433333333333 0.0333333333333 0.466666666667 0.0 0.1 0.3 0.2 0.0 0.566666666667 0.0 0.1 0.0666666666667 0.466666666667 0.0 0.133333333333 0.0333333333333 0.433333333333 0.0 0.433333333333 0.0 0.4 0.0 0.433333333333 0.0 0.433333333333 0.0 0.433333333333 0.0 0.4 0.0 0.433333333333 0.0 0.366666666667 0.0333333333333 0.133333333333 0.0 0.4 0.0 0.133333333333 0.0333333333333 0.433333333333 0.0 0.2 0.0333333333333 0.266666666667 0.1 0.133333333333 0.0 0.433333333333 0.0 0.433333333333 0.0 0.4 0.0 0.433333333333 0.0 0.433333333333 0.0 0.433333333333 0.0 0.4 0.0 0.433333333333 0.0 0.666666666667 0.0 0.2 0.133333333333 0.566666666667 0.0 0.233333333333 0.0666666666667 0.266666666667 0.266666666667 0.233333333333 0.0 0.466666666667 0.0333333333333 0.433333333333 0.0 0.266666666667 0.0333333333333 0.566666666667 0.0 0.133333333333 0.1 0.5 0.0 0.2 0.0 0.466666666667 0.166666666667 0.233333333333 0.0 0.366666666667 0.233333333333 0.433333333333 0.0 0.3 0.133333333333 0.266666666667 0.0 0.433333333333 0.0   0.30408302778 0.35479460568 0.434280032316 0.505810701634 0.572183208004 0.616182959418 0.636007706171 0.625753526816 0.605555900814 0.582126654652 0.490771238581 0.413150208191 0.379466782674 0.357342613884 0.345596917532 0.343546081661 0.342365297371 0.318563171959 0.302653657324 0.302591510782 0.28239388478 0.249021191971 0.22403828227 0.198558200236 0.164750481636 0.144987881424 0.145050027966 0.15325337145 0.165185507427 0.17699335032 0.186128891927 0.186128891927 0.185693866136 0.184761668013 0.183767323348 0.182835125225 0.18302156485 0.190168417128 0.213411223665 0.229880057175 0.241563606985 0.24336585669 0.244795227146 0.255981604624 0.263252749984 0.264122801566 0.264930706606 0.265614318563 0.286681996147 0.309241190728 0.331241066435 0.34876639115 0.360884966752 0.415076750979 0.483065067429 0.541296376857 0.57684419862 0.553290659375 0.511031011124 0.45373189982 0.396494935057 0.336337082841 0.244670934063 0.186128891927 0
0.433333333333 0.0 0.433333333333 0.0 0.4 0.0 0.433333333333 0.0 0.266666666667 0.0 0.433333333333 0.0 0.4 0.0 0.266666666667 0.166666666667 0.0333333333333 0.0 0.533333333333 0.0 0.0666666666667 0.0 0.433333333333 0.0666666666667 0.433333333333 0.0 0.466666666667 0.0 0.133333333333 0.3 0.1 0.0 0.266666666667 0.0666666666667 0.433333333333 0.0 0.4 0.0 0.4 0.1 0.166666666667 0.0 0.2 0.133333333333 0.0333333333333 0.0 0.266666666667 0.0 0.433333333333 0.0 0.3 0.133333333333 0.266666666667 0.0 0.433333333333 0.0 0.533333333333 0.0666666666667 0.0333333333333 0.0 0.566666666667 0.0 0.0333333333333 0.0666666666667 0.366666666667 0.0333333333333 0.5 0.133333333333 0.333333333333 0.0 0.533333333333 0.133333333333 0.433333333333 0.0 0.433333333333 0.0 0.4 0.0 0.433333333333 0.0 0.366666666667 0.0 0.433333333333 0.0 0.4 0.0 0.366666666667 0.0666666666667 0.633333333333 0.0 0.0333333333333 0.166666666667 0.433333333333 0.0 0.166666666667 0.0333333333333 0.2 0.233333333333 0.2 0.0 0.4 0.0 0.433333333333 0.0 0.0 0.0 0.4 0.0 0.0 0.0 0.333333333333 0.0 0.1 0.0 0.5 0.1 0.0 0.0 0.533333333333 0.0 0.433333333333 0.0 0.366666666667 0.0666666666667 0.333333333333 0.0 0.433333333333 0.0   0.021440556833 0.0280280902368 0.0443726306631 0.0669318252439 0.115903299981 0.165247653968 0.214094835622 0.26306631036 0.299857062954 0.333043316139 0.366105276241 0.39904294326 0.432104903362 0.464980423839 0.492884220993 0.493008514076 0.492946367535 0.46218382947 0.42999192095 0.433596420359 0.449754521161 0.457212106146 0.457212106146 0.457274252688 0.457274252688 0.455409856441 0.439003169474 0.422472189423 0.436082282021 0.452364675906 0.457274252688 0.457274252688 0.449257348829 0.433161394568 0.416692561059 0.399912994842 0.385930022994 0.402896028836 0.419675595053 0.421602137841 0.421726430924 0.399415822509 0.366478155491 0.35641041576 0.372444223479 0.393076875272 0.425952395749 0.456466347648 0.440246100305 0.424087999503 0.560064632403 0.722888571251 0.793114163197 0.810080169039 0.791187620409 0.725063700205 0.662668572494 0.613324218507 0.563855571437 0.515070536325 0.466534087378 0.309986949226 0.129575539121 0.0576098440122 0
0.166666666667 0.0 0.433333333333 0.0 0.4 0.0 0.166666666667 0.266666666667 0.0333333333333 0.0 0.0333333333333 0.0333333333333 0.0 0.0 0.0333333333333 0.0 0.0 0.0333333333333 0.3 0.0 0.0 0.0 0.333333333333 0.0 0.433333333333 0.0 0.366666666667 0.0 0.2 0.2 0.133333333333 0.0 0.333333333333 0.0 0.1 0.1 0.233333333333 0.0 0.133333333333 0.0666666666667 0.433333333333 0.0 0.366666666667 0.0666666666667 0.333333333333 0.0 0.433333333333 0.0 0.433333333333 0.0 0.433333333333 0.0 0.4 0.0 0.433333333333 0.0 0.266666666667 0.0666666666667 0.0666666666667 0.0 0.366666666667 0.0 0.0666666666667 0.0666666666667 0.333333333333 0.0333333333333 0.0333333333333 0.0 0.3 0.0 0.0666666666667 0.0 0.433333333333 0.0 0.366666666667 0.0666666666667 0.333333333333 0.0 0.433333333333 0.0 0.266666666667 0.0 0.433333333333 0.0 0.4 0.0 0.266666666667 0.166666666667 0.366666666667 0.0 0.0333333333333 0.0666666666667 0.3 0.0 0.0333333333333 0.0333333333333 0.266666666667 0.166666666667 0.266666666667 0.0 0.4 0.0 0.433333333333 0.0 0.0666666666667 0.0333333333333 0.633333333333 0.0 0.0 0.0333333333333 0.6 0.0 0.2 0.0 0.433333333333 0.133333333333 0.133333333333 0.0 0.433333333333 0.1 0.433333333333 0.0 0.266666666667 0.166666666667 0.233333333333 0.0 0.433333333333 0.0   0.229072152135 0.256975949288 0.384500652539 0.510968864583 0.574979802374 0.606363805854 0.639612205581 0.687589335653 0.735690758809 0.757379901808 0.756758436393 0.756074824436 0.710024237151 0.663414330992 0.628923000435 0.612143434218 0.595177428376 0.565533528059 0.533900938413 0.497607358151 0.450873158909 0.403952520042 0.391709651358 0.391647504816 0.391647504816 0.391709651358 0.391709651358 0.391958237524 0.392331116773 0.391896090983 0.375489404015 0.359082717047 0.342862469704 0.327077248151 0.311105586974 0.325585731154 0.342054564663 0.364178733453 0.395624883475 0.42719532658 0.420048474302 0.404387545833 0.401093779131 0.432104903362 0.463240320676 0.472313715742 0.471940836492 0.473929525822 0.490771238581 0.507426511715 0.560313218569 0.638866447082 0.71642533093 0.715928158598 0.716052451681 0.701261574793 0.669504692064 0.637996395501 0.606363805854 0.574979802374 0.527251258467 0.448138711081 0.368404698279 0.351065813187 0
0.433333333333 0.0 0.433333333333 0.0 0.4 0.0 0.433333333333 0.0 0.133333333333 0.0 0.433333333333 0.0 0.4 0.0 0.133333333333 0.3 0.0333333333333 0.0333333333333 0.233333333333 0.0666666666667 0.0 0.0 0.266666666667 0.0 0.433333333333 0.0 0.433333333333 0.0 0.333333333333 0.133333333333 0.233333333333 0.0333333333333 0.2 0.0 0.3 0.0 0.333333333333 0.0 0.133333333333 0.166666666667 0.4 0.0 0.166666666667 0.266666666667 0.133333333333 0.0 0.4 0.0 0.433333333333 0.0 0.4 0.0333333333333 0.366666666667 0.0 0.433333333333 0.0 0.533333333333 0.0333333333333 0.0666666666667 0.0 0.533333333333 0.0333333333333 0.0 0.0666666666667 0.433333333333 0.0666666666667 0.0 0.0666666666667 0.3 0.0666666666667 0.0333333333333 0.0333333333333 0.433333333333 0.0 0.433333333333 0.0 0.4 0.0 0.433333333333 0.0 0.266666666667 0.0 0.433333333333 0.0 0.4 0.0 0.266666666667 0.166666666667 0.366666666667 0.0 0.0 0.0333333333333 0.266666666667 0.0 0.0333333333333 0.0 0.166666666667 0.266666666667 0.166666666667 0.0 0.4 0.0 0.433333333333 0.0 0.0333333333333 0.0 0.533333333333 0.0333333333333 0.0 0.0 0.5 0.0 0.0666666666667 0.0 0.266666666667 0.0666666666667 0.0 0.0 0.3 0.0 0.433333333333 0.0 0.166666666667 0.266666666667 0.133333333333 0.0 0.433333333333 0.0   0.0412031570443 0.125225281213 0.219439438195 0.30128643341 0.363805854204 0.411161518861 0.445031384003 0.466036915046 0.548940401467 0.5913243428 0.617488036791 0.658318314586 0.623640544404 0.570505251383 0.51649990678 0.496240134237 0.458641476602 0.437511652477 0.437449505935 0.437511652477 0.437511652477 0.445528556336 0.465229010006 0.465166863464 0.478901249145 0.492946367535 0.492884220993 0.513206140078 0.522403828227 0.508607296004 0.445652849419 0.45453980486 0.475110310111 0.492884220993 0.492884220993 0.493008514076 0.493008514076 0.491889876328 0.471505810702 0.450811012367 0.443850599714 0.46460754459 0.465912621963 0.491019824747 0.521658069728 0.521658069728 0.539929152943 0.549251134174 0.548567522217 0.549686159965 0.631471008638 0.744142688459 0.857870859487 0.837548940401 0.787148095209 0.746504257038 0.746442110497 0.725933751787 0.69187744702 0.633770430676 0.530607171711 0.315704431048 0.17780125536 0.126965384376 0
